tree
version=v4
num_class=1
num_tree_per_iteration=1
label_index=0
max_feature_idx=13
objective=regression
feature_names=return_1m return_3m return_6m return_12m gk_vol rsi atr_norm bb_width macd_hist beta_mkt beta_smb beta_hml beta_rmw beta_cma
feature_infos=[-0.3511450616506584:0.8775621672650864] [-0.47586115476962521:1.5143608588145518] [-0.60000001971419736:2.5595929307783547] [-0.74078175299330717:9.3040888326401916] [0.023058751526549924:1.1316799918662825] [12.40462459002066:91.241281448700846] [0.0025217200445716566:0.13627596848924073] [0.0034574005829604054:0.95867447668704708] [-50.970636369461658:30.659754722103415] [-0.73900011435087942:4.6700895094254342] [-2.8327522021649028:3.7139870893206268] [-3.7600657647965114:4.4942513315541337] [-3.9184840442475868:4.1680528979531353] [-4.6814908517187543:3.4297685431494078]
tree_sizes=2731 2907 2913 2928 2921 2925 2883 2909 2888 2920 2906 2903 2906 2904 2884 2904 2900 2893 2929 2919 2910 2898 2887 2890 2865 2883 2904 2907 2901 2882 2901 2936 2881 2890 2949 2901 2892 2898 2922 2883 2910 2888 2912 2895 2894 2898 2923 2903 2897 2897 2910 2910 2886 2897 2885 2903 2884 2905 2904 2918 2877 2892 2885 2897 2899 2899 2898 2898 2911 2878 2897 2893 2910 2917 2884 2887 2883 2919 2864 2857 2895 2894 2888 2892 2879 2897 2910 2892 2899 2893 2894 2904 2904 2892 2888 2905 2876 2914 2875 2891 2883 2897 2879 2870 2917 2900 2876 2863 2887 2905 2882 2882 2895 2879 2908 2870 2906 2911 2887 2907 2904 2866 2912 2919 2857 2915 2904 2908 2904 2876 2870 2878 2886 2885 2879 2878 2900 2887 2873 2901 2913 2883 2886 2887 2890 2869 2902 2878 2889 2883 2892 2917 2867 2902 2888 2897 2884 2874 2908 2886 2897 2886 2929 2901 2867 2927 2920 2880 2866 2886 2930 2892 2868 2914 2875 2880 2907 2921 2919 2875 2868 2894 2921 2882 2881 2872 2913 2900 2896 2885 2877 2888 2906 2894 2924 2877 2907 2946 2895 2877

Tree=0
num_leaves=31
num_cat=0
split_feature=3 9 0 4 3 8 8 5 6 4 9 2 0 8 9 9 2 4 13 3 8 8 4 3 2 3 3 7 7 7
split_gain=2.75113 1.80457 1.28222 1.53164 1.09516 1.07266 0.830253 0.777266 0.747683 1.31581 0.760385 0.705689 0.738372 0.681899 0.710207 1.00761 0.779879 0.647707 0.607706 0.82829 0.583661 1.0888 0.631896 0.582837 0.654005 0.708086 0.575988 0.572442 0.562016 0.546748
threshold=2.0538041855125488 0.30627310470315039 0.010188021644291669 0.54501576359080517 -0.12388295721816316 -1.5249380019259331 0.48262478324217833 58.749212303273787 0.02603967169101579 0.37178641668608331 0.84987694053355101 -0.017317665260008715 0.049602763711930294 -1.3799217626081084 0.41166484721120394 0.42925299731463457 -0.096818350928346605 0.18886958899575135 -1.0229002973616759 0.75698245489015337 0.070510065360614674 -0.15546296258693962 0.25708372100259064 0.5140581797834487 -0.0023242741307734067 -0.087243061579434775 -0.19161804890724318 0.24984874747516808 0.14033956380780516 0.12316061480183839
decision_type=2 2 2 2 2 2 2 2 2 2 2 2 2 2 2 2 2 2 2 2 2 2 2 2 2 2 2 2 2 2
left_child=1 4 3 7 -1 -6 -5 13 26 10 29 -7 -13 17 16 -16 -15 -3 20 -20 21 22 -17 24 25 -19 -4 -2 -22 -10
right_child=27 2 8 6 5 11 -8 -9 9 -11 -12 12 -14 14 15 18 -18 23 19 -21 28 -23 -24 -25 -26 -27 -28 -29 -30 -31
leaf_value=0.49468226649896879 0.50996721026258707 0.50475830411100286 0.4981835607144075 0.50432984987122487 0.49247690455603893 0.50805954564467892 0.51700322788010544 0.49704423066523562 0.50794053505566761 0.50249067840176176 0.50800102944409109 0.49859930073276509 0.50551721010438644 0.51624774695610798 0.49165680762500669 0.50998478838034822 0.50468961490873965 0.49652053928239437 0.50246813980873051 0.51013528115430395 0.49820015075506857 0.5150265313242951 0.50107043180525468 0.50435498700819736 0.49649199648863024 0.504801184637233 0.50385171112312221 0.52165504815611141 0.50696634913953809 0.50078031130655642
leaf_weight=83 20 79 46 24 30 46 28 64 42 237 406 108 60 20 20 33 54 42 1637 36 41 36 50 55 146 67 1747 22 33 73
leaf_count=83 20 79 46 24 30 46 28 64 42 237 406 108 60 20 20 33 54 42 1637 36 41 36 50 55 146 67 1747 22 33 73
internal_value=0.503343 0.503242 0.503477 0.502664 0.499644 0.501331 0.511154 0.502481 0.504263 0.505579 0.506984 0.502572 0.50107 0.502629 0.503008 0.50282 0.507813 0.500717 0.50294 0.502633 0.505596 0.507764 0.504615 0.499687 0.49868 0.50161 0.503706 0.516089 0.502109 0.503395
internal_weight=5385 5343 5016 2465 327 244 52 2413 2551 758 521 214 168 2349 1960 1886 74 389 1866 1673 193 119 83 310 255 109 1793 42 74 115
internal_count=5385 5343 5016 2465 327 244 52 2413 2551 758 521 214 168 2349 1960 1886 74 389 1866 1673 193 119 83 310 255 109 1793 42 74 115
is_linear=0
shrinkage=1


Tree=1
num_leaves=31
num_cat=0
split_feature=4 0 7 4 5 6 8 12 4 12 13 1 8 1 5 7 2 13 6 11 6 5 0 6 4 8 11 6 13 6
split_gain=1.92545 1.73329 0.929532 0.929239 0.891941 0.75894 0.756161 0.692002 2.12272 0.85845 0.813555 0.677397 0.627567 0.784305 0.840515 0.943151 0.91063 0.817052 0.735269 0.690694 0.661196 0.62594 1.19998 0.688067 0.622229 0.613926 0.777398 0.628056 1.05233 0.916982
threshold=0.54501576359080517 0.010188021644291669 0.33623274203092307 0.4508013726037241 58.749212303273787 0.026183022669850384 -2.5538379633364916 -0.44884039106890478 0.47378398821168083 0.39646158456822583 -1.1831781448424719 -0.12032518193253704 0.17096811679392637 -0.018520043665133264 59.053868467954736 0.17624735533150829 -0.1706669066036782 0.43589088146539706 0.028055429905753115 -1.590382661650936 0.030827898375557775 63.182146273734716 0.099065142980291468 0.030218794150087276 0.30445002614530042 -1.0356279316627983 -0.078028410155948788 0.032072789016413632 0.52084052289479288 0.036324076367761436
decision_type=2 2 2 2 2 2 2 2 2 2 2 2 2 2 2 2 2 2 2 2 2 2 2 2 2 2 2 2 2 2
left_child=1 4 3 5 6 -3 11 8 25 10 -9 -1 19 14 15 16 -14 18 -15 -7 -19 22 -20 -23 -11 26 -8 28 -27 -29
right_child=-2 2 -4 -5 -6 12 7 9 -10 24 -12 -13 13 17 -16 -17 -18 20 21 -21 -22 23 -24 -25 -26 27 -28 29 -30 -31
leaf_value=0.0015371210044683066 0.0067044916132900177 0.0002328712225009125 0.0064461931153865799 -0.0061430030111223463 -0.0065788941487381365 -0.0043558637145906685 -0.011821556063368918 0.0059464377167185176 0.0095071009486108211 -0.00075749977038354604 0.00042525251294936537 -0.0056201253617626061 -0.0033804026618599898 0.0069008485561736473 0.012108423815180477 -0.0070441938598047611 0.0099262494335158012 -0.0092482421027366511 -0.0024559523002841534 0.0044657332634198523 0.00024373519845539705 0.0027433400441493308 0.012368921988776753 -0.0085340837966405639 -0.0045599795949573703 -0.0014584037072580835 -0.0026950780040351677 0.0053650721520049661 -0.0075689555735945118 -0.0027280564602863576
leaf_weight=43 105 1899 70 50 71 24 40 72 37 624 910 143 20 41 26 22 36 43 39 294 32 21 21 38 130 233 56 60 101 84
leaf_count=43 105 1899 70 50 71 24 40 72 37 624 910 143 20 41 26 22 36 43 39 294 32 21 21 38 130 233 56 60 101 84
internal_value=1.46939e-11 -0.000133328 0.000760319 0.000607591 -0.00105168 0.000739644 -0.000896757 -0.000653559 -0.00210073 -0.000144213 0.000830064 -0.00396549 0.00220443 0.00070774 0.00432292 0.00172775 0.00517387 -0.00089217 0.00112634 0.00379995 -0.00519833 -0.000863192 0.00273275 -0.00452009 -0.0014131 -0.00284897 -0.00649778 -0.00211616 -0.00330621 0.00064408
internal_weight=5385 5280 2676 2606 2604 2556 2533 2347 611 1736 982 186 657 339 104 78 56 235 160 318 75 119 60 59 754 574 96 478 334 144
internal_count=5385 5280 2676 2606 2604 2556 2533 2347 611 1736 982 186 657 339 104 78 56 235 160 318 75 119 60 59 754 574 96 478 334 144
is_linear=0
shrinkage=0.05


Tree=2
num_leaves=31
num_cat=0
split_feature=3 9 10 3 0 4 1 1 5 12 0 3 0 2 11 3 0 10 1 0 2 10 7 4 4 5 5 12 12 9
split_gain=2.41446 1.61544 1.07384 1.00338 0.991371 1.36451 1.08843 0.893579 1.07551 0.746093 0.750084 0.657928 0.639777 0.83387 0.633923 0.632538 0.703305 0.645911 0.722731 1.03935 0.958529 0.62232 0.620564 0.602767 0.610585 0.590428 0.909031 0.613786 0.571312 0.564196
threshold=2.0538041855125488 0.30627310470315039 1.0139439253190596 -0.067361182528630201 0.12997227643430723 0.54501576359080517 0.11661809705716832 0.10565196172005199 39.248021722197201 -0.73498028890569855 0.076931788711021035 -0.1158558494262739 0.08269400987441701 -0.017317665260008715 -0.28786951749541634 0.75698245489015337 -0.030340091577220004 -0.62970909523800345 -0.13023639817102248 -0.020380761886216122 -0.32207380432044935 -0.19152009222799157 0.20195062972949721 0.27761679833579472 0.22328565230375377 63.182146273734716 70.220810153158951 0.22110032556964351 0.10233111871492022 0.46485163633908022
decision_type=2 2 2 2 2 2 2 2 2 2 2 2 2 2 2 2 2 2 2 2 2 2 2 2 2 2 2 2 2 2
left_child=1 3 4 -1 5 15 -6 8 -4 -10 23 -9 13 -5 -7 17 -17 -3 20 22 -19 -21 -20 24 -11 -8 27 -27 -13 -23
right_child=-2 2 7 12 6 14 25 11 9 10 -12 28 -14 -15 -16 16 -18 18 19 21 -22 29 -24 -25 -26 26 -28 -29 -30 -31
leaf_value=-0.0074981434081839221 0.011941401189237479 -0.0014798863084649603 -0.0062039563185809291 0.003859184784079461 0.0066373965176715847 0.014295850729357211 0.0071884345545461682 0.00086020870852128927 -0.0069537136082847908 0.0030807822854036376 0.0096095276996493346 -0.012712970021657827 0.0046209068396793947 -0.0044441590859630219 0.0033401417485888932 0.008591417055122735 0.001246848467403566 -0.005779309982829022 -0.0011397856490017498 0.0018109850195084862 0.0031787832502266807 -0.0030005683312320139 -0.0062129522788410005 0.0038195473767700609 -0.0081141016285481132 -0.006966248696975025 0.0024099767467243064 0.0024057802557945255 -0.0043139754161529709 0.00028169577936616166
leaf_weight=106 42 725 68 38 123 23 33 24 24 21 30 41 35 148 31 41 159 33 830 651 314 146 65 68 29 58 146 25 40 1268
leaf_count=106 42 725 68 38 123 23 33 24 24 21 30 41 35 148 31 41 159 33 830 651 314 146 65 68 29 58 146 25 40 1268
internal_value=-1.86573e-11 -9.38684e-05 0.000128114 -0.00349895 0.000326937 0.00010862 0.00275734 -0.00256377 -0.000880648 0.00122392 0.00255002 -0.00641091 -0.00158079 -0.00274778 0.00800646 7.84373e-06 0.00275249 -0.000128299 0.000168012 -8.50694e-05 0.00232686 0.000531747 -0.00150823 0.000755226 -0.00341225 0.00093579 3.47541e-05 -0.00414335 -0.00856532 -5.72084e-05
internal_weight=5385 5343 5016 327 4671 4286 385 345 240 172 148 105 221 186 54 4232 200 4032 3307 2960 347 2065 895 118 50 262 229 83 81 1414
internal_count=5385 5343 5016 327 4671 4286 385 345 240 172 148 105 221 186 54 4232 200 4032 3307 2960 347 2065 895 118 50 262 229 83 81 1414
is_linear=0
shrinkage=0.05


Tree=3
num_leaves=31
num_cat=0
split_feature=9 0 9 7 6 10 11 9 0 9 1 8 1 2 13 6 6 1 5 6 9 10 6 8 8 1 9 6 0 8
split_gain=1.60017 1.10582 1.1719 1.19989 0.991886 1.10691 0.832685 0.816397 1.04922 0.768299 0.690344 0.981875 0.791422 0.670331 0.626309 0.662221 0.623649 0.865289 0.609816 0.602618 0.676529 0.575801 1.18543 0.567721 0.773171 0.976979 0.557594 0.554067 0.550738 0.688186
threshold=0.30627310470315039 0.010188021644291669 1.5291754873795325 0.33623274203092307 0.057836310006132118 1.2198700869815913 -1.3607690755207196 1.2843829426836295 -0.078504383558616594 1.4569976584245103 -0.12361541241297401 -2.5538379633364916 0.071372613209857452 -0.30660315594539322 0.42070490318046322 0.019117662090017327 0.045230837789521285 -0.021435957818134951 58.749212303273787 0.027139431338747546 1.7525548706134384 -0.23107852184318531 0.038107469579488469 0.015540187327238832 0.71942976461232588 0.2809551189866028 1.4707712797401606 0.049244512259743099 0.063407782428884132 0.51985106021928662
decision_type=2 2 2 2 2 2 2 2 2 2 2 2 2 2 2 2 2 2 2 2 2 2 2 2 2 2 2 2 2 2
left_child=14 4 16 6 5 10 -4 8 -7 -6 13 12 -12 27 -1 -16 23 -18 -13 20 -8 22 -15 -3 25 26 28 -2 29 -25
right_child=1 2 3 -5 9 7 19 -9 -10 -11 11 18 -14 21 15 -17 17 -19 -20 -21 -22 -23 -24 24 -26 -27 -28 -29 -30 -31
leaf_value=-0.001439461650586397 -0.0062802708133104001 0.0017161853746330679 -0.0057328456627397705 0.011608811190877207 -0.00038599996672322354 -0.0076987713733688004 0.0032560674387863593 -0.0092344716096704367 0.0070987811959956001 0.011707958943563803 -0.0083529401090345345 -0.00037808672371665418 -0.00039273602119207661 -0.0029909636435116196 -0.00080173573702470302 -0.0081055421237833797 0.0023722005565650762 -0.011580935310572388 -0.0053894328373846499 0.0048197799679500801 -0.0030747904080841971 0.0035769088536340625 0.0077144059141145971 -0.00072092203025599718 0.0014336402870802137 -0.0082480709846343165 -0.007514901712004628 0.0036560287699103355 0.0011275841713271049 -0.0065329497979837482
leaf_weight=183 47 710 29 39 24 25 114 64 23 29 76 1667 53 108 45 100 20 25 63 217 67 244 34 337 543 44 28 20 347 60
leaf_count=183 47 710 29 39 24 25 114 64 23 29 76 1667 53 108 45 100 20 25 63 217 67 244 34 337 543 44 28 20 347 60
internal_value=3.49973e-11 0.000219508 0.000943975 0.00321366 -0.000535083 -0.000683031 0.00244689 -0.00553753 -0.000608277 0.00623145 -0.000447865 -0.000874364 -0.00508247 0.00130238 -0.00338431 -0.00583884 0.000443657 -0.00537954 -0.000560581 0.0030429 0.000912601 0.00210371 -0.000427706 0.000570309 -2.83456e-05 -0.00100121 -0.000588178 -0.00331421 -0.000327495 -0.00159931
internal_weight=5385 5057 2580 466 2477 2424 427 112 48 53 2312 1859 129 453 328 145 2114 45 1730 398 181 386 142 2069 1359 816 772 67 744 397
internal_count=5385 5057 2580 466 2477 2424 427 112 48 53 2312 1859 129 453 328 145 2114 45 1730 398 181 386 142 2069 1359 816 772 67 744 397
is_linear=0
shrinkage=0.05


Tree=4
num_leaves=31
num_cat=0
split_feature=3 9 10 3 0 4 1 1 5 12 0 13 2 3 0 2 11 3 13 0 10 13 0 1 0 2 13 9 12 12
split_gain=2.0863 1.31078 0.910209 0.87726 0.845101 1.16924 0.979445 0.810589 0.929624 0.65549 0.65525 1.10886 0.926873 0.586624 0.580707 0.748237 0.565912 0.562396 0.792284 0.674016 0.571095 0.626431 0.767218 0.599941 0.885761 0.807917 0.650382 0.6674 0.658189 0.656802
threshold=2.0538041855125488 0.30627310470315039 1.0139439253190596 -0.067361182528630201 0.12997227643430723 0.54501576359080517 0.091357624263308082 0.10565196172005199 39.248021722197201 -0.73498028890569855 0.076931788711021035 -0.90194818070382865 -0.027427396651764354 -0.1158558494262739 0.08269400987441701 -0.017317665260008715 -0.28786951749541634 0.75698245489015337 -1.4062943138083088 -0.030340091577220004 -0.62970909523800345 -0.75195391514693 0.089841825515083587 -0.13023639817102248 -0.016122628109340894 -0.22717148527381639 1.9594148663922277 0.8356053656431518 -0.48560278422116915 -0.32078349975930925
decision_type=2 2 2 2 2 2 2 2 2 2 2 2 2 2 2 2 2 2 2 2 2 2 2 2 2 2 2 2 2 2
left_child=1 3 4 -1 5 17 -6 8 -4 -10 11 -11 -13 -9 15 -5 -7 20 -19 -20 21 -3 -23 25 -25 -22 27 28 -26 -29
right_child=-2 2 7 14 6 16 -8 13 9 10 -12 12 -14 -15 -16 -17 -18 18 19 -21 23 22 -24 24 26 -27 -28 29 -30 -31
leaf_value=-0.0068939079825625265 0.011100273459617581 0.0010678715819468427 -0.005711676839307663 0.003785790933149034 0.0067971831990871583 0.01334753722033423 0.0010458581576842749 0.00083605888260838892 -0.0064709649964546159 0.011488683493807912 0.009035209218660991 0.0021942863126270594 -0.0079539085445659505 -0.0080640709294253436 0.0045475412399641106 -0.0040796562363096664 0.0029961968982411971 -0.0059332034472996988 0.0096475240210757447 0.0021273112020698255 -0.0020526936108476602 -0.0028269012088832611 0.0042128633619064378 -0.001317352263873708 -0.0048094827693568763 0.0035136724088806661 -0.005953598581254483 0.0033199315719729737 5.0186763234835649e-06 0.00067337834322454414
leaf_weight=106 42 190 68 38 100 23 285 24 24 20 30 63 35 81 35 148 31 24 38 138 87 493 42 971 79 260 38 324 700 848
leaf_count=106 42 190 68 38 100 23 285 24 24 20 30 63 35 81 35 148 31 24 38 138 87 493 42 971 79 260 38 324 700 848
internal_value=-6.23942e-12 -8.72565e-05 0.000112701 -0.00315449 0.00029575 9.41807e-05 0.00253971 -0.00236562 -0.000762558 0.00119407 0.00243705 0.00075955 -0.00143007 -0.00602976 -0.00136093 -0.00247274 0.0074051 8.93863e-07 0.00258889 0.00375099 -0.000127479 -0.00139838 -0.00227425 0.000151143 -7.94389e-05 0.00211807 0.000524892 0.000651075 -0.00048323 0.00140502
internal_weight=5385 5343 5016 327 4671 4286 385 345 240 172 148 118 98 105 221 186 54 4232 200 176 4032 725 535 3307 2960 347 1989 1951 779 1172
internal_count=5385 5343 5016 327 4671 4286 385 345 240 172 148 118 98 105 221 186 54 4232 200 176 4032 725 535 3307 2960 347 1989 1951 779 1172
is_linear=0
shrinkage=0.05


Tree=5
num_leaves=31
num_cat=0
split_feature=3 0 4 10 3 8 5 8 3 5 4 7 12 6 7 5 8 5 10 3 13 12 6 5 3 7 13 6 13 12
split_gain=1.88289 0.967779 1.03724 0.844635 0.849998 0.754934 0.729273 0.65295 0.635456 0.629897 0.570396 0.544761 0.997074 0.58804 0.737791 0.726873 1.12537 0.599329 0.984673 0.640208 0.598516 0.70256 0.543299 0.709564 0.651624 0.596581 0.503217 0.763988 0.764534 0.598695
threshold=2.0538041855125488 0.010188021644291669 0.54501576359080517 1.2198700869815913 0.33183179974497407 0.48262478324217833 58.749212303273787 -2.1134764077479278 0.0072900600414459458 39.248021722197201 0.28789198377763109 0.091375758556352285 -1.2423013390622963 0.042846191141410646 0.32038247000238423 58.749212303273787 -0.23544847180838646 50.038208057936892 0.028420885775265695 -0.34453055371368246 0.9933836626816851 -0.80130260485911819 0.029875532666377786 59.556944051525022 0.32124154443300651 0.10863736838025483 0.46564046213271443 0.044642131819888409 1.0476704820620311 -0.53242764205047421
decision_type=2 2 2 2 2 2 2 2 2 2 2 2 2 2 2 2 2 2 2 2 2 2 2 2 2 2 2 2 2 2
left_child=1 2 3 6 9 -4 7 -1 26 -5 -11 12 -3 14 17 16 -15 18 -13 -19 -21 -22 23 -23 -24 -25 29 28 -28 -9
right_child=-2 11 5 4 -6 -7 -8 8 -10 10 -12 13 -14 15 -16 -17 -18 19 -20 20 21 22 24 25 -26 -27 27 -29 -30 -31
leaf_value=-0.0030094614715713997 0.010545259528139252 0.0076659566143880021 -0.00015213759243488313 -0.0077955331234261394 -0.013361948841096214 0.011801866754623396 -0.0057296210755261459 -0.0036775615132486855 0.00042009894938262079 -0.0064487719243126254 0.0036845613560616609 0.0091003815750038981 -0.0007069809286705393 -0.0063265259805563336 0.0074773504470310101 -0.0076273947772456385 0.0049933232229065014 -0.0079612556681968281 -0.00071937063915861979 0.0014777175773980772 -0.0098351864525201647 -0.0069877295648342278 0.0097997074425220498 0.0081802712543867541 -0.0018618157558629046 -0.0014509826211440491 -0.0052077829843176953 0.006785412423778326 -0.0004636652092611055 0.00063310150425928565
leaf_weight=243 42 37 25 40 24 28 70 102 1302 21 41 59 911 37 48 41 54 20 45 1222 22 47 25 20 23 82 207 20 144 383
leaf_count=243 42 37 25 40 24 28 70 102 1302 21 41 59 911 37 48 41 54 20 45 1222 22 47 25 20 23 82 207 20 144 383
internal_value=3.51347e-12 -8.28937e-05 -0.000761254 -0.00090257 -0.00489576 0.00616319 -0.000698951 -0.000552284 -0.000275596 -0.00290371 0.000252303 0.000584635 -0.000380189 0.00110879 0.00137136 -0.00209974 0.000390747 0.00118409 0.00485145 0.000923028 0.00104634 -0.00136074 -0.000414353 -0.00190469 0.00421189 0.000437499 -0.00133377 -0.00271987 -0.00326148 -0.000273471
internal_weight=5385 5343 2650 2597 126 53 2471 2401 2158 102 62 2693 948 1745 1613 132 91 1565 104 1461 1441 219 197 149 48 102 856 371 351 485
internal_count=5385 5343 2650 2597 126 53 2471 2401 2158 102 62 2693 948 1745 1613 132 91 1565 104 1461 1441 219 197 149 48 102 856 371 351 485
is_linear=0
shrinkage=0.05


Tree=6
num_leaves=31
num_cat=0
split_feature=3 9 3 8 10 0 1 1 8 8 5 9 8 6 1 9 5 1 6 0 10 6 3 12 3 11 3 3 6 8
split_gain=1.74085 1.08352 0.793832 0.945513 0.752239 0.744078 0.894041 0.727473 0.869294 0.680981 0.815292 0.60195 0.718298 0.586251 0.576346 1.31301 0.573792 0.560225 0.848582 0.962976 0.878138 0.761008 0.72592 0.588466 0.549004 0.730533 0.517772 0.688859 0.769224 0.505278
threshold=1.76302737009648 0.30627310470315039 -0.12388295721816316 -1.5249380019259331 1.0139439253190596 0.12610750902677662 0.091357624263308082 0.10565196172005199 -0.76491473711404134 -0.49369350502215553 44.911310953769821 1.0482159247640419 0.3613179672018807 0.034376994093582754 0.18505156732514241 1.4569976584245103 77.067767562540993 -0.13023639817102248 0.050384582979499735 -0.17851490380346494 -0.23767925808653542 0.027019499676960781 0.043263672704496277 0.14751183838115059 -0.19161804890724318 0.85324040830914216 -0.1158558494262739 -0.3603404114942737 0.034856575221424692 2.3276444677034367
decision_type=2 2 2 2 2 2 2 2 2 2 2 2 2 2 2 2 2 2 2 2 2 2 2 2 2 2 2 2 2 2
left_child=1 2 -1 -4 5 17 -7 8 -6 -10 -11 12 -12 -5 -9 -16 29 18 20 -20 24 23 -19 -22 25 -3 27 -23 -29 -8
right_child=-2 4 3 13 7 6 16 14 9 10 11 -13 -14 -15 15 -17 -18 22 19 -21 21 26 -24 -25 -26 -27 -28 28 -30 -31
leaf_value=-0.0071124263001179485 0.0082627474130796529 -0.010043883365061549 -0.0097592703889434543 -0.0011226378991678744 -0.008611136712133885 0.006310785085973364 0.00056983019918227323 -0.0096762244327692325 0.00926362106576562 -0.0048737874122531111 0.00067732014770930011 -0.00067547889118894748 0.013339643570638838 0.0078704307228326803 -0.0082565664406865826 0.0073316192085092716 0.0052946471127235505 -0.0012059724733726566 0.00057161681311713032 0.015053987666033209 0.011649316219346865 0.0058035488452085043 0.0003078816517238256 0.0034126198646334707 0.00026449724430526334 0.0012179410395522913 0.0040164967141775552 -0.00056666404263870348 -0.01228678964433216 -0.0070999325136654086
leaf_weight=83 63 36 30 193 30 104 204 48 20 67 24 78 21 20 35 22 59 1129 22 24 35 22 2652 57 127 24 69 42 21 24
leaf_count=83 63 36 30 193 30 104 204 48 20 67 24 78 21 20 35 22 59 1129 22 24 35 22 2652 57 127 24 69 42 21 24
internal_value=6.52738e-12 -9.78115e-05 -0.00289071 -0.00144872 8.44309e-05 0.00025153 0.00233901 -0.00216825 -0.000649602 0.00048776 -0.000436015 0.00198131 0.0065864 -0.000278218 -0.00563946 -0.00224007 0.00089976 5.99323e-05 0.00167088 0.00812764 0.000984945 0.00294813 -0.000144153 0.00654615 -0.00159764 -0.00553915 0.000798662 -0.00181346 -0.00447337 -0.000237513
internal_weight=5385 5322 326 243 4996 4651 391 345 240 210 190 123 45 213 105 57 287 4260 479 46 433 246 3781 92 187 60 154 85 63 228
internal_count=5385 5322 326 243 4996 4651 391 345 240 210 190 123 45 213 105 57 287 4260 479 46 433 246 3781 92 187 60 154 85 63 228
is_linear=0
shrinkage=0.05


Tree=7
num_leaves=31
num_cat=0
split_feature=9 0 9 7 6 10 9 0 9 6 1 8 13 0 5 10 1 8 8 12 8 1 1 12 9 1 8 1 2 6
split_gain=1.15271 0.79002 0.938364 0.989263 0.768592 0.805251 0.673926 0.868187 0.633451 0.553863 0.714254 0.5367 0.683678 0.551434 0.642738 0.884748 0.735001 0.645274 0.535243 0.753454 0.668004 0.768472 0.708587 0.619429 0.571846 0.526997 0.843115 0.701483 0.556953 0.884401
threshold=0.30627310470315039 0.010188021644291669 1.5291754873795325 0.33623274203092307 0.057836310006132118 1.2198700869815913 1.2843829426836295 -0.078504383558616594 1.4569976584245103 0.045230837789521285 -0.021435957818134951 1.4715156065349586 1.7300415690961766 0.14951534320450569 64.088700652310109 -0.51196508464804047 0.20201833209182044 0.75141111909283997 0.015540187327238832 -1.2762618518156745 1.0955709017854784 0.093958979455231809 0.35234137491171241 0.62567497962199192 1.4707712797401606 -0.12361541241297401 -2.5538379633364916 0.071372613209857452 -0.32207380432044935 0.048334027903650566
decision_type=2 2 2 2 2 2 2 2 2 2 2 2 2 2 2 2 2 2 2 2 2 2 2 2 2 2 2 2 2 2
left_child=-1 4 9 11 5 25 7 -7 -6 18 -11 12 13 14 16 -16 17 -4 19 -3 22 -22 24 -23 -20 28 27 -27 29 -2
right_child=1 2 3 -5 8 6 -8 -9 -10 10 -12 -13 -14 -15 15 -17 -18 -19 20 -21 21 23 -24 -25 -26 26 -28 -29 -30 -31
leaf_value=-0.0028724133876782687 -0.0082297883074109752 0.0085295834754769879 0.00051080879347864538 0.010452428574745473 -0.00050382854630394533 -0.006693567514885217 -0.0080811534084205047 0.0067670027806383112 0.010477623125088625 0.0019060202687978746 -0.010771012091543526 -0.0026269138548881393 -0.0044463420162598292 0.0072484415207007859 -0.010425640061675083 0.0021437967955946426 0.0084984371497959163 0.0097806285452944324 -0.00037597240712340852 0.0012010132958408931 0.0036596356700895958 0.00051485221720589649 -0.0096816768785091961 -0.0074900779937361857 -0.0071754413540475077 -0.0077322704034342776 -0.00046302964322563703 -0.00023801244074865332 0.0018132167381635454 0.0046815433317706698
leaf_weight=328 36 37 128 39 24 25 64 23 29 20 25 52 30 74 21 42 58 22 918 673 213 145 22 29 32 76 1730 53 396 21
leaf_count=328 36 37 128 39 24 25 64 23 29 20 25 52 30 74 21 42 58 22 918 673 213 145 22 29 32 76 1730 53 396 21
internal_value=3.6915e-12 0.000186306 0.000798651 0.00282963 -0.000451501 -0.000581735 -0.00472225 -0.000243711 0.00550489 0.000350952 -0.00513678 0.0021334 0.0027935 0.00342305 0.00237848 -0.00204602 0.00371859 0.00187038 0.000470308 0.00158292 -0.000110971 0.00164585 -0.000810446 -0.000819303 -0.000605007 -0.000381157 -0.000753797 -0.00465323 0.00114807 -0.00347298
internal_weight=5385 5057 2580 466 2477 2424 112 48 53 2114 45 427 375 345 271 63 208 150 2069 710 1359 387 972 174 950 2312 1859 129 453 57
internal_count=5385 5057 2580 466 2477 2424 112 48 53 2114 45 427 375 345 271 63 208 150 2069 710 1359 387 972 174 950 2312 1859 129 453 57
is_linear=0
shrinkage=0.05


Tree=8
num_leaves=31
num_cat=0
split_feature=4 9 0 10 2 0 11 6 0 5 6 9 4 5 1 5 4 13 8 11 1 2 5 9 2 9 8 0 13 8
split_gain=1.08638 0.963688 0.865048 0.873611 0.76573 0.58152 0.523554 0.589109 0.586533 0.534177 0.503466 1.03383 0.842027 0.666675 0.606762 0.605021 0.741357 0.834093 0.741494 0.693813 0.555685 0.500008 0.491523 0.499229 1.04005 1.0363 0.589365 0.555629 0.712306 0.490336
threshold=0.54501576359080517 0.30627310470315039 0.23710628537795589 1.4175517266687445 -0.14171526307615759 0.010188021644291669 1.1771757183409715 0.019117662090017327 0.049602763711930294 50.449939847376172 0.02603967169101579 0.72490905539953399 0.2732084128085645 58.437640334727867 0.23332868351536321 71.6427839866612 0.32623655367769749 -0.053180882864054972 0.73382491079112944 -0.31473045691719786 0.29317366146681673 0.059963641269310981 58.749212303273787 0.41166484721120394 -0.096818350928346605 0.42925299731463457 -0.13160781325011264 -0.1586112010153278 0.55085120242900953 0.48262478324217833
decision_type=2 2 2 2 2 2 2 2 2 2 2 2 2 2 2 2 2 2 2 2 2 2 2 2 2 2 2 2 2 2
left_child=1 6 3 5 -5 22 7 8 9 -1 21 12 -12 14 -13 16 19 20 -19 -15 -18 -7 23 24 -3 -25 -26 28 -27 -2
right_child=29 2 -4 4 -6 10 -8 -9 -10 -11 11 13 -14 15 -16 -17 17 18 -20 -21 -22 -23 -24 25 26 27 -28 -29 -30 -31
leaf_value=0.0020023421522834014 0.0014524704357609154 0.012236812978517265 0.0052305594156496233 0.001748645305633545 -0.0064270298442754316 -0.00096012303337626975 0.0040781795190503968 -0.0048192474440653423 0.0070967529604042123 -0.0065526933978415193 0.005160135515034199 0.0034471220471144572 -0.0068201560844582598 -0.0033922626171261072 0.010559570082627676 0.0089112793938035065 -0.011499527696463646 -0.0041300629633478827 0.0086144445597061102 0.0046326835699893321 -0.00093742657452821731 0.00081707179207328592 -0.0048148719046915336 -0.011538245103188925 -0.0048968102647772719 -0.00099503064993768943 0.0048530041979956296 -0.00021799626007346171 -0.010710109498929875 0.0082938714971003882
leaf_weight=37 50 24 80 41 95 595 26 206 22 36 20 254 55 37 34 21 33 25 21 99 20 1182 63 21 31 54 31 2088 29 55
leaf_count=37 50 24 80 41 95 595 26 206 22 36 20 254 55 37 34 21 33 25 21 99 20 1182 63 21 31 54 31 2088 29 55
internal_value=2.35506e-12 -0.000100149 7.34156e-05 -1.12492e-05 -0.0039623 0.000102186 -0.00272909 -0.0033171 -5.98078e-05 -0.00221658 0.00064978 0.00187781 -0.00362541 0.00263653 0.00428679 0.000779991 5.3365e-05 -0.00323819 0.00168808 0.00244943 -0.00751383 0.000222007 -0.000458272 -0.000337787 0.00339913 -0.0004844 -2.1903e-05 -0.000377476 -0.00438946 0.00503606
internal_weight=5385 5280 4953 4873 136 4737 327 301 95 73 2396 619 75 544 288 256 235 99 46 136 53 1777 2341 2278 86 2192 62 2171 83 105
internal_count=5385 5280 4953 4873 136 4737 327 301 95 73 2396 619 75 544 288 256 235 99 46 136 53 1777 2341 2278 86 2192 62 2171 83 105
is_linear=0
shrinkage=0.05


Tree=9
num_leaves=31
num_cat=0
split_feature=3 9 3 8 10 3 9 1 9 3 1 8 4 5 8 1 13 3 12 12 4 1 10 12 7 10 3 8 13 12
split_gain=1.42919 0.841332 0.620757 0.639103 0.618343 0.65054 0.844591 0.989737 0.698106 0.569767 0.782128 0.685671 0.761444 0.579336 0.565686 0.58813 0.563501 0.558706 0.528349 0.767184 0.927599 0.771275 0.707355 0.678588 0.643039 0.748814 0.589138 0.560259 0.763301 0.525252
threshold=2.0538041855125488 0.3191762601160501 -0.079732128184661341 -1.7982481039081049 1.0139439253190596 -0.032926981626889833 1.1659890053673407 0.1241116054531969 1.3793048504378713 0.36873697979012282 0.35234137491171241 0.62416625122232816 0.513523993261089 76.505124993190506 0.39110498953229439 -0.016932559703411117 0.32032277974768392 0.19448450452220359 -1.8754935069981398 -0.52395862763968371 0.40452105182334597 -0.13023639817102248 -0.17389123451252264 -0.1162411324777855 0.26023206769247981 -0.62232378765925622 -0.1158558494262739 0.14472418090576031 0.43589088146539706 -0.621445020801766
decision_type=2 2 2 2 2 2 2 2 2 2 2 2 2 2 2 2 2 2 2 2 2 2 2 2 2 2 2 2 2 2
left_child=1 2 16 -4 9 8 7 17 -6 10 11 18 -13 14 -11 -16 -1 -7 -3 24 21 22 -21 -24 25 -20 -22 29 -29 -27
right_child=-2 4 3 -5 5 6 -8 -9 -10 13 -12 12 -14 -15 15 -17 -18 -19 19 20 26 -23 23 -25 -26 27 -28 28 -30 -31
leaf_value=-0.0012105045463180258 0.0091873554388127703 0.0042338226585969573 -0.0080412186874911709 -0.00013602195680572618 -0.0026145675930605138 -0.00072520330175757412 -0.006957662573908098 -0.0077691044944983266 0.0038689895905554294 0.0016359116944278337 -0.0072102959629295298 0.00098413274766979931 0.0083437848181740666 0.0062563666655613042 0.0045891447059277979 -0.0017893093358545518 -0.008711404470546592 0.010199988442896442 -0.0055162318781220143 -0.00058958552370982605 -0.013186763102809588 -0.00022626177657035916 0.013459682908086551 0.0036582629156491917 0.0042248905662240254 -0.0013889350315439515 -0.0021080851879170435 0.0080168944317847487 -0.002232722517771599 -0.007539594986675573
leaf_weight=42 42 61 29 216 93 25 104 26 75 818 38 701 37 54 42 259 62 22 158 87 21 1862 21 111 36 200 28 34 39 42
leaf_count=42 42 61 29 216 93 25 104 26 75 818 38 701 37 54 42 259 62 22 158 87 21 1862 21 111 36 200 28 34 39 42
internal_value=1.71637e-12 -7.22195e-05 -0.00244563 -0.00107174 9.36435e-05 -0.00194871 -0.00406398 5.85335e-05 0.000279878 0.000245205 -7.63442e-05 2.50689e-06 0.00135311 0.00119807 0.000953967 -0.000899292 -0.00568219 0.00438872 -0.000366659 -0.000472998 -5.62541e-05 0.000103857 0.00291062 0.00521758 -0.00221694 -0.00270722 -0.00685609 -0.00129826 0.00254107 -0.0024564
internal_weight=5385 5343 349 245 4994 345 177 73 168 4649 3476 3438 738 1173 1119 301 104 47 2700 2639 2130 2081 219 132 509 473 49 315 73 242
internal_count=5385 5343 349 245 4994 345 177 73 168 4649 3476 3438 738 1173 1119 301 104 47 2700 2639 2130 2081 219 132 509 473 49 315 73 242
is_linear=0
shrinkage=0.05


Tree=10
num_leaves=31
num_cat=0
split_feature=3 0 4 8 5 8 13 10 3 10 13 12 7 0 12 8 8 10 7 4 4 4 7 7 12 6 12 10 12 7
split_gain=1.30533 0.663729 0.680874 0.643316 0.615889 0.581047 0.560736 0.555414 0.53094 0.53991 0.799589 0.905106 0.520648 0.4866 0.481494 0.475143 1.01441 0.600028 0.548243 0.466201 0.605391 0.448073 0.42894 0.425716 0.845376 0.57835 0.729586 1.42289 0.941293 0.754728
threshold=1.76302737009648 0.010188021644291669 0.54501576359080517 0.48262478324217833 58.749212303273787 -1.3799217626081084 -1.0229002973616759 1.2198700869815913 0.75698245489015337 -0.69732422704385588 1.1277520316552287 -0.52395862763968371 0.065099155408469292 0.00062534222935695116 -1.7698410575937118 0.070510065360614674 -0.15546296258693962 -0.44824917554923877 0.14033956380780516 0.27761679833579472 0.35603697801382744 0.27057607650789184 0.21024194001017252 0.091375758556352285 -1.2423013390622963 0.037863844399422787 -0.54228884984290304 0.39291394484625114 -0.20404637048074362 0.21997286283252965
decision_type=2 2 2 2 2 2 2 2 2 2 2 2 2 2 2 2 2 2 2 2 2 2 2 2 2 2 2 2 2 2
left_child=1 2 4 -4 5 12 15 8 9 10 11 14 -1 -6 -8 16 21 -17 -19 -9 -21 -7 -2 24 -3 -25 27 29 -28 -27
right_child=22 23 3 -5 13 6 7 19 -10 -11 -12 -13 -14 -15 -16 17 -18 18 -20 20 -22 -23 -24 25 -26 26 28 -29 -30 -31
leaf_value=0.0040544310933910309 0.0020684143416583537 0.0070285139555061188 -0.00098782247708489499 0.010167936947462815 -0.0089960025870459513 0.0049662004088664932 -0.00028343264013528822 -0.0090891267864428704 0.0054112379463055194 -0.0001457144364864744 0.0068151264730840922 -0.00062466134550049908 -0.0027738310807310417 -0.00065008197280187763 -0.0089908792972927549 0.0050320575238558757 0.011086177101006379 -0.0087190559167148809 0.0014679249646142125 0.0035205738940115635 -0.0064536482677794993 -0.0022597548334548872 0.010501311203513884 0.0012837627272589735 -0.00068121451941246234 -0.0061400049980147742 0.0082939498126506812 -0.013347364845685661 -0.0016236462156641587 0.0048176595546079413
leaf_weight=30 25 37 24 28 40 41 20 33 39 1524 20 114 402 31 77 29 37 28 25 29 32 45 38 1511 911 30 33 32 87 33
leaf_count=30 25 37 24 28 40 41 20 33 39 1524 20 114 402 31 77 29 37 28 25 29 32 45 38 1511 911 30 33 32 87 33
internal_value=1.03897e-12 -8.46975e-05 -0.00064581 0.00501912 -0.000759283 -0.000630141 -0.000285551 -0.000555226 -0.000358922 -0.000487148 -0.00273972 -0.00364539 -0.00229965 -0.00535201 -0.00719553 0.00219809 0.00416353 -0.00075007 -0.00391388 -0.00430172 -0.0017118 0.00118518 0.00715492 0.000470959 -0.000380307 0.000938514 -0.00148786 -0.0047614 0.00110369 -0.000400276
internal_weight=5385 5322 2648 52 2596 2525 2093 1888 1794 1755 231 211 432 71 97 205 123 82 53 94 61 86 63 2674 948 1726 215 95 120 63
internal_count=5385 5322 2648 52 2596 2525 2093 1888 1794 1755 231 211 432 71 97 205 123 82 53 94 61 86 63 2674 948 1726 215 95 120 63
is_linear=0
shrinkage=0.05


Tree=11
num_leaves=31
num_cat=0
split_feature=9 2 13 11 6 10 1 8 8 5 1 11 13 10 1 9 9 7 9 8 10 8 9 6 10 12 9 13 10 1
split_gain=0.839386 0.616432 0.970693 0.573987 0.652037 0.518216 0.656843 0.770547 0.601747 0.668248 0.499726 0.659781 0.500922 0.478394 0.456948 0.731361 0.440878 0.437628 0.429083 0.443033 0.675429 0.506815 0.420557 0.504971 0.437366 0.500008 0.469868 0.399118 0.45697 0.430802
threshold=0.3191762601160501 0.76450705213212966 0.95987059142101749 1.1771757183409715 0.019117662090017327 1.0139439253190596 0.10565196172005199 -0.76491473711404134 -0.49369350502215553 44.911310953769821 0.0081086487490278376 -0.55895544713589806 -0.4770716806881749 0.9652641140310273 0.18505156732514241 1.4306856793455978 1.3793048504378713 0.13601527125049276 1.0446929579771458 -2.1984979404833709 0.4495970063903087 -1.9502016675146281 1.1350989858381677 0.025753318188920137 -0.63639323165923012 -0.10076545734651154 1.1133530526360638 0.3975523986139794 -0.82735010350767402 0.31778139234888153
decision_type=2 2 2 2 2 2 2 2 2 2 2 2 2 2 2 2 2 2 2 2 2 2 2 2 2 2 2 2 2 2
left_child=3 5 -3 4 -1 13 7 -7 -9 16 11 17 -13 18 -8 -16 -10 -11 19 20 -2 -21 23 24 -20 -26 -27 -23 -29 -30
right_child=1 2 -4 -5 -6 6 14 8 9 10 -12 12 -14 -15 15 -17 -18 -19 22 21 -22 27 -24 -25 25 26 -28 28 29 -31
leaf_value=0.00026502339561165381 -0.0049691486953183858 0.0069487544569514087 -0.0044469873867928984 0.004245359486279388 -0.0045537622628250615 -0.007890576186279457 -0.0087372858465338751 0.0089254810009151697 -0.0080883380231846665 -0.00104733905331655 0.007152396980125238 0.001199191901832819 -0.0097341655922884296 0.0062236255302912363 -0.0070533464903589985 0.0051988027457680018 3.1693608616478744e-05 0.0086218541115522379 -0.0039050034700745815 0.0064434140310462192 0.0049032638248588355 0.00034567461162388568 0.00037002420887249861 0.005150757792095343 0.0049443223892355016 -0.0015055341862794845 0.0048075388686265805 -0.0084865554713178439 -0.00067495807137623036 -0.0079218072331665706
leaf_weight=104 99 74 25 30 216 30 48 20 35 22 34 20 22 33 29 21 32 25 38 29 21 1325 1795 105 85 112 40 20 875 21
leaf_count=104 99 74 25 30 216 30 48 20 35 22 34 20 22 33 29 21 32 25 38 29 21 1325 1795 105 85 112 40 20 875 21
internal_value=1.18225e-11 0.000164586 0.00407104 -0.00236768 -0.00298766 8.62351e-05 -0.00180334 -0.000394861 0.000675955 -0.000192416 0.00199609 2.62594e-05 -0.0045278 0.000225138 -0.00525267 -0.00190744 -0.00421011 0.00409585 0.000181776 -0.00028066 -0.00324148 -0.000124141 0.000689923 0.00220102 0.00107476 0.0018732 0.000155801 -0.000209129 -0.00101166 -0.000844806
internal_weight=5385 5035 99 350 320 4936 338 240 210 190 123 89 42 4598 98 50 67 47 4565 2390 120 2270 2175 380 275 237 152 2241 916 896
internal_count=5385 5035 99 350 320 4936 338 240 210 190 123 89 42 4598 98 50 67 47 4565 2390 120 2270 2175 380 275 237 152 2241 916 896
is_linear=0
shrinkage=0.05


Tree=12
num_leaves=31
num_cat=0
split_feature=3 3 1 0 8 5 3 12 8 6 3 4 7 4 6 13 4 0 4 13 2 5 6 7 8 0 8 1 12 4
split_gain=1.13746 0.627191 0.830031 0.862949 0.883874 0.626225 0.640851 0.662886 0.789966 0.61971 0.795679 0.615775 0.582259 0.761511 0.569928 0.566433 0.569836 0.90396 0.795695 0.615674 0.954606 0.655536 0.544501 0.523795 0.511523 0.491876 0.489577 0.525377 0.481756 0.85133
threshold=2.0538041855125488 -0.19161804890724318 -0.12361541241297401 0.010188021644291669 -2.5538379633364916 58.749212303273787 0.5140581797834487 -0.44884039106890478 -1.010454731190086 0.022381206330352815 -0.23261956671785014 0.53041007720215827 0.10245677633226863 0.24756455164508542 0.032072789016413632 -2.0874508213113083 0.47979860784558342 -0.043422100594046324 0.40452105182334597 0.43589088146539706 -0.16337653720390141 45.342556100128775 0.029875532666377786 0.15969839636973229 0.045967402543707854 0.035225174130538724 -1.6630174186962532 0.12792805119836506 -0.15209597628304256 0.18834807120725836
decision_type=2 2 2 2 2 2 2 2 2 2 2 2 2 2 2 2 2 2 2 2 2 2 2 2 2 2 2 2 2 2
left_child=1 9 11 4 -4 6 7 8 -6 10 -1 -3 13 24 22 -14 18 -18 19 20 -17 -22 -10 -16 -11 -21 -8 -28 -9 -30
right_child=-2 2 3 -5 5 -7 26 28 14 12 -12 -13 15 -15 23 16 17 -19 -20 25 21 -23 -24 -25 -26 -27 27 -29 29 -31
leaf_value=-0.0013094516949994223 0.0081961971973734237 0.0017747950052081234 -0.0047852929684988887 0.0005316063400874003 -0.0075897789489737565 -0.0052236492133566313 0.0094739696857604125 0.0021656704752425118 -0.0018561627909106468 0.0028578206710517407 -0.012617725034111314 0.010362433523617008 0.005981779912309278 0.0055865615989806917 0.0064033765149743935 -0.0032190734900657582 0.006960607501160768 -0.0057292090850355835 -0.010122074658590321 -0.0067571060769968556 -0.00045253333595135937 0.011243944302201271 -0.010294904497762521 -0.0032910703639076515 -0.0080756451691622322 0.00035833437560182631 -0.00068010085294762464 0.0055884234940487094 0.0010823629801945023 -0.0018780079504598507
leaf_weight=35 42 408 135 2457 65 70 22 189 213 20 28 22 21 65 38 83 36 23 38 92 23 25 21 22 23 33 97 51 430 558
leaf_count=35 42 408 135 2457 65 70 22 189 213 20 28 22 21 65 38 83 36 23 38 92 23 25 21 22 23 33 97 51 430 558
internal_value=4.30276e-12 -6.44283e-05 0.000118149 -8.81898e-05 -0.000885071 -0.000588601 -0.000398417 -0.000720812 -0.00260158 -0.00167177 -0.00633535 0.00221416 -0.00106222 0.0021717 -0.00149874 -0.00199608 -0.00247068 0.00201373 -0.00337061 -0.00236844 2.67728e-05 0.00563938 -0.00261349 0.00284875 -0.00299031 -0.00487863 0.00251451 0.00148 -0.000147154 -0.000589587
internal_weight=5385 5343 4798 4368 1911 1776 1706 1536 359 545 63 430 482 108 294 374 353 59 294 256 131 48 234 60 43 125 170 148 1177 988
internal_count=5385 5343 4798 4368 1911 1776 1706 1536 359 545 63 430 482 108 294 374 353 59 294 256 131 48 234 60 43 125 170 148 1177 988
is_linear=0
shrinkage=0.05


Tree=13
num_leaves=31
num_cat=0
split_feature=3 9 11 3 1 8 8 10 3 9 1 9 0 1 0 3 8 7 1 2 10 3 2 7 8 0 12 7 7 3
split_gain=1.03494 0.610205 0.636662 0.578347 0.7542 0.661143 0.578884 0.449222 0.600906 0.748316 0.832366 0.573199 0.537022 0.762362 0.518053 0.473956 0.421936 0.38751 0.381829 0.647267 0.667334 0.630796 0.70201 0.764903 0.766514 0.660749 0.754385 0.631503 0.618112 0.596059
threshold=1.76302737009648 0.3191762601160501 1.1771757183409715 -0.12388295721816316 0.0081086487490278376 -1.2078030276606637 -0.29187131192999799 1.0139439253190596 -0.032926981626889833 1.1659890053673407 0.1241116054531969 1.3793048504378713 0.12610750902677662 0.091357624263308082 0.010188021644291669 0.19448450452220359 2.1507064735351871 0.18124887749688037 -0.13023639817102248 -0.15334723970002892 0.11397629134155331 0.043263672704496277 -0.1706669066036782 0.17624735533150829 -0.66608380367238662 0.10357023603923633 0.50611264766284059 0.16269424546263925 0.14908995361566396 -0.11949508313957145
decision_type=2 2 2 2 2 2 2 2 2 2 2 2 2 2 2 2 2 2 2 2 2 2 2 2 2 2 2 2 2 2
left_child=1 2 3 -1 -5 -6 -7 12 11 10 15 -9 18 16 -11 -10 -14 -16 19 29 28 -20 -23 27 -25 26 -26 -24 -21 -3
right_child=-2 7 -4 4 5 6 -8 8 9 14 -12 -13 13 -15 17 -17 -18 -19 21 20 -22 22 23 24 25 -27 -28 -29 -30 -31
leaf_value=-0.0064241328276693826 0.0063709069679062525 -0.002048776816639352 0.0049934961062310075 0.0017425599553640568 -0.011877537823536179 0.0048767237797040838 -0.0041423488358255994 -0.0021552013595693659 -0.00056594292446970939 -0.010028512691211541 -0.0070052704129081505 0.0037197621800005437 0.007335972971639332 0.00063521856725753728 0.00077409904450178148 0.0094965681772340438 -0.00033770343086317832 -0.0078522072983500755 -0.0011310116769761422 -0.0024883273723118231 0.0062049883265890898 0.0081601669546216733 0.00031943122718346416 -0.006125817603379902 0.0038074467760207281 -0.0055362797871401368 -0.0061811672562422856 0.0047085713937549912 0.0044684222884109762 0.0033481926842248199
leaf_weight=80 63 171 29 102 22 22 93 93 25 51 26 75 81 284 30 22 23 23 1119 67 105 28 2285 90 89 44 24 85 61 73
leaf_count=80 63 171 29 102 22 22 93 93 25 51 26 75 81 284 30 22 23 23 1119 67 105 28 2285 90 89 44 24 85 61 73
internal_value=-4.86152e-12 -7.54166e-05 -0.00209952 -0.00274434 -0.00151262 -0.00393618 -0.00241696 6.61977e-05 -0.00167433 -0.00370731 0.000173136 0.00046755 0.00019592 0.00197641 -0.00643108 0.00414417 0.00563891 -0.00296939 3.3026e-05 0.00136574 0.00325056 -0.000135864 0.000285145 0.000200888 -0.00244698 -0.000338099 0.00168597 0.000476848 0.000826999 -0.00043411
internal_weight=5385 5322 348 319 239 137 115 4974 345 177 73 168 4629 388 104 47 104 53 4241 477 233 3764 2645 2617 247 157 113 2370 128 244
internal_count=5385 5322 348 319 239 137 115 4974 345 177 73 168 4629 388 104 47 104 53 4241 477 233 3764 2645 2617 247 157 113 2370 128 244
is_linear=0
shrinkage=0.05


Tree=14
num_leaves=31
num_cat=0
split_feature=3 9 13 8 6 8 13 7 0 4 8 10 3 4 5 9 6 4 6 13 8 6 13 5 2 3 13 9 4 7
split_gain=0.944278 0.594413 0.486157 0.642321 0.696759 0.442329 0.505447 0.607232 0.431724 0.577462 0.491743 0.453108 0.567239 0.477429 0.598551 0.722224 0.44255 0.9369 0.69728 0.596865 0.703304 0.662208 0.510323 0.505322 0.49907 0.458598 0.447112 0.635426 0.760785 0.71039
threshold=2.0538041855125488 0.3191762601160501 0.42070490318046322 0.15797495602276082 0.024632023348939405 0.010766604247575808 0.1457706873914241 0.12316061480183839 0.010188021644291669 0.54501576359080517 0.48262478324217833 1.2198700869815913 0.33183179974497407 0.27761679833579472 39.819735851637709 1.2843829426836295 0.02603967169101579 0.32623655367769749 0.033588607595418922 -0.32840572465262319 0.03653577642149592 0.030993752136447388 -1.7206091623109785 65.924400081187073 0.025492845209060259 -0.10301511184855937 -0.053180882864054972 1.6014606629335406 0.3898780727299534 0.23498520224324335
decision_type=2 2 2 2 2 2 2 2 2 2 2 2 2 2 2 2 2 2 2 2 2 2 2 2 2 2 2 2 2 2
left_child=1 2 5 -4 -5 -1 7 -7 9 11 -11 -3 13 -13 -15 -16 25 18 19 22 -21 23 -18 24 -22 -10 27 -19 -29 -30
right_child=-2 8 3 4 -6 6 -8 -9 16 10 -12 12 -14 14 15 -17 17 26 -20 20 21 -23 -24 -25 -26 -27 -28 28 29 -31
leaf_value=0.0019739186183052918 0.0074678420177882628 -0.00034901300816954578 -0.0068403770405144164 0.0039923599945675386 -0.00675544760003686 -0.010077763698063791 0.0031755021486717925 -0.0007844780664294003 -0.0029172428517451146 -0.0004311895890471836 0.0093222166511363214 -0.0077100863304132451 -0.010976937998618399 -0.0050054822913220814 0.010969406319782139 -0.0024677028320729735 -0.0011595563618121323 -0.0042090484383320364 0.010166009007529779 0.0044826269046901622 -0.00083633231603213272 0.0071082317992113538 0.0064485852299064096 0.001984985972644369 -0.0088458265302839081 0.00032097235730097428 0.0015997488730023675 0.008375044553368181 -0.0089353942622741062 0.0037841396730231205
leaf_weight=98 42 2284 91 38 25 32 26 39 117 24 28 26 21 31 20 20 27 119 33 86 37 20 120 38 41 1669 162 27 21 23
leaf_count=98 42 2284 91 38 25 32 26 39 117 24 28 26 21 31 20 20 27 119 33 86 37 20 120 38 41 1669 162 27 21 23
internal_value=-1.44708e-13 -5.87029e-05 -0.00205366 -0.00415358 -0.000272643 -0.000395262 -0.00278887 -0.004973 8.07123e-05 -0.000392252 0.00482064 -0.000505104 -0.00352639 -0.00191338 0.000209354 0.00425085 0.000537663 0.00155342 0.00320268 0.00257994 0.000943589 -0.00129433 0.00505117 -0.00274305 -0.00504645 0.000108838 -0.000330112 -0.00197557 0.00176786 -0.00228655
internal_weight=5385 5343 349 154 63 195 97 71 4994 2454 52 2402 118 97 71 40 2540 754 402 369 222 136 147 116 78 1786 352 190 71 44
internal_count=5385 5343 349 154 63 195 97 71 4994 2454 52 2402 118 97 71 40 2540 754 402 369 222 136 147 116 78 1786 352 190 71 44
is_linear=0
shrinkage=0.05


Tree=15
num_leaves=31
num_cat=0
split_feature=3 3 11 6 3 12 10 12 12 0 3 2 13 11 8 9 11 2 9 13 9 6 11 12 12 11 3 10 9 6
split_gain=0.857809 0.502134 0.979902 0.672153 0.723571 0.606601 0.567311 0.808516 0.599531 0.56041 0.552884 0.839261 0.634614 0.539645 0.451919 0.715379 0.732982 0.548826 0.656474 0.724152 0.686225 0.764536 0.864999 0.565847 0.520395 0.519439 0.499263 0.556519 0.844759 0.468181
threshold=1.76302737009648 -0.19161804890724318 -1.590382661650936 0.022381206330352815 -0.23261956671785014 1.670374426204656 0.50859429537008061 -0.56177480011057679 1.0000000180025095e-35 0.12029407716083641 -0.16573230636678946 -0.14171526307615759 0.56012797648720924 -1.0065571975560119 -2.1984979404833709 0.95536159080588134 0.21318430591089751 -0.22063324467664538 1.9631408333088922 -1.1121747791337075 1.7780438818022994 0.027139431338747546 -0.49277232525457865 0.47547191949872353 -0.25771349958617246 -0.53759763039216124 0.043263672704496277 1.0821272329712281 1.1659890053673407 0.047076641080065429
decision_type=2 2 2 2 2 2 2 2 2 2 2 2 2 2 2 2 2 2 2 2 2 2 2 2 2 2 2 2 2 2
left_child=1 2 -1 4 -4 6 9 -8 -9 13 11 -3 -13 -5 15 16 -12 -16 20 -20 26 -22 -23 24 25 -21 -19 29 -29 -28
right_child=-2 10 3 5 -6 -7 7 8 -10 -11 14 12 -14 -15 17 -17 -18 18 19 23 21 22 -24 -25 -26 -27 27 28 -30 -31
leaf_value=-0.010290815038606524 0.0058001563633008615 -0.0024188324718946411 -0.0010404491025422301 -0.0090166212144223139 -0.011824152478948236 -0.006547010027700001 -0.0030049084258886678 0.013516952223144472 0.0034997034360165313 0.0071639003697782757 -0.0015524587396419411 0.012197664154298378 0.00091034522512927667 -0.00085988924811633755 0.003862551608802175 0.00029066890038549116 -0.0096728420554427434 -0.00083893163854377364 -0.011701493660110005 0.0046373533592982729 -0.00071196826496855057 0.00055872814357280727 0.012598069928385117 0.003207610889832012 -0.010759680877838816 -0.0043245481693598093 0.00046077623708963697 0.001074026358457139 -0.0082278125393001941 0.0057175407846739822
leaf_weight=30 63 31 35 22 28 36 36 20 59 20 66 33 20 259 97 149 48 1088 21 22 47 25 37 41 21 61 2829 52 46 43
leaf_count=30 63 31 35 22 28 36 36 20 59 20 66 33 20 259 97 149 48 1088 21 22 47 25 37 41 21 61 2829 52 46 43
internal_value=1.95248e-12 -6.86602e-05 -0.00150654 -0.000994832 -0.00583321 -0.000320457 0.000218379 0.00320561 0.00603572 -0.00092292 9.53848e-05 0.00411602 0.0079383 -0.00149849 2.34194e-05 -0.0019903 -0.00497157 0.00014297 5.9702e-05 -0.00302378 0.000182538 0.00409756 0.0077435 -0.00176701 -0.00372816 -0.0019491 7.73787e-05 0.000413051 -0.00329214 0.000539481
internal_weight=5385 5322 545 515 63 452 416 115 79 301 4777 84 53 281 4693 263 114 4430 4333 166 4167 109 62 145 104 83 4058 2970 98 2872
internal_count=5385 5322 545 515 63 452 416 115 79 301 4777 84 53 281 4693 263 114 4430 4333 166 4167 109 62 145 104 83 4058 2970 98 2872
is_linear=0
shrinkage=0.05


Tree=16
num_leaves=31
num_cat=0
split_feature=3 9 11 6 0 1 4 1 3 10 7 0 4 12 4 4 10 3 7 4 4 12 5 12 7 3 0 10 0 1
split_gain=0.783962 0.519368 0.556727 0.539086 0.454807 0.46324 0.411157 0.609684 0.489729 0.440466 0.408914 0.365804 0.522129 0.49972 1.34655 0.693451 0.636934 0.610115 0.994582 0.69472 0.709146 0.563938 0.572453 0.948851 0.728566 0.556338 0.538593 0.529935 0.501427 0.461342
threshold=2.0538041855125488 0.3191762601160501 1.1771757183409715 0.019117662090017327 0.049602763711930294 0.045321190039543831 0.20650273672151576 0.1408649019657682 -0.098764052505969466 0.37643440435437819 0.24984874747516808 0.010188021644291669 0.54501576359080517 -0.44884039106890478 0.47378398821168083 0.40860569890449683 -0.33098957692346359 -0.20354498797251772 0.24984874747516808 0.280172182376631 0.35603697801382744 0.51449518492106472 52.945127990861913 0.63390781079650915 0.18378197958030731 0.77707007420361207 -0.064152914374425704 0.30062150752162836 -0.055514755106073226 -0.095539325484047574
decision_type=2 2 2 2 2 2 2 2 2 2 2 2 2 2 2 2 2 2 2 2 2 2 2 2 2 2 2 2 2 2
left_child=1 2 3 4 5 -1 -5 8 9 -8 -2 12 13 14 17 21 -17 19 -19 -3 -21 25 23 26 -25 29 -23 -26 -18 -15
right_child=10 11 -4 6 -6 -7 7 -9 -10 -11 -12 -13 -14 15 -16 16 28 18 -20 20 -22 22 -24 24 27 -27 -28 -29 -30 -31
leaf_value=0.0012597691953041643 0.0016300687775947155 -0.013507445715367794 0.004715412386275571 -0.0088213452810628548 0.0063158662300556905 -0.0068884396939001115 -0.010665268105055605 -0.0084118995240714863 0.0011485910402552692 -0.0016835405962923782 0.011508417789908973 0.00049745019549437696 0.0045983265279434049 0.0024978927882219788 0.0081496630795300003 -0.012195713557302952 0.0014604779619087533 -0.0021691721486990995 0.0073583192974810713 0.002930317718225221 -0.0094976364645514306 -0.011270005558617414 -0.0050199785665608941 0.0016575934931775994 0.00043097994212682052 0.0085326173400972049 -0.0027173703212196691 -0.0088909286104383017 -0.0072196751330920964 0.00010065743995706561
leaf_weight=53 20 24 29 36 25 26 21 40 80 39 22 2540 52 264 33 20 41 494 29 24 22 24 80 319 30 23 79 31 28 837
leaf_count=53 20 24 29 36 25 26 21 40 80 39 22 2540 52 264 33 20 41 494 29 24 22 24 80 319 30 23 79 31 28 837
internal_value=6.09106e-12 -5.3488e-05 -0.00191826 -0.00251944 0.000438125 -0.00142192 -0.00394345 -0.00296787 -0.00141244 -0.00482715 0.00680444 7.68297e-05 -0.000358531 -0.000465841 -0.00168058 -3.76741e-05 -0.00433916 -0.00222762 -0.00164088 -0.00661142 -0.00301349 0.000189257 -0.00110243 -0.00045356 0.000700218 0.000836249 -0.00471022 -0.00430638 -0.0020619 0.000675471
internal_weight=5385 5343 349 320 104 79 216 180 140 60 42 4994 2454 2402 626 1776 89 593 523 70 46 1687 563 483 380 1124 103 61 69 1101
internal_count=5385 5343 349 320 104 79 216 180 140 60 42 4994 2454 2402 626 1776 89 593 523 70 46 1687 563 483 380 1124 103 61 69 1101
is_linear=0
shrinkage=0.05


Tree=17
num_leaves=31
num_cat=0
split_feature=3 9 11 12 1 12 13 11 1 6 3 2 5 9 10 3 9 1 3 6 3 3 10 3 5 1 5 9 1 9
split_gain=0.708911 0.437997 0.63784 0.68576 0.811476 0.803463 0.703095 0.669344 0.521334 0.456815 0.388652 0.376717 0.389256 0.365423 0.348778 0.500381 0.63011 0.688078 0.50563 0.568397 0.455788 0.411509 0.402999 0.444843 0.589212 0.556162 0.538104 0.572691 0.55161 0.465149
threshold=1.76302737009648 0.42925299731463457 1.6659477673919929 -0.41750480539996504 -0.1416377713330593 -0.12515949794565209 0.25595673895079607 -0.1760965671582416 0.035186048898071538 0.016938012366756513 -0.21725432302883543 -0.051481083818782351 48.300624707110224 0.26056447561188073 1.0139439253190596 -0.032926981626889833 1.1659890053673407 0.1241116054531969 -0.27701336858712516 0.045230837789521285 0.19448450452220359 0.076330986787008462 0.9652641140310273 0.37133686709604358 76.505124993190506 0.35234137491171241 67.665770841270771 2.0238682240647043 0.20201833209182044 1.8144620166429004
decision_type=2 2 2 2 2 2 2 2 2 2 2 2 2 2 2 2 2 2 2 2 2 2 2 2 2 2 2 2 2 2
left_child=1 2 3 4 -1 6 -5 -6 10 -10 -7 -12 -13 -14 22 18 17 20 19 -16 -17 -18 23 25 26 -3 27 28 29 -25
right_child=-2 14 -4 5 7 8 -8 -9 9 -11 11 12 13 -15 15 16 21 -19 -20 -21 -22 -23 -24 24 -26 -27 -28 -29 -30 -31
leaf_value=0.003041084288131623 0.0052727861566439511 -4.9155841761847067e-05 0.0073958679381757979 0.0083627568057272599 -0.01295034332951117 -0.0045237912248202797 -0.0013410849770817941 -0.0033085334793819736 -0.00042684607599910939 -0.0060154227650605656 0.0040814673660547829 -0.0037218685214549813 0.0071269289167089902 -0.0009322200386892431 -0.0085761644756766394 -0.00061338575184345255 -0.01186277499126101 -0.0063573403656482707 0.0024627428537683416 0.0015913885602328395 0.0093785701408272693 -0.0041615799387417192 0.0058041239070007579 0.0007035475879423954 0.0063469453274738047 -0.0062141164734556865 -0.0018017144730373775 -0.0035599245669385585 0.0041132006981143996 0.0082687658923012875
leaf_weight=21 63 3247 20 40 36 43 35 36 57 102 58 59 22 39 27 25 22 25 111 28 21 82 32 626 50 37 168 57 175 21
leaf_count=21 63 3247 20 40 36 43 35 36 57 102 58 59 22 39 27 25 22 25 111 28 21 82 32 626 50 37 168 57 175 21
internal_value=3.04239e-12 -6.24174e-05 -0.00137469 -0.00169478 -0.00560706 -0.000895128 0.0038343 -0.00812944 -0.00182857 -0.00401197 -0.000257703 0.000772869 -0.000826287 0.00197436 9.43705e-05 -0.00144628 -0.00331171 0.000319462 0.000520283 -0.00339996 0.00394816 -0.00579068 0.000213419 0.000172583 0.00104432 -0.000118615 0.00079109 0.00128664 0.00162272 0.000949096
internal_weight=5385 5322 568 548 93 455 75 72 380 159 221 178 120 61 4754 341 175 71 166 55 46 104 4413 4381 1097 3284 1047 879 822 647
internal_count=5385 5322 568 548 93 455 75 72 380 159 221 178 120 61 4754 341 175 71 166 55 46 104 4413 4381 1097 3284 1047 879 822 647
is_linear=0
shrinkage=0.05


Tree=18
num_leaves=31
num_cat=0
split_feature=4 0 9 4 5 9 12 12 11 11 4 2 0 9 11 4 0 6 10 12 6 9 8 6 6 6 2 8 9 6
split_gain=0.566152 0.60934 0.540574 0.485838 0.582016 0.463762 0.731886 0.637429 0.798343 0.609397 0.669058 0.827942 0.595744 0.581371 0.547981 0.545431 0.522988 0.693458 1.08731 0.919815 0.670102 0.639105 0.613594 0.699607 0.556477 0.554876 0.4852 0.4524 0.529159 0.477984
threshold=0.54501576359080517 0.22040382103691272 1.692024612856541 0.37494780713602949 61.812612544531248 0.88270758459517373 1.670374426204656 -0.44884039106890478 0.098747644829394229 0.38614184642757632 0.20444847356895321 0.20772940049501978 0.10701331431983109 0.89163449534768868 0.87675043982196188 0.33471145794147894 -0.13339611359557232 0.026183022669850384 0.3153301469075071 -0.58620809659567052 0.022117573937225476 0.97196131561851284 -0.83114513495784281 0.030048075171189861 0.027790541342838131 0.022321225601437386 -0.1706669066036782 -0.83114513495784281 1.3492808176274205 0.046124220066778153
decision_type=2 2 2 2 2 2 2 2 2 2 2 2 2 2 2 2 2 2 2 2 2 2 2 2 2 2 2 2 2 2
left_child=1 3 -3 5 27 6 7 8 15 -10 -11 14 -9 -7 -12 -1 -15 20 19 -19 26 -20 -23 24 -24 -22 -18 28 -5 -30
right_child=-2 2 -4 4 -6 13 -8 12 9 10 11 -13 -14 16 -16 -17 17 18 21 -21 25 22 23 -25 -26 -27 -28 -29 29 -31
leaf_value=-0.0057773373310621356 0.0036355151941201516 0.0012891917143369447 0.0089843356191660426 -0.0085761636473202646 -0.0070608423091471197 0.0064865999664060585 -0.0094428224084169982 -0.00034835222337240837 0.0060608918977189154 -0.0072219767814709086 -0.0021063229130093186 -0.0064542316867468447 0.0032013283861488163 -0.0039589362846606455 0.0080568526043660101 0.0029930524271912875 -0.006778516857461496 -3.0666403945176131e-05 0.0070734308175319296 0.0041313937090191972 -0.0070399438651899508 -0.0080536528654834814 3.792302949087961e-05 0.0017377877096510213 -0.0078818924903394077 -0.0010747935906893868 0.0007189322714847104 -0.00013592008521022685 -0.0074061996303498752 0.0020606934657553212
leaf_weight=156 105 74 33 39 46 39 23 1544 34 36 21 26 128 69 36 20 22 197 22 407 42 34 42 117 47 543 1128 295 20 40
leaf_count=156 105 74 33 39 46 39 23 1544 34 36 21 26 128 69 36 20 22 197 22 407 42 34 42 117 47 543 1128 295 20 40
internal_value=-1.04552e-12 -7.22972e-05 0.00366246 -0.000149548 -0.00173878 -1.80658e-06 -0.000574403 -0.000472467 -0.00248426 0.000157406 -0.0015293 0.000939806 -7.66063e-05 0.000426002 0.00431252 -0.0047807 0.000337477 0.000451453 0.00160703 0.0027739 -0.000125339 -0.00108299 -0.00183066 -0.000803568 -0.00414445 -0.00150306 0.000575503 -0.00111742 -0.00404209 -0.00109494
internal_weight=5385 5280 107 5173 440 4733 2024 2001 329 153 119 83 1672 2709 57 176 2670 2601 866 604 1735 262 240 206 89 585 1150 394 99 60
internal_count=5385 5280 107 5173 440 4733 2024 2001 329 153 119 83 1672 2709 57 176 2670 2601 866 604 1735 262 240 206 89 585 1150 394 99 60
is_linear=0
shrinkage=0.05


Tree=19
num_leaves=31
num_cat=0
split_feature=3 9 3 0 13 2 8 0 8 6 1 1 1 13 4 3 3 2 1 6 6 3 8 6 2 1 1 3 0 4
split_gain=0.624232 0.41822 0.401976 0.524706 0.623347 0.479074 0.701965 0.433906 0.381928 0.978209 0.786657 0.514804 0.62995 0.664304 0.553285 0.462536 0.580058 0.684651 0.594818 0.601775 0.838549 0.788815 0.666089 0.632022 0.545202 0.746508 0.536041 0.514283 0.738027 0.664945
threshold=2.0538041855125488 0.3191762601160501 -0.079732128184661341 -0.050111785006590852 0.30196358277880908 -0.049551919361247858 -1.5249380019259331 -0.042751909261484859 0.71942976461232588 0.047702564146013295 -0.12361541241297401 0.098856928101223276 -0.21085467194138549 1.4711757308438878 0.37178641668608331 -0.19161804890724318 -0.16573230636678946 -0.14903503827355194 -0.2348394102472843 0.036931289677920469 0.033588607595418922 0.37133686709604358 -0.55532233482701154 0.030827898375557775 -0.1456859295132221 -0.12032518193253704 -0.029390144010498827 0.82989711826281165 -0.028591865055037632 0.44239461587239648
decision_type=2 2 2 2 2 2 2 2 2 2 2 2 2 2 2 2 2 2 2 2 2 2 2 2 2 2 2 2 2 2
left_child=1 2 3 4 -1 -4 -7 -8 15 11 -11 12 -10 -14 -13 -3 17 -17 -18 20 21 23 26 -20 25 -21 -22 -26 -29 -30
right_child=-2 8 5 -5 -6 6 7 -9 9 10 -12 14 13 -15 -16 16 18 -19 19 24 22 -23 -24 -25 27 -27 -28 28 29 -31
leaf_value=0.005971264927869752 0.0060718066862873029 -0.0018102075118034409 0.004892439058269648 -0.0076136394821722728 -0.0055146079234502932 -0.0097482550130023257 -0.005700254589883668 0.00061402910704454108 -0.004311339491025799 0.013108044971133874 0.00040115753100031899 -0.00025858890003815341 0.0015062227346857502 0.0094085220679906868 -0.0066180383571638511 -0.0027826460233579082 0.0054126916346924235 0.008150890502664777 -0.00040362148533255502 -0.0042375760897994039 0.0056990288993498932 0.0012769044775353456 0.0069182211360058338 -0.0046764984281940595 -0.0047149890208767588 0.008970592048464586 -0.0039478730384467382 0.007950075377117503 -0.0091073945782187849 0.0033583524252753707
leaf_weight=21 42 378 34 56 27 23 33 155 44 29 21 278 530 28 39 21 49 45 2253 20 24 770 78 90 173 23 36 22 23 20
leaf_count=21 42 378 34 56 27 23 33 155 44 29 21 278 530 28 39 21 49 45 2253 20 24 770 78 90 173 23 36 22 23 20
internal_value=4.70809e-13 -4.7729e-05 -0.0017211 -0.00432559 -0.000489539 -0.000615514 -0.00150305 -0.000494329 6.92124e-05 0.000960376 0.00777115 0.000589822 0.00144857 0.00190275 -0.00104098 -0.000145331 2.72281e-05 0.00467204 -5.83786e-05 -0.00013428 5.75967e-05 -0.000111477 0.00387155 -0.000567752 -0.00235417 0.00282726 -8.91123e-05 -0.00329031 0.000501517 -0.00330937
internal_weight=5385 5343 349 104 48 245 211 188 4994 969 50 919 602 558 317 4025 3647 66 3581 3532 3251 3113 138 2343 281 43 60 238 65 43
internal_count=5385 5343 349 104 48 245 211 188 4994 969 50 919 602 558 317 4025 3647 66 3581 3532 3251 3113 138 2343 281 43 60 238 65 43
is_linear=0
shrinkage=0.05


Tree=20
num_leaves=31
num_cat=0
split_feature=3 8 4 13 6 8 3 11 13 4 11 10 8 4 6 3 10 6 0 3 5 2 2 12 10 5 8 2 10 3
split_gain=0.563369 0.377757 0.685703 0.796094 0.49538 0.488468 0.51753 0.699081 0.812488 0.660249 0.69039 0.653477 0.70195 0.614466 0.584043 0.796262 0.533632 0.506547 0.713634 0.623107 0.543726 0.473684 0.48227 0.551781 0.617023 0.446911 0.437373 0.425889 0.424832 0.420141
threshold=2.0538041855125488 -1.010454731190086 0.30445002614530042 1.0847533872280868 0.055835606737159905 -0.93323531638309409 -0.25928240347212461 -1.590382661650936 1.4260853174602739 0.39931137557744295 -0.21446545535194483 -0.84351372469926211 0.079922166070306958 0.30334004964575284 0.026183022669850384 -0.13462672870260975 0.23288868384469844 0.025225157211548044 0.065957206546568906 0.25453477227594706 67.665770841270771 0.4066234071792178 -0.040075712095684439 -0.043248972597877959 0.23866545386296731 38.95644092533724 0.11332513169058475 0.13719222623420704 0.50859429537008061 -0.13090718642479451
decision_type=2 2 2 2 2 2 2 2 2 2 2 2 2 2 2 2 2 2 2 2 2 2 2 2 2 2 2 2 2 2
left_child=1 2 3 21 5 27 7 -7 9 10 28 -12 13 -13 15 16 25 -17 19 -19 -20 22 -1 -24 -25 -8 -27 -3 -9 -16
right_child=-2 4 -4 -5 -6 6 14 8 -10 -11 11 12 -14 -15 29 17 -18 18 20 -21 -22 -23 23 24 -26 26 -28 -29 -30 -31
leaf_value=0.0018873758464464136 0.0057682163120868308 0.0014017396699637175 -0.0035146529982078146 0.005672186537962056 0.0046789561362810808 -0.011093698660843074 -0.012451979434117674 -0.01150805000215769 0.0058103225796538246 -0.0078976529257165067 -0.0068543632825215656 0.0022280623259152785 -0.0023953817342036465 0.012662407081751599 0.0033842148106791982 0.00012196313763085364 -0.00012151414764599062 -0.0015744176127814821 0.0080847016047863735 -0.0097716726616702294 -0.0034346279827877878 0.0067734500463120647 -0.004158987617101843 0.0015021632612156313 -0.0041769363405182959 -0.00013734758831560612 -0.0072850389197012602 0.010062837329777806 -0.0014392645354382695 0.00068972148232989067
leaf_weight=107 42 40 209 53 59 20 20 22 34 45 24 43 47 21 167 2616 71 49 21 44 20 20 159 151 70 38 49 22 20 1082
leaf_count=107 42 40 209 53 59 20 20 22 34 45 24 43 47 21 167 2616 71 49 21 44 20 20 159 151 70 38 49 22 20 1082
internal_value=-1.81642e-12 -4.53425e-05 -0.00107068 -0.00015856 0.000127042 6.75599e-05 6.19375e-06 -0.00209076 -0.00138741 -0.00248976 -0.00111487 0.000626886 0.00224445 0.00565183 0.000144752 -0.000241397 -0.00348232 -3.16212e-05 -0.00302995 -0.00545269 0.00246552 -0.000768086 -0.0010778 -0.00191273 -0.000296647 -0.00571239 -0.00416306 0.00447503 -0.00671339 0.00104999
internal_weight=5385 5343 769 560 4574 4515 4453 276 256 222 177 135 111 64 4177 2928 178 2750 134 93 41 507 487 380 221 107 87 62 42 1249
internal_count=5385 5343 769 560 4574 4515 4453 276 256 222 177 135 111 64 4177 2928 178 2750 134 93 41 507 487 380 221 107 87 62 42 1249
is_linear=0
shrinkage=0.05


Tree=21
num_leaves=31
num_cat=0
split_feature=3 0 3 3 1 3 9 0 6 9 8 11 9 4 1 0 5 8 4 5 7 0 12 6 6 3 7 3 8 0
split_gain=0.515485 0.363192 0.544165 0.596264 0.534093 0.649982 1.04118 0.630916 0.741631 0.677335 0.573077 0.587123 0.540849 0.555857 0.537189 0.58788 0.554735 0.532545 0.567285 0.520684 0.713508 0.505668 0.499655 0.579408 0.581098 1.00017 0.989898 0.636094 0.575632 0.550096
threshold=1.76302737009648 0.063407782428884132 0.58113455567741579 0.63405639643010991 0.13582504849100388 -0.0050760196430996709 1.0524389530600182 0.22040382103691272 0.036687757316313678 1.1406969607367958 0.025952233928591455 -1.1704643237902495 0.91296954066056824 0.20544669179039751 -0.0070967387412578234 0.16318297414637142 59.314808719288422 -5.3996951044074546 0.513523993261089 61.659887746311156 0.089930136572547545 0.0804847171505816 -0.52395862763968371 0.031806299719882088 0.035971902813388038 0.31228139850549069 0.20335134195613 -0.03631813687039042 -0.46612201914380536 -0.041704664244349036
decision_type=2 2 2 2 2 2 2 2 2 2 2 2 2 2 2 2 2 2 2 2 2 2 2 2 2 2 2 2 2 2
left_child=1 2 17 -4 7 6 -6 8 14 -10 12 -12 -7 -14 16 21 -3 -1 22 -13 -21 -16 23 -19 26 27 -25 29 -29 -26
right_child=-2 4 3 -5 5 10 -8 -9 9 -11 11 19 13 -15 15 -17 -18 18 -20 20 -22 -23 -24 24 25 -27 -28 28 -30 -31
leaf_value=-0.0056449289449100977 0.0044962706317799904 0.0018895981812043251 0.0058224318225586396 0.00053337801001074488 -0.01136494284340491 0.0059329673000003986 0.00085092907821809937 0.0094227355495095262 0.003975988514832266 -0.0067568160650529428 -0.0077647194940725283 0.0065904339328408243 -0.0047319551184144175 0.0024221939120074171 0.002963456614996667 0.0066254977159862687 0.0081862408209775316 -0.0026532366863347705 0.0041264521163504797 -0.0093920660245677707 -0.00028822624093310825 -0.00075467387857762252 -0.00018582700309601385 0.0068209413350338033 0.00016437547861178424 -0.011885924870148301 -0.0059469455014914277 0.011138528691371904 3.2232582036937986e-05 -0.009150047292527946
leaf_weight=49 63 82 69 234 33 69 37 25 21 49 29 25 37 102 137 43 61 481 68 23 335 275 2813 63 51 20 20 20 28 23
leaf_count=49 63 82 69 234 33 69 37 25 21 49 29 25 37 102 137 43 61 481 68 23 335 275 2813 63 51 20 20 20 28 23
internal_value=4.83003e-12 -5.32253e-05 -0.000297973 0.00173782 0.000643854 -0.000340858 -0.00490798 0.0016243 0.00133245 -0.00353697 0.000174785 -0.000905314 0.00231421 0.000517852 0.00190245 0.00106232 0.00457558 -0.000467622 -0.000396898 -0.000385933 -0.00087311 0.000481695 -0.000484306 -0.00167357 0.000420742 -0.00152192 0.00374434 0.000177091 0.00465986 -0.00273065
internal_weight=5385 5322 3939 303 1383 690 70 693 668 70 620 412 208 139 598 455 143 3636 3587 383 358 412 3519 706 225 142 83 122 48 74
internal_count=5385 5322 3939 303 1383 690 70 693 668 70 620 412 208 139 598 455 143 3636 3587 383 358 412 3519 706 225 142 83 122 48 74
is_linear=0
shrinkage=0.05


Tree=22
num_leaves=31
num_cat=0
split_feature=3 0 9 11 11 7 7 7 1 11 6 7 9 4 0 1 1 7 13 1 6 0 4 12 12 5 11 13 13 7
split_gain=0.477738 0.558074 0.521878 0.735449 0.495618 0.464473 0.613275 0.429404 0.410078 0.402209 0.886544 0.575385 0.489637 0.410517 0.407656 0.575736 0.381042 0.36913 0.33842 0.324556 0.840623 0.504755 0.472684 0.521351 0.510198 1.15808 0.683483 0.46421 0.502647 0.548751
threshold=0.77707007420361207 -0.030340091577220004 0.038918246320075532 1.0000000180025095e-35 -2.1504858659537081 0.14334329691606648 0.12241572455110385 0.089500557225722047 0.098856928101223276 -1.074882523420069 0.031655329405124229 0.18825835779611236 0.99318179545933505 0.40452105182334597 0.22040382103691272 0.21324546333530983 1.0000000180025095e-35 0.10126114642622787 1.5430333004296397 -0.15117630771218879 0.036931289677920469 -0.06073251911171023 0.21252582432753839 1.2102806388495098 0.19348674057738061 27.622928070908412 0.12133560682376247 -0.99782911731399804 1.0319377054461247 0.13787517240292507
decision_type=2 2 2 2 2 2 2 2 2 2 2 2 2 2 2 2 2 2 2 2 2 2 2 2 2 2 2 2 2 2
left_child=2 8 3 -1 -4 6 7 -3 -2 10 12 13 18 16 19 -16 -12 -14 -6 22 21 27 -11 24 25 -24 -26 -21 -29 -30
right_child=1 5 4 -5 9 -7 -8 -9 -10 14 11 -13 17 -15 15 -17 -18 -19 -20 20 -22 -23 23 -25 26 -27 -28 28 29 -31
leaf_value=-0.010836136109989 0.002415581337279744 -0.0036369252611290325 0.00535230051415662 -0.00076009277074428445 -0.013906130705171646 0.002516891077933469 -0.0078565592379790956 0.0039081805618479846 0.011398155026836321 -0.0034325162211999946 0.0014999526356405113 -0.0031576593595462432 -0.0074600850231945522 -0.00078052026560393776 0.0095133053690746993 -0.00033176025573277112 0.010320159701630473 0.0013695707946116556 -0.0055519701844012302 0.0024445844493591442 -0.0031301644423684482 0.00020407949940315113 -0.0093694225358574284 -0.0035613501199374072 0.010139742220958902 0.0025416748989913716 0.0019280588476123803 -0.0028196760415968411 -0.0024999420451266427 0.0064871916998967983
leaf_weight=27 27 33 42 55 22 179 29 44 24 46 24 69 20 41 27 33 25 29 27 65 228 3490 23 38 45 181 58 366 35 33
leaf_count=27 27 33 42 55 22 179 29 44 24 46 24 69 20 41 27 33 25 29 27 65 228 3490 23 38 45 181 58 366 35 33
internal_value=-3.39705e-13 0.0018256 -0.00012149 -0.00407781 -5.61748e-05 0.000963595 -0.00165942 0.000674564 0.00664267 -0.000102298 -0.00202801 0.000277503 -0.00576859 0.00291113 3.7237e-06 0.00409852 0.00600006 -0.00223437 -0.00930282 -4.9594e-05 -0.000177369 -8.5953e-06 0.00132848 0.00196328 0.00264711 0.00119876 0.00551569 -0.00149604 -0.00208623 0.00186146
internal_weight=5385 336 5049 82 4967 285 106 77 51 4925 257 159 98 90 4668 60 49 49 49 4608 4217 3989 391 345 307 204 103 499 434 68
internal_count=5385 336 5049 82 4967 285 106 77 51 4925 257 159 98 90 4668 60 49 49 49 4608 4217 3989 391 345 307 204 103 499 434 68
is_linear=0
shrinkage=0.05


Tree=23
num_leaves=31
num_cat=0
split_feature=3 7 9 11 1 4 9 3 2 8 9 13 10 8 7 1 9 10 8 8 3 11 3 6 3 9 13 9 8 13
split_gain=0.441573 0.353899 0.344338 0.537557 0.427743 0.747074 0.484696 0.447158 0.532002 0.478532 0.434774 0.408061 0.373325 0.309934 0.636122 0.752223 0.792898 0.629044 0.590036 0.637489 0.543886 0.517452 0.920229 0.546124 0.485731 0.422331 0.56293 0.4151 0.503668 0.411637
threshold=2.0538041855125488 0.24984874747516808 0.42925299731463457 1.6659477673919929 0.035186048898071538 0.25002262373705481 0.41166484721120394 -0.21725432302883543 -0.11689715008748462 0.15221701129360124 0.13757142285973745 0.48633416772496307 0.49076009914179747 -0.8150393005208495 0.12360615636786963 -0.12032518193253704 0.75027337188448939 0.61462624229176355 -0.29187131192999799 -0.24409905436756305 0.75698245489015337 -0.18485175292769671 -0.17725677976922702 0.017164167010782678 -0.017953597252022498 0.67221594906069304 0.5948906119688403 1.2044085909800624 -1.9502016675146281 0.6307014293138784
decision_type=2 2 2 2 2 2 2 2 2 2 2 2 2 2 2 2 2 2 2 2 2 2 2 2 2 2 2 2 2 2
left_child=2 -2 3 4 6 10 7 12 -9 11 -6 -10 -1 14 17 16 -16 -4 21 24 -17 22 -15 -24 -20 26 -23 -18 -29 -25
right_child=1 -3 13 -5 5 -7 -8 8 9 -11 -12 -13 -14 18 15 20 27 -19 19 -21 -22 25 23 29 -26 -27 -28 28 -30 -31
leaf_value=-0.0070679799371370774 0.00029304625233635308 0.0094828858294270253 0.001226444034565346 0.0068490703916177153 -0.006575155468453886 -0.007466965948612821 -0.0070791934034787124 0.0066737380607101403 0.0013207140641117638 0.0035196314744783764 -0.00011950412035279029 -0.0046906980822376647 0.00070796554490666977 -0.0045096749664637554 -0.0071423018805217 -0.0041253761577431667 0.0084988310933113102 -0.0053663253667764373 0.0017032808624207975 0.00013590112669192918 0.0020434817060737348 0.0069435931930246836 -0.00059678667663213083 0.0086692772941280374 -0.006365409506697413 -5.8910472048596314e-05 -0.002597541819241914 0.0068938614660874007 -0.0037515728883445263 0.0032057676761379017
leaf_weight=33 20 22 379 20 32 69 24 39 55 69 141 58 29 29 20 278 31 40 26 3226 41 52 34 85 66 342 22 20 25 58
leaf_count=33 20 22 379 20 32 69 24 39 55 69 141 58 29 29 20 278 31 40 26 3226 41 52 34 85 66 342 22 20 25 58
internal_value=-1.64613e-12 0.00510677 -4.01431e-05 -0.00120281 -0.00149614 -0.00306808 -0.000257016 0.000321543 0.00137425 0.000238645 -0.00131361 -0.00176479 -0.00343084 9.84319e-05 -0.000777215 -0.00216474 0.00171568 0.000597063 0.000283784 1.88624e-05 -0.00333251 0.00169699 0.00374637 0.00509905 -0.00408513 0.000682148 0.00410704 0.00404673 0.000979731 0.00645331
internal_weight=5385 42 5343 569 549 242 307 283 221 182 173 113 62 4774 834 415 96 419 3940 3318 319 622 206 177 92 416 74 76 45 143
internal_count=5385 42 5343 569 549 242 307 283 221 182 173 113 62 4774 834 415 96 419 3940 3318 319 622 206 177 92 416 74 76 45 143
is_linear=0
shrinkage=0.05


Tree=24
num_leaves=31
num_cat=0
split_feature=3 8 13 9 11 11 9 11 5 8 8 3 8 2 2 11 6 9 7 8 4 13 7 1 6 8 4 2 4 1
split_gain=0.403524 0.535893 0.520593 0.503579 0.558992 0.497181 0.441279 0.372168 0.351133 0.451489 0.526781 0.568889 0.508046 0.338214 0.33116 0.327958 0.842375 0.51408 0.487103 0.681575 0.564638 0.379039 0.3789 0.345594 0.498962 0.550854 0.468611 0.596485 0.507436 0.47521
threshold=0.77707007420361207 -5.3996951044074546 -1.1121747791337075 0.038918246320075532 -0.021882992320020691 -2.1504858659537081 0.40066041919712997 0.50105223036349511 51.629226655287951 -0.703441706391982 0.13997833374744864 1.2196758287729568 -0.071987033542358345 0.35713411645013543 0.087271249271053133 -1.074882523420069 0.031443662886901466 0.99318179545933505 0.18825835779611236 0.62416625122232816 0.40452105182334597 1.5430333004296397 0.10126114642622787 -0.15117630771218879 0.036931289677920469 -1.010454731190086 0.21252582432753839 -0.15334723970002892 0.38577750804384719 -0.17008558391803
decision_type=2 2 2 2 2 2 2 2 2 2 2 2 2 2 2 2 2 2 2 2 2 2 2 2 2 2 2 2 2 2
left_child=1 14 -2 4 -3 -5 -4 -6 -8 -10 12 13 -11 -12 -1 16 17 21 19 20 -18 -7 -19 26 -25 -26 -17 -28 29 -29
right_child=2 3 6 5 7 15 8 -9 9 10 11 -13 -14 -15 -16 23 18 22 -20 -21 -22 -23 -24 24 25 -27 27 28 -30 -31
leaf_value=-0.0013961621564036856 -0.0024595973274347586 -0.010571791867361121 -0.0040146144997814433 0.0054899416023456472 0.0016331836581230164 -0.014179324436311922 0.0064519854942484516 -0.006832486925413832 -0.003375372696187227 0.0026216231158067444 -0.0062073547984115209 0.005846820704829999 0.012246985393218123 0.0012339386057007957 -0.0091058286390482239 -0.0032384794833057607 0.004246101231856301 -0.0070797206880524755 -0.0027793391148990664 0.010501622620292686 -0.0049171692370597667 -0.0052227667532861238 0.0019309904376444008 6.1158157543507509e-05 -0.007196844419788408 -0.0011228868627281051 0.00061750598695620108 0.0013194316383991123 0.012078717723488808 0.0092510805805571944
leaf_weight=30 62 23 23 41 37 21 63 20 31 29 26 39 26 37 26 46 40 20 67 22 29 27 28 3991 46 198 221 69 21 26
leaf_count=30 62 23 23 41 37 21 63 20 31 29 26 39 26 37 26 46 40 20 67 22 29 27 28 3991 46 198 221 69 21 26
internal_value=1.84811e-12 -0.000111655 0.00167782 -5.7102e-05 -0.00399216 6.97395e-06 0.00261402 -0.00133723 0.00322143 0.00213884 0.00322764 0.00110089 0.00717179 -0.00183707 -0.00497565 -3.91676e-05 -0.00178835 -0.00548237 0.000456115 0.00283826 0.000394872 -0.00914126 -0.00182347 5.70412e-05 -7.30352e-05 -0.00226798 0.00149535 0.00214152 0.00504502 0.0034902
internal_weight=5385 5049 336 4993 80 4913 274 57 251 188 157 102 55 63 56 4872 254 96 158 91 69 48 48 4618 4235 244 383 337 116 95
internal_count=5385 5049 336 4993 80 4913 274 57 251 188 157 102 55 63 56 4872 254 96 158 91 69 48 48 4618 4235 244 383 337 116 95
is_linear=0
shrinkage=0.05


Tree=25
num_leaves=31
num_cat=0
split_feature=1 12 12 7 8 7 7 9 8 6 1 13 2 11 0 7 13 13 9 7 9 12 1 8 1 9 8 9 1 6
split_gain=0.381526 0.364586 0.411365 0.396455 0.428781 0.396019 0.483045 0.783613 0.640158 0.52006 0.51225 1.22086 0.621252 0.509645 0.478502 1.35862 0.74526 0.520188 0.713626 0.501841 0.47192 0.397667 0.394739 0.547421 0.442313 0.773252 0.436204 0.568055 0.618941 0.594928
threshold=0.81438753803058617 2.4375366151517639 1.670374426204656 0.13304247832080959 0.17096811679392637 0.45159329453713187 0.33623274203092307 1.5829781830755403 -1.010454731190086 0.057836310006132118 0.34351385660298878 0.30992484760302547 0.23128335418172732 -0.37090262737522089 0.10701331431983109 0.1060384983165147 -0.12547027877798753 0.66908480648937785 0.97196131561851284 0.12896703173924351 1.4381085659203938 0.74464257741084638 0.20201833209182044 1.1458598119791297 0.22087756137397677 1.3034120052423763 0.71942976461232588 1.3793048504378713 -0.2348394102472843 0.041931000374215092
decision_type=2 2 2 2 2 2 2 2 2 2 2 2 2 2 2 2 2 2 2 2 2 2 2 2 2 2 2 2 2 2
left_child=1 2 5 -4 -5 6 9 8 -8 10 14 13 -13 -12 22 -16 19 -18 -19 -17 -15 -21 26 24 25 -24 -1 28 -28 -29
right_child=-2 -3 3 4 -6 -7 7 -9 -10 -11 11 12 -14 20 15 16 17 18 -20 21 -22 -23 23 -25 -26 -27 27 29 -30 -31
leaf_value=-0.00052940048908893392 0.0067262652817936175 0.0065488647137369434 0.00054078936044658942 -0.0020275415960126198 -0.011399603189657563 -0.005375460401067839 -0.0070417777236018858 0.0092547898180782798 0.0036084685263462197 0.0055794481088679918 0.0063765946509582658 -0.001315498495982452 -0.011645846405651333 -0.0058527182315147542 0.010302641813177617 0.0060748309688642629 0.0044743447783513971 0.0044469601960232608 -0.0033341178317855603 -0.0029988934656351128 0.0022557536630254042 0.0044413429964333768 0.0024964498072812284 -0.0061961165195415641 0.00080790675458653524 0.013577061137184501 -0.0051354877379102019 -0.0040502347472890204 0.001919363016573525 0.0046091919317841536
leaf_weight=3348 21 21 35 26 23 34 21 37 43 41 28 22 43 34 40 20 147 52 68 176 38 20 74 22 240 20 33 96 537 25
leaf_count=3348 21 21 35 26 23 34 21 37 43 41 28 22 43 34 40 20 147 52 68 176 38 20 74 22 240 20 33 96 537 25
internal_value=7.63334e-13 -2.63333e-05 -5.21763e-05 -0.00352356 -0.00642667 3.27089e-06 3.82712e-05 0.00346252 0.000113856 -2.92246e-05 -7.44647e-05 -0.0028148 -0.00814942 0.000652709 1.7474e-05 0.00144718 0.000713807 0.00248034 3.76826e-05 -0.00146982 -0.00157325 -0.00223969 -0.000152659 0.00144343 0.00194664 0.00485403 -0.00029334 0.000850411 0.00151092 -0.0022611
internal_weight=5385 5364 5343 84 49 5259 5225 101 64 5124 5083 165 65 100 4918 523 483 267 120 216 72 196 4395 356 334 94 4039 691 570 121
internal_count=5385 5364 5343 84 49 5259 5225 101 64 5124 5083 165 65 100 4918 523 483 267 120 216 72 196 4395 356 334 94 4039 691 570 121
is_linear=0
shrinkage=0.05


Tree=26
num_leaves=31
num_cat=0
split_feature=3 12 12 3 8 6 8 8 10 3 9 0 9 12 5 7 4 10 7 0 0 4 13 0 9 8 5 12 9 3
split_gain=0.350135 0.330176 0.368837 0.617569 0.338611 0.6329 0.421931 0.691856 0.613501 0.701333 0.595182 0.801143 0.707678 0.6207 1.17214 1.02214 0.784657 0.59337 0.588933 0.574697 0.817327 0.855128 0.761911 0.566056 0.785536 0.563033 0.686096 0.675954 0.56907 0.519316
threshold=2.0538041855125488 2.4375366151517639 1.670374426204656 -0.30946486579931592 0.71942976461232588 0.047702564146013295 -0.0050306308152804338 -0.039392832308051677 0.56271309922518853 0.52930592850150426 1.5392076867516764 0.2103409819942669 1.713489299673481 0.13229502408778968 63.424056694153279 0.12241572455110385 0.24885746377807047 -0.59094956711416857 0.095517542677916553 0.023575649232923438 0.031845630076693617 0.20613753821077099 1.1069142027565533 -0.018203251779885739 1.0406432721735088 -0.60360077305341253 44.911310953769821 -0.88335732341726969 1.2204981738834155 -0.10301511184855937
decision_type=2 2 2 2 2 2 2 2 2 2 2 2 2 2 2 2 2 2 2 2 2 2 2 2 2 2 2 2 2 2
left_child=1 2 4 -4 6 -6 7 8 9 19 17 12 -12 14 15 -14 -15 29 23 -1 -21 -22 -23 -10 -25 26 28 -28 -11 -8
right_child=-2 -3 3 -5 5 -7 10 -9 18 25 11 -13 13 16 -16 -17 -18 -19 -20 20 21 22 -24 24 -26 -27 27 -29 -30 -31
leaf_value=-0.0005761951434575277 0.0045473941003105469 0.0062214215419122152 -0.011016551991924644 -0.00095077065852819951 0.00052934725331798725 0.0063530311197498622 -0.010026508073012036 0.0035846602121185692 0.0061873936975324478 0.010919502654966589 0.004040142149509241 0.010789806786037628 -0.0034778883396130475 0.00069848823953758588 -0.0089813913380646197 0.0090508340477443699 -0.012131683952443732 -0.00075688405947119846 -0.003269137068893951 0.0072859779379710003 -0.0018496089711718792 0.0042821999950976436 -0.0040239073593649225 0.0023187067402018744 -0.0092527307485314927 0.004858664519105986 0.0061129887842319231 -0.0037203161330784068 -0.00035100917642315235 -0.0026538029138745678
leaf_weight=1289 42 21 20 64 974 49 27 143 37 24 90 21 27 22 23 41 26 1226 245 54 175 169 33 44 22 142 22 85 21 207
leaf_count=1289 42 21 20 64 974 49 27 143 37 24 90 21 27 22 23 41 26 1226 245 54 175 169 33 44 22 142 22 85 21 207
internal_value=6.97938e-13 -3.57459e-05 -6.0436e-05 -0.00334739 -7.72433e-06 0.000808292 -0.000205775 0.000207545 3.0875e-06 0.000338051 -0.000811253 0.001443 0.000585873 -0.0016507 0.000775925 0.00407619 -0.00625119 -0.00119726 -0.00193547 -4.77043e-05 0.00153286 0.00070881 0.00292526 0.00123686 -0.00153844 0.00259485 0.000479972 -0.00169852 0.00565993 -0.0035045
internal_weight=5385 5343 5322 84 5238 1023 4215 2505 2362 2014 1710 250 229 139 91 68 48 1460 348 1720 431 377 202 103 66 294 152 107 45 234
internal_count=5385 5343 5322 84 5238 1023 4215 2505 2362 2014 1710 250 229 139 91 68 48 1460 348 1720 431 377 202 103 66 294 152 107 45 234
is_linear=0
shrinkage=0.05


Tree=27
num_leaves=31
num_cat=0
split_feature=9 4 7 6 4 13 5 6 12 10 12 6 6 2 4 10 5 10 10 7 5 4 4 7 13 4 10 5 6 12
split_gain=0.331941 0.393588 0.596633 0.460916 0.474759 0.644443 0.569855 0.516663 0.360931 0.299499 0.479952 0.425666 0.931611 0.473634 0.425885 0.343145 0.328889 0.552383 0.676371 0.414036 0.361846 0.323805 1.04037 0.568883 0.506759 0.481686 0.461387 0.46101 0.426244 0.387147
threshold=0.3191762601160501 0.39931137557744295 0.21537965152128027 0.019117662090017327 0.20271784413162156 0.3502710350834744 58.437640334727867 0.027931340905382494 -0.070725733605031135 1.0139439253190596 -1.0530484127954864 0.030048075171189861 0.027790541342838131 -0.024019941199302172 0.24089723961419304 0.9652641140310273 39.488996198645005 1.1480581789314195 1.4175517266687445 0.15339434906005692 56.292915503527006 0.20444847356895321 0.19737369970302651 0.063434135131194405 -0.97818795313603768 0.20968389851506145 0.79509137450118039 72.507922866373022 0.023179311864885293 0.40912089359858234
decision_type=2 2 2 2 2 2 2 2 2 2 2 2 2 2 2 2 2 2 2 2 2 2 2 2 2 2 2 2 2 2
left_child=1 2 3 -1 -5 6 8 -7 -6 15 -11 12 13 -12 -15 21 -13 -18 -19 -20 -21 22 24 25 -2 -23 28 29 -26 -25
right_child=9 -3 -4 4 5 7 -8 -9 -10 10 11 16 -14 14 -16 -17 17 18 19 20 -22 23 -24 27 26 -27 -28 -29 -30 -31
leaf_value=0.00084191087012489636 0.0049311423048493458 -0.0081255161070397913 0.0050091538849907618 -0.0097095239758491526 0.0089225810464648985 -0.0031241550330638086 -0.0046220380922022746 -0.01232050623345588 0.00053739733711788147 -0.008138661133125424 0.0026119924914794713 -0.0029408160099675031 -0.011024415679275991 -0.0067675472350745671 0.0021321307029575111 0.0052887341670804855 -0.0054150071438579337 0.010159225489145943 -0.0031846004432405936 0.007165831053685962 -0.0013572736922651532 0.010357524471526797 -0.003734348930038549 0.00056974948315241785 -0.0001121580077691131 0.0023391518970981005 0.0057686743636926018 0.0033860477898661201 -0.0074577949754893779 -0.00084406153414552177
leaf_weight=105 52 21 36 25 21 56 32 21 33 24 53 44 28 41 20 33 21 28 33 33 20 22 201 1857 1572 126 33 119 20 655
leaf_count=105 52 21 36 25 21 56 32 21 33 24 53 44 28 41 20 33 21 28 33 33 20 22 201 1857 1572 126 33 119 20 655
internal_value=5.98561e-13 -0.00148893 -0.00106531 -0.00181166 -0.00329371 -0.00230969 0.000665152 -0.00563225 0.0037983 0.0001035 -0.00131832 -0.000808388 -0.00285264 -0.000845537 -0.00384962 0.00020809 0.000813309 0.00203688 0.00340959 0.00121204 0.00394957 0.000172088 -0.000335083 0.000514827 7.23419e-05 0.00353107 -8.31397e-05 0.000345156 -0.00020444 0.000201101
internal_weight=5385 350 329 293 188 163 86 77 54 5035 345 321 142 114 61 4690 179 135 114 86 53 4657 1878 2779 1677 148 1625 2631 1592 2512
internal_count=5385 350 329 293 188 163 86 77 54 5035 345 321 142 114 61 4690 179 135 114 86 53 4657 1878 2779 1677 148 1625 2631 1592 2512
is_linear=0
shrinkage=0.05


Tree=28
num_leaves=31
num_cat=0
split_feature=9 9 13 13 10 1 9 8 4 1 8 2 11 9 9 1 8 13 11 2 8 1 1 2 12 1 9 4 2 5
split_gain=0.320176 0.588425 0.471676 0.807207 0.65214 0.534601 0.433998 0.420381 0.533388 0.434745 0.375424 0.414905 0.628538 0.550417 0.558956 0.47289 0.370959 0.354283 0.59461 0.707093 0.58531 0.527784 0.517875 0.585922 0.420395 0.511404 0.41433 0.401642 0.448558 0.388212
threshold=0.88270758459517373 0.89163449534768868 -2.6556288501123992 -2.1823402252924384 1.4175517266687445 -0.16234482151168941 1.7525548706134384 -1.2846351152510216 0.46482447181066594 -0.2641227288085477 -1.4730363069373411 -0.054101091183823495 0.21318430591089751 0.37625351197093321 0.63206897213451485 -0.15456250611785297 -1.8674609675636493 0.41355679127568229 0.44354345646126192 0.079579774290314501 -0.27056179339697478 -0.07437751517584261 0.20450333849622385 -0.017317665260008715 -0.1162411324777855 -0.13254290863454196 0.67221594906069304 0.19552433313739212 0.22149169986596065 45.120556906551457
decision_type=2 2 2 2 2 2 2 2 2 2 2 2 2 2 2 2 2 2 2 2 2 2 2 2 2 2 2 2 2 2
left_child=7 -2 -3 -4 -5 -6 -7 10 9 -9 11 15 13 -13 -15 -1 -14 20 19 -19 22 24 23 -11 -22 -26 29 -20 -29 -25
right_child=1 2 3 4 5 6 -8 8 -10 17 -12 12 16 14 -16 -17 -18 18 27 -21 21 -23 -24 26 25 -27 -28 28 -30 -31
leaf_value=-0.0035050915173170244 0.0061963978098771933 0.0073733493969168357 -0.0082646925068859539 0.00040037918365891622 0.0028821434974670413 -0.0076536270942477906 0.00040618346899029111 -0.0066369790340239116 0.0058914425969123843 0.0056728811367573895 -0.0071558149065822363 -0.0065374543424695734 -0.0091227226216708205 0.0085488900387038786 -0.001614850607790774 0.0060176171005878135 -0.0016208596706676942 -0.0016713207478632809 -0.0083895926376351647 0.0016015898155364661 -0.0018392922565046894 -0.00082455397862845757 0.01031426184810698 0.0073673156995533243 0.00014728586240558001 0.007524876437065277 -0.0028536496411437507 -0.00055412284287047534 -0.0078616361399846419 -0.00028225592510818046
leaf_weight=22 42 23 28 3011 25 61 23 27 35 68 36 22 45 24 31 32 26 422 37 271 38 672 20 27 41 55 66 84 28 43
leaf_count=22 42 23 28 3011 25 61 23 27 35 68 36 22 45 24 31 32 26 422 37 271 38 672 20 27 41 55 66 84 28 43
internal_value=-3.73219e-12 0.000316991 0.000239118 0.000186993 0.000262842 -0.00353647 -0.00544677 -0.000468918 -0.0002249 -0.000337629 -0.00245182 -0.00161349 -0.00298227 0.00014661 0.00282024 0.002138 -0.00637556 -0.000246773 -0.00100755 -0.000391438 0.00037514 -0.000253209 0.00263607 0.00188331 0.00261204 0.00437403 -1.14732e-05 -0.00387307 -0.002381 0.00266829
internal_weight=5385 3213 3171 3148 3120 109 84 2172 1934 1899 238 202 148 77 55 54 71 1872 842 693 1030 806 224 204 134 96 136 149 112 70
internal_count=5385 3213 3171 3148 3120 109 84 2172 1934 1899 238 202 148 77 55 54 71 1872 842 693 1030 806 224 204 134 96 136 149 112 70
is_linear=0
shrinkage=0.05


Tree=29
num_leaves=31
num_cat=0
split_feature=1 12 12 7 7 9 8 6 1 6 5 0 7 1 9 0 6 5 2 8 9 10 2 11 7 8 11 1 1 8
split_gain=0.316227 0.308111 0.317491 0.362851 0.413826 0.679575 0.559609 0.436116 0.475843 0.55651 0.622281 0.412933 1.22714 0.369521 0.668793 1.74601 0.641403 0.515115 0.600423 0.561529 0.467505 0.458586 0.435389 0.357053 0.34619 0.380269 0.332484 0.327982 0.32631 0.494841
threshold=0.81438753803058617 2.4375366151517639 1.670374426204656 0.45159329453713187 0.33623274203092307 1.5829781830755403 -1.010454731190086 0.057836310006132118 0.34351385660298878 0.039111114922291475 62.815928514239083 0.10701331431983109 0.1060384983165147 0.074666573732944844 1.6330154934238277 0.1687829610597136 0.032538337068584638 69.64113883125863 0.10365396617664992 0.11332513169058475 1.5175594098678777 0.23288868384469844 0.029304301079069454 -0.11718093747414361 0.13304247832080959 0.17096811679392637 -2.1504858659537081 0.43209466442353134 0.20201833209182044 1.1458598119791297
decision_type=2 2 2 2 2 2 2 2 2 2 2 2 2 2 2 2 2 2 2 2 2 2 2 2 2 2 2 2 2 2
left_child=1 2 3 4 7 6 -6 8 11 10 -10 26 -13 20 16 -16 17 19 -19 21 22 -15 -14 -24 -4 -26 -1 -12 -28 -30
right_child=-2 -3 24 -5 5 -7 -8 -9 9 -11 27 12 13 14 15 -17 -18 18 -20 -21 -22 -23 23 -25 25 -27 28 -29 29 -31
leaf_value=0.0047149822195725784 0.0061236595646256492 0.0060205550066062385 0.00070055382592337475 -0.0051475870738025105 -0.0066048701249417814 0.0085979757352253865 0.0033528145586768556 0.0051081214060370887 0.0040988309571567258 -0.0082073534192103476 -0.0062236166982650191 0.0097634161671157939 -0.0032897830140800814 0.0059683023765683173 -0.013209850496302048 0.0058624167856760325 0.0067358544658514142 0.0089475442927020293 0.00029020819429131147 -0.0058353796423034517 0.0068117275572149088 -0.0041895447205752131 -0.00090242284883667407 0.0072797224639604488 -0.0016674438169082769 -0.010493428976801427 -0.00030620521743853369 -0.00016286493983210589 0.0017621609875689657 -0.0059818266827443784
leaf_weight=35 21 21 35 34 21 37 43 41 39 36 49 40 39 25 30 20 38 24 121 64 48 20 24 30 26 23 4007 41 331 22
leaf_count=35 21 21 35 34 21 37 43 41 39 36 49 40 39 25 30 20 38 24 121 64 48 20 24 30 26 23 4007 41 331 22
internal_value=3.87375e-13 -2.39741e-05 -4.77313e-05 9.80133e-07 3.44828e-05 0.0032039 8.54493e-05 -2.79901e-05 -6.94185e-05 -0.00271058 -0.00117659 1.91929e-05 0.00134733 0.00065035 -0.000237649 -0.00558094 0.000677298 -0.0002291 0.00172315 -0.00282613 0.00280422 0.0014537 0.000735828 0.00364321 -0.00309742 -0.00581025 -0.000138854 -0.00346261 -0.000177819 0.00127953
internal_weight=5385 5364 5343 5259 5225 101 64 5124 5083 165 129 4918 523 483 342 50 292 254 145 109 141 45 93 54 84 49 4395 90 4360 353
internal_count=5385 5364 5343 5259 5225 101 64 5124 5083 165 129 4918 523 483 342 50 292 254 145 109 141 45 93 54 84 49 4395 90 4360 353
is_linear=0
shrinkage=0.05


Tree=30
num_leaves=31
num_cat=0
split_feature=3 12 12 3 0 0 4 2 4 0 5 8 12 3 1 11 5 3 12 10 2 12 0 11 2 0 0 3 6 4
split_gain=0.294292 0.279771 0.283083 0.520961 0.301515 0.267115 0.676371 0.64928 0.627307 0.546525 0.600145 0.664932 0.601735 0.568875 0.536858 0.665069 0.509307 0.530583 0.494388 0.522048 0.48452 0.451919 0.395458 0.393525 0.516506 0.389381 0.5435 0.471815 0.554704 0.628376
threshold=1.76302737009648 2.4375366151517639 1.670374426204656 -0.30946486579931592 -0.050111785006590852 0.063407782428884132 0.47378398821168083 -0.32207380432044935 0.4508013726037241 0.23710628537795589 62.613465193960366 0.83519412442500296 -1.5228775336621523 0.21607667206790895 -0.0070967387412578234 -1.1704643237902495 64.611599347156201 0.43308241545315257 -0.52395862763968371 -1.3163850014631162 0.078405017994356521 -0.68653284552553739 -0.11466378346557181 -0.046260682025007126 0.37302375377003777 0.037000747348207581 0.052979449252477336 -0.20354498797251772 0.02969380416341787 0.35211753098313986
decision_type=2 2 2 2 2 2 2 2 2 2 2 2 2 2 2 2 2 2 2 2 2 2 2 2 2 2 2 2 2 2
left_child=1 2 5 -4 -5 6 18 -8 9 10 11 12 -7 -13 -12 -16 17 -17 25 -20 -14 -10 -9 -22 -25 27 -27 28 -1 -30
right_child=-2 -3 3 4 -6 8 7 22 21 -11 14 13 20 -15 15 16 -18 -19 19 -21 23 -23 -24 24 -26 26 -28 -29 29 -31
leaf_value=-0.011087222616853458 0.0033972965945149695 0.0057195273272338367 -0.00998636399395764 0.0043489745468832551 -0.0030551381922123257 0.010449882642365993 0.011662887763231993 -0.0027966970883426256 -0.0093137726590682111 0.0054861559182366668 0.0059407234876690546 0.00049262930452823636 0.00035576575833763327 -0.0094850008096545937 -0.0085010859891772282 -0.00041752797637686689 0.00028656115300887045 -0.0080152535531669861 0.0072926152652750421 -0.00011190786691470637 0.0015344742123852484 -0.00080360669451646322 0.003898058172551469 0.0042989889737454403 0.012812926604048067 0.0046774291501126509 -0.0037817668233966007 -0.001359009068044802 0.0023626414578287835 -0.0079708212304727324
leaf_weight=28 63 21 20 20 44 25 20 32 26 60 34 50 155 20 25 54 651 40 24 2920 80 39 71 79 23 55 29 618 31 28
leaf_count=28 63 21 20 20 44 25 20 32 26 60 34 50 155 20 25 54 651 40 24 2920 80 39 71 79 23 55 29 618 31 28
internal_value=-3.84187e-12 -4.0216e-05 -6.30333e-05 -0.00294255 -0.000741353 -1.66697e-05 -0.000229224 0.00341891 0.00058554 0.000825941 0.000599717 0.00210277 0.00296538 -0.00235812 -0.000207895 -0.000479393 -0.000210209 -0.0036506 -0.000349427 -5.15449e-05 0.00241015 -0.00420767 0.00181813 0.00415975 0.0062188 -0.00146092 0.00175699 -0.00184433 -0.00529176 -0.00254137
internal_weight=5385 5322 5301 84 64 5217 3856 123 1361 1296 1236 432 362 70 804 770 745 94 3733 2944 337 65 103 182 102 789 84 705 87 59
internal_count=5385 5322 5301 84 64 5217 3856 123 1361 1296 1236 432 362 70 804 770 745 94 3733 2944 337 65 103 182 102 789 84 705 87 59
is_linear=0
shrinkage=0.05


Tree=31
num_leaves=31
num_cat=0
split_feature=9 3 12 9 0 0 8 7 3 12 13 13 10 0 6 10 9 0 4 7 9 6 10 11 8 7 12 6 0 3
split_gain=0.277359 0.580566 0.688136 0.537981 0.512403 0.679143 0.474442 0.853721 0.486602 0.522335 0.419377 0.724487 0.596291 0.457465 0.512479 0.651382 0.724378 0.685524 0.639203 0.769051 0.564005 0.614615 0.554222 0.553373 0.696473 0.814222 0.543763 0.558614 0.504265 0.491015
threshold=0.88270758459517373 -0.4250518019900198 1.5580079870509904 0.89163449534768868 -0.16627195600315739 -0.1219335018596006 -1.2846351152510216 0.065099155408469292 0.45131308653936181 -0.1316825064156488 -2.6556288501123992 -2.1823402252924384 1.4175517266687445 -0.13339611359557232 0.026303818837185463 0.3153301469075071 0.97196131561851284 -0.03478922243454368 0.37178641668608331 0.13928810511221335 1.3652811151849114 0.030048075171189861 -0.64448524076512903 0.18618387193196992 -0.075735510416283472 0.075421155206483501 -1.1831312336720066 0.031806299719882088 0.015097079414377214 0.13201215255526613
decision_type=2 2 2 2 2 2 2 2 2 2 2 2 2 2 2 2 2 2 2 2 2 2 2 2 2 2 2 2 2 2
left_child=1 -1 4 -2 -3 -6 7 -7 -9 -10 -5 -12 13 -13 22 18 -17 -18 26 -20 -19 -22 23 -15 25 -25 27 28 -16 -23
right_child=3 2 -4 10 5 6 -8 8 9 -11 11 12 -14 14 15 16 17 20 19 -21 21 29 -24 24 -26 -27 -28 -29 -30 -31
leaf_value=0.0059511075967124535 0.0059167845548862329 -0.0067146557441446937 -0.0081906976210403045 0.0069476679331906465 0.0049030798720195896 0.0053620597778785009 -0.0002476255259650763 -0.0058465220329009214 -0.0049165444194593216 0.0062480485998094087 -0.0078355112046535526 -0.0027040538546661366 -0.0033897066119857513 0.0010308297019865778 -0.008848186729189295 0.006830031162438294 -0.0046174568458668235 -0.0029195070812037512 -0.0076094878030320019 0.000959100731599339 -0.0030495114829939083 0.0097870114026591196 0.00033448569938308653 0.0071207887869184985 -0.0063016665941126055 -0.0041901907633717468 0.0035642537963922402 0.0047535111909382984 0.00090774651616811754 0.0018857479360246778
leaf_weight=35 42 32 29 23 60 27 1826 121 22 20 28 116 109 90 26 30 103 76 30 206 34 32 1482 26 107 41 505 29 27 51
leaf_count=35 42 32 29 23 60 27 1826 121 22 20 28 116 109 90 26 30 103 76 30 206 34 32 1482 26 107 41 505 29 27 51
internal_value=3.58346e-12 -0.000436439 -0.000541055 0.000295035 -0.000435818 -0.000339035 -0.00049505 -0.00287293 -0.00423701 0.000399928 0.000220574 0.000171425 0.000243282 0.000374798 0.000498165 0.00131823 -0.00057333 -0.00132367 0.00206749 -0.000130127 0.000434153 0.0026126 -4.14967e-05 -0.00215212 -0.00379848 0.000199145 0.00295103 -0.000825511 -0.00387818 0.00493202
internal_weight=5385 2172 2137 3213 2108 2076 2016 190 163 42 3171 3148 3120 3011 2895 1149 326 296 823 236 193 117 1746 264 174 67 587 82 53 83
internal_count=5385 2172 2137 3213 2108 2076 2016 190 163 42 3171 3148 3120 3011 2895 1149 326 296 823 236 193 117 1746 264 174 67 587 82 53 83
is_linear=0
shrinkage=0.05


Tree=32
num_leaves=31
num_cat=0
split_feature=1 12 11 10 12 12 1 5 0 12 5 2 3 1 2 2 0 7 10 11 1 13 3 1 5 13 5 13 1 12
split_gain=0.270927 0.26442 0.271737 0.507335 0.900073 0.733202 0.482557 0.675973 0.520327 0.571166 0.435765 0.365831 0.355042 0.394059 0.319022 0.311495 0.27549 0.75196 0.59698 0.7237 0.554768 0.481589 0.342262 0.280048 0.422189 0.283453 0.269914 0.258674 0.310872 0.488769
threshold=0.81438753803058617 2.4375366151517639 -1.074882523420069 0.20431654734990004 0.61775143559710233 0.31287213016836329 0.1408649019657682 38.680996053977481 -0.019563428780742572 -0.66276686865093559 51.941554810292281 0.19503117612912593 1.5101887366044493 0.43209466442353134 -0.15860114019374436 0.23128335418172732 0.1543157468013219 0.16927416388212232 0.29506947405301659 0.29301081897544418 0.11661809705716832 -0.021554263086962396 0.27104962913371383 0.38101331576811021 64.431979799850822 -2.6556288501123992 70.220810153158951 -2.1823402252924384 0.20201833209182044 -0.81457390899051885
decision_type=2 2 2 2 2 2 2 2 2 2 2 2 2 2 2 2 2 2 2 2 2 2 2 2 2 2 2 2 2 2
left_child=1 2 3 4 10 6 7 -5 -9 -10 -1 -8 16 -14 -7 -16 23 -18 20 22 -19 26 -20 25 -25 -4 -22 -27 -29 -30
right_child=-2 -3 12 5 -6 14 11 8 9 -11 -12 -13 13 -15 15 -17 17 18 19 -21 21 -23 -24 24 -26 27 -28 28 29 -31
leaf_value=-0.0033207618995705467 0.0056681037747434212 0.0055773895943448662 0.0043812525148193039 -0.0042612042588492235 0.0056339777377434081 0.00032959975651465357 -0.0073599574901163575 0.0098483962983619885 -0.0042750136367976669 0.006788112541627405 -0.010109763867102373 0.0014301479400681525 0.0079112400456021244 -0.00058841159776784483 -0.008967850822270574 -0.0015279968172156565 0.0078144885236170244 0.0079063700695493917 -0.0038733222262552856 -0.01045381563405196 -0.0069632919166575788 0.0039892778630842866 0.0051641668402589861 -0.00010959087690759089 -0.0094273801008239386 -0.0042944859040694103 3.0243536457419395e-05 -0.00017461059751976228 0.0052637073345977118 0.00053602468576282268
leaf_weight=60 21 21 36 21 20 32 20 41 20 28 39 29 30 25 34 24 41 33 22 24 22 53 20 31 20 36 37 4106 64 375
leaf_count=60 21 21 36 21 20 32 20 41 20 28 39 29 30 25 34 24 41 33 22 24 22 53 20 31 20 36 37 4106 64 375
internal_value=-7.01802e-12 -2.21906e-05 -4.4199e-05 -0.00135527 -0.00404073 -7.18501e-05 0.00196944 0.00380787 0.00571181 0.00217848 -0.00599522 -0.00215765 5.27803e-05 0.00404776 -0.00367813 -0.00588929 8.121e-06 0.00161842 0.000414442 -0.0035276 0.00220875 0.000529985 0.000430244 -7.88102e-05 -0.00376363 -3.81072e-05 -0.00257752 -7.2837e-05 -3.93981e-05 0.00122525
internal_weight=5385 5364 5343 368 119 249 159 110 89 48 99 49 4975 55 90 58 4920 252 211 66 145 112 42 4668 51 4617 59 4581 4545 439
internal_count=5385 5364 5343 368 119 249 159 110 89 48 99 49 4975 55 90 58 4920 252 211 66 145 112 42 4668 51 4617 59 4581 4545 439
is_linear=0
shrinkage=0.05


Tree=33
num_leaves=31
num_cat=0
split_feature=9 3 7 3 1 4 9 1 11 12 10 1 8 8 8 3 4 10 5 5 13 9 1 4 11 3 8 12 4 12
split_gain=0.264241 0.368985 0.289247 0.429735 0.42691 0.303012 0.428482 0.289122 0.276358 0.23308 0.277423 0.424622 0.520551 0.538822 0.494688 0.350907 0.325178 0.307628 0.300821 0.299504 0.447644 0.36271 0.240901 0.518331 0.638172 0.526629 0.69241 0.613369 0.499517 0.528223
threshold=0.30627310470315039 1.76302737009648 0.21537965152128027 -0.12388295721816316 0.0081086487490278376 0.23224349842443837 0.13757142285973745 0.092466873242771488 0.67213266884265821 2.4375366151517639 1.0139439253190596 0.10565196172005199 -0.76491473711404134 -0.49369350502215553 0.97346655875572063 0.065603927479904081 0.22328565230375377 0.9652641140310273 60.010156223165183 49.515018535074368 0.48633416772496307 1.3652811151849114 -0.12708039385098105 0.45726832232676795 -0.28786951749541634 -0.1386351979797634 1.1769052680860868 -0.54228884984290304 0.37178641668608331 0.082660358487030086
decision_type=2 2 2 2 2 2 2 2 2 2 2 2 2 2 2 2 2 2 2 2 2 2 2 2 2 2 2 2 2 2
left_child=2 9 3 -1 8 6 -6 -8 -5 10 17 12 -12 -14 16 -13 -15 22 -17 21 -21 -18 23 25 -25 27 -27 -2 -24 -30
right_child=1 -3 -4 4 5 -7 7 -9 -10 -11 11 15 13 14 -16 18 19 -19 -20 20 -22 -23 28 24 -26 26 -28 -29 29 -31
leaf_value=-0.0055657546101429041 -0.0066210870165377862 0.0039544188318255012 0.0023969836115032774 0.0030934711548257364 -0.0049969517379341759 -0.005836066528921947 -0.0017973215365782382 0.006509000278840011 -0.0034152962311747529 0.0052985200924532752 -0.0066081424759301764 -0.00029894936376729533 0.0084563437366159643 0.0034846351840175115 0.0046567022544899729 -0.010159144133072475 -0.008568372909741646 0.0050048151315422729 -0.0031281784817110748 -0.0040749482288956638 0.0058273462506587661 -0.0014031395175200152 0.00010951382259274093 0.011389073672202918 0.00084298791844048546 0.0031228204321622505 -0.0045633830845712084 0.00012422763898535373 -0.00057409093468155142 -0.0052067905224368466
leaf_weight=64 44 61 44 73 34 50 20 22 21 21 28 37 20 26 41 29 33 32 32 25 21 38 3840 26 32 212 34 144 190 91
leaf_count=64 44 61 44 73 34 50 20 22 21 21 28 37 20 26 41 29 33 32 32 25 21 38 3840 26 32 212 34 144 190 91
