tree
version=v4
num_class=1
num_tree_per_iteration=1
label_index=0
max_feature_idx=13
objective=regression
feature_names=return_1m return_3m return_6m return_12m gk_vol rsi atr_norm bb_width macd_hist beta_mkt beta_smb beta_hml beta_rmw beta_cma
feature_infos=[-0.35114499927468112:0.8775622219761785] [-0.47586115476962521:1.5143608588145518] [-0.60000001971419736:2.5595929307783547] [-0.74078175299330717:9.3040887892940951] [0.023058751526549924:1.1316799918662825] [12.40459927206976:91.241331389374494] [0.0025217200452033362:0.1362759684892407] [0.0034574005928057813:0.95867447668704697] [-50.970636369462483:30.659754722103969] [-0.73900011435087865:4.6700895993413498] [-2.8327517109896365:3.7139857584561002] [-3.7600657647965097:4.494250895518654] [-3.9184841523279954:4.1680528979531388] [-4.6814914134625987:3.429771012004224]
tree_sizes=2749 2905 2904 2915 2918 2896 2903 2901 2881 2898 2900 2917 2904 2918 2922 2920 2923 2897 2926 2908 2903 2916 2905 2916 2912 2889 2924 2896 2897 2925 2913 2908 2894 2900 2899 2900 2943 2919 2901 2876 2894 2892 2909 2938 2918 2874 2891 2907 2899 2879 2889 2900 2900 2879 2906 2892 2901 2894 2887 2905 2923 2892 2907 2910 2885 2908 2926 2874 2905 2890 2883 2901 2854 2900 2899 2906 2902 2903 2908 2897 2891 2889 2884 2877 2888 2899 2899 2887 2926 2877 2903 2884 2907 2895 2925 2893 2877 2875 2867 2886 2910 2915 2883 2869 2902 2893 2869 2886 2886 2894 2890 2870 2929 2911 2877 2891 2875 2864 2918 2905 2901 2899 2899 2877 2894 2892 2921 2894 2908 2894 2895 2877 2879 2907 2867 2888 2890 2902 2878 2883 2880 2885 2888 2916 2914 2884 2887 2911 2880 2889 2882 2897 2888 2893 2905 2888 2862 2895 2896 2894 2897 2873 2890 2898 2890 2908 2877 2870 2901 2895 2886 2878 2895 2894 2900 2908 2904 2875 2924 2900 2908 2874 2891 2890 2900 2890 2864 2900 2897 2898 2918 2920 2878 2902 2888 2893 2902 2922 2885 2894

Tree=0
num_leaves=31
num_cat=0
split_feature=3 9 0 4 3 8 8 5 6 4 9 2 0 8 9 9 2 4 13 3 3 3 2 3 7 3 9 11 3 6
split_gain=2.74769 1.81082 1.29057 1.53243 1.09422 1.0737 0.830253 0.77663 0.739737 1.31363 0.76315 0.709176 0.739824 0.682732 0.709473 1.00726 0.780718 0.648813 0.612268 0.975521 0.60055 0.583918 0.654981 0.70723 0.574087 0.573446 0.672646 0.684493 0.946588 0.768689
threshold=2.0538044184530024 0.30627220059920141 0.010187951837070332 0.54501576359080517 -0.12359113050416286 -1.5257595618035822 0.48262369784638115 58.749232067922698 0.026039675743216077 0.37178641668608353 0.85348676853877692 -0.01731764991743184 0.04960259798769729 -1.3799213856286483 0.41166542570517478 0.42925233387414091 -0.099060143680110277 0.18886958899575126 -0.95778192312727783 0.75698238441040977 -0.10295499753262953 0.51405825905843094 -0.0023243687781416829 -0.087072899195898987 0.24984874747518351 -0.18568836577247907 1.2703657944663143 0.44354220963796581 0.29885506940401957 0.028149252622443884
decision_type=2 2 2 2 2 2 2 2 2 2 2 2 2 2 2 2 2 2 2 2 2 2 2 2 2 2 2 2 2 2
left_child=1 4 3 7 -1 -6 -5 13 20 10 -10 -7 -13 17 16 -16 -15 -3 -17 25 -4 22 23 -19 -2 -20 -27 28 -28 -29
right_child=24 2 8 6 5 11 -8 -9 9 -11 -12 12 -14 14 15 18 -18 21 19 -21 -22 -23 -24 -25 -26 26 27 29 -30 -31
leaf_value=0.49467825042058855 0.50995043177860022 0.50475830411100286 0.50026465074999715 0.50432984987122487 0.4924657189000477 0.50806679201457983 0.51700322788010544 0.49704423066523562 0.50338367753706559 0.5024892436038455 0.50799772332786131 0.49858687218471603 0.50551157999865259 0.51624774695610798 0.49165680762500669 0.50543431493712943 0.50468340065541117 0.49652053928239437 0.50004503587273275 0.51086746574582964 0.5039551597563664 0.50435498700819736 0.49648510120082584 0.5047961761345503 0.52165504815611141 0.50348821660939302 0.50140817263780479 0.50150820383328776 0.49466989489105606 0.51003231096671686
leaf_weight=83 20 79 118 24 30 46 28 64 115 237 406 108 60 20 20 217 54 42 218 35 1675 55 146 67 22 1004 196 87 71 38
leaf_count=83 20 79 118 24 30 46 28 64 115 237 406 108 60 20 20 217 54 42 218 35 1675 55 146 67 22 1004 196 87 71 38
internal_value=0.503343 0.503242 0.503478 0.502662 0.499637 0.501324 0.511154 0.502479 0.504266 0.505575 0.506979 0.502566 0.50106 0.502627 0.503006 0.502818 0.507809 0.500713 0.502938 0.502609 0.503712 0.499682 0.498675 0.501607 0.516081 0.50243 0.502802 0.501046 0.499616 0.5041
internal_weight=5385 5343 5016 2465 327 244 52 2413 2551 758 521 214 168 2349 1960 1886 74 389 1866 1649 1793 310 255 109 42 1614 1396 392 267 125
internal_count=5385 5343 5016 2465 327 244 52 2413 2551 758 521 214 168 2349 1960 1886 74 389 1866 1649 1793 310 255 109 42 1614 1396 392 267 125
is_linear=0
shrinkage=1


Tree=1
num_leaves=31
num_cat=0
split_feature=4 0 7 4 5 8 6 12 4 12 13 1 8 1 5 7 2 13 6 11 6 8 11 6 13 6 13 11 1 12
split_gain=1.92367 1.74326 0.92859 0.9318 0.891095 0.75743 0.75294 0.688771 2.12817 0.862317 0.748803 0.67873 0.632753 0.791453 0.849911 0.945414 0.901403 0.82395 0.734204 0.692444 0.658616 0.61541 0.776227 0.626161 0.930188 0.896225 0.995182 1.21875 0.664082 0.626557
threshold=0.54501576359080517 0.010187951837070332 0.33623268013627022 0.4508013726037241 58.749232067922698 -2.5538356761230676 0.026183022349988212 -0.44843931168062717 0.47378398821168094 0.39646189179440688 -1.1822742125975259 -0.12037576275519039 0.17096811263858538 -0.018520058449849826 59.053895237233803 0.17624735972031072 -0.15320794388466272 0.43841827360786745 0.028055429905753108 -1.5888553446506277 0.030827897444112757 -1.0356286338267409 -0.078028007547434511 0.032072773130794888 0.5221765510499653 0.036324078767927509 0.79773243814594252 0.29722009197506777 -0.10422681018428791 -0.99022851365079612
decision_type=2 2 2 2 2 2 2 2 2 2 2 2 2 2 2 2 2 2 2 2 2 2 2 2 2 2 2 2 2 2
left_child=1 4 3 6 5 11 -3 8 21 10 -9 -1 19 14 15 16 -14 18 -15 -8 -19 22 -7 24 29 -25 27 -27 -26 -23
right_child=-2 2 -4 -5 -6 7 12 9 -10 -11 -12 -13 13 17 -16 -17 -18 20 -20 -21 -22 23 -24 25 28 26 -28 -29 -30 -31
leaf_value=0.0015373083053503273 0.0067013854387429697 0.00023776523016033699 0.0064459410366336156 -0.0061495940443128351 -0.0065788467345811747 -0.011821977533400059 -0.0043625220501174533 0.0057007481736746583 0.0095229225283538985 -0.0014195885089022574 0.00043735053880195003 -0.0056269744262640638 -0.0027152356225997212 0.0068888061316456743 0.012159169701716075 -0.0070618281987580387 0.010273677428417347 -0.0092748313470808579 -0.00086960827720453267 0.004470239531210795 0.00019860620086546989 -0.0045656680035395455 -0.0027023729377625779 0.0053080305790839102 -0.013388631468819035 -0.010387162889607927 0.0070424879807978874 0.0044987794456574194 -0.0046171941112359647 0.00068785881473073618
leaf_weight=43 105 1899 70 50 71 40 24 73 37 754 909 143 22 41 26 22 34 43 119 294 32 99 56 60 31 44 20 20 71 133
leaf_count=43 105 1899 70 50 71 40 24 73 37 754 909 143 22 41 26 22 34 43 119 294 32 99 56 60 31 44 20 20 71 133
internal_value=5.14916e-11 -0.000133266 0.000762947 0.000610295 -0.00105426 -0.000899405 0.000742531 -0.000656003 -0.0020998 -0.000147848 0.000828621 -0.00397072 0.00220151 0.000698653 0.00433027 0.00172064 0.00517089 -0.000908531 0.00111849 0.00380362 -0.00523283 -0.002849 -0.00650221 -0.0021153 -0.00330355 0.000640778 -0.00269297 -0.00573531 -0.00728302 -0.00155395
internal_weight=5385 5280 2676 2606 2604 2533 2556 2347 611 1736 982 186 657 339 104 78 56 235 160 318 75 574 96 478 334 144 84 64 102 232
internal_count=5385 5280 2676 2606 2604 2533 2556 2347 611 1736 982 186 657 339 104 78 56 235 160 318 75 574 96 478 334 144 84 64 102 232
is_linear=0
shrinkage=0.05


Tree=2
num_leaves=31
num_cat=0
split_feature=3 9 10 3 0 4 1 1 5 12 0 3 0 2 11 3 0 10 1 0 2 7 5 5 12 10 1 1 4 4
split_gain=2.4 1.61741 1.0572 0.994983 0.990691 1.36494 1.10253 0.897383 1.07416 0.733142 0.753046 0.65945 0.645744 0.836781 0.633924 0.622364 0.701676 0.677464 0.731558 1.05641 0.959262 0.626994 0.610145 0.917001 0.612857 0.603558 0.623933 0.809164 0.5937 0.605985
threshold=2.0538044184530024 0.30627220059920141 1.0139436722650064 -0.067236405112016381 0.12997218983307093 0.54501576359080517 0.11661804521439335 0.10565178686922984 39.248026339326437 -0.73498054763137277 0.076804364137067052 -0.11577572612588564 0.082671853796776454 -0.01731764991743184 -0.28786979712594429 0.75698238441040977 -0.03034000384660351 -0.62783826580521007 -0.13023639795998634 -0.016122686645704706 -0.3220737432993121 0.20195066621268426 63.182146177221121 70.220791363095998 0.22110074442363281 -0.19557548039857209 -0.045586078741501994 -0.023254324286847258 0.27671082831091048 0.22328565230375391
decision_type=2 2 2 2 2 2 2 2 2 2 2 2 2 2 2 2 2 2 2 2 2 2 2 2 2 2 2 2 2 2
left_child=1 3 4 -1 5 15 -6 8 -4 -10 28 -9 13 -5 -7 17 -17 -3 20 21 -19 -20 -8 24 -24 26 -21 -28 29 -11
right_child=-2 2 7 12 6 14 22 11 9 10 -12 -13 -14 -15 -16 16 -18 18 19 25 -22 -23 23 -25 -26 -27 27 -29 -30 -31
leaf_value=-0.0074831692882998029 0.011905580572783948 -0.001511314010244221 -0.0061756805338732462 0.003855438406677231 0.0066604822366053574 0.014296030911551181 0.0072782534767280929 0.00088178882918631043 -0.00685882194666192 0.0030962451804606691 0.009635500988612572 -0.0085546343146110492 0.0046399258556110521 -0.0044623841924083139 0.0033403133703095301 0.0085614194048614038 0.0012253624070787206 -0.0057618681284965891 -0.0010920825890838209 0.0061232100191869233 0.0031996491276896351 -0.006176282464920615 -0.0070110301113314125 0.0023917238672952843 0.0023539026528596879 -2.3659291275014934e-06 -0.0065583370408163442 0.0017625574992009892 0.0038049245013526698 -0.0080563818778971157
leaf_weight=106 42 726 68 38 123 23 33 24 24 21 30 81 35 148 31 41 159 33 904 76 314 65 58 146 25 1375 31 508 68 29
leaf_count=106 42 726 68 38 123 23 33 24 24 21 30 81 35 148 31 41 159 33 904 76 314 65 58 146 25 1375 31 508 68 29
internal_value=6.44181e-11 -9.35868e-05 0.000128531 -0.00350075 0.000325807 0.000107565 0.00275538 -0.00254242 -0.000855717 0.00124752 0.00256207 -0.00639774 -0.00159063 -0.00276304 0.00800664 6.77353e-06 0.00272925 -0.00012827 0.000175447 -7.92563e-05 0.0023474 -0.00143313 0.000922068 6.11137e-06 -0.00419027 0.000579991 0.00188201 0.00128399 0.000763737 -0.00337228
internal_weight=5385 5343 5016 327 4671 4286 385 345 240 172 148 105 221 186 54 4232 200 4032 3306 2959 347 969 262 229 83 1990 615 539 118 50
internal_count=5385 5343 5016 327 4671 4286 385 345 240 172 148 105 221 186 54 4232 200 4032 3306 2959 347 969 262 229 83 1990 615 539 118 50
is_linear=0
shrinkage=0.05


Tree=3
num_leaves=31
num_cat=0
split_feature=9 0 9 7 6 10 11 9 0 9 1 8 1 2 6 6 1 13 6 5 6 8 8 1 9 6 10 9 11 9
split_gain=1.60177 1.11101 1.17407 1.19738 0.991543 1.09056 0.841721 0.811937 1.04224 0.764471 0.712099 0.978756 0.788059 0.667543 1.02752 0.629938 0.865921 0.628972 0.661614 0.607335 0.604801 0.581698 0.770234 0.983871 0.581184 0.571248 0.845701 0.621065 0.743456 0.56202
threshold=0.30627220059920141 0.010187951837070332 1.5287860900185581 0.33623268013627022 0.057836304384208288 1.2198705066649549 -1.3620740339244644 1.2843829228826862 -0.078504287782572832 1.4570787508457628 -0.12378800689013973 -2.5538356761230676 0.071372613209857452 -0.3220737432993121 0.048334027903650573 0.045230838717669843 -0.02143590869974615 0.42228674116765352 0.019117664885206477 58.749232067922698 0.027139421365954961 0.015541472426768789 0.71969799920906274 0.2809550748208976 1.7368351921942906 0.023271436981382777 -0.060551368301586479 0.73037189310926631 -0.74342805119222066 1.4707714047967084
decision_type=2 2 2 2 2 2 2 2 2 2 2 2 2 2 2 2 2 2 2 2 2 2 2 2 2 2 2 2 2 2
left_child=17 4 15 6 5 10 -4 8 -7 -6 13 12 -12 14 -2 21 -17 -1 -19 -13 24 25 23 29 -8 -3 -27 -28 -29 -23
right_child=1 2 3 -5 9 7 20 -9 -10 -11 11 19 -14 -15 -16 16 -18 18 -20 -21 -22 22 -24 -25 -26 26 27 28 -30 -31
leaf_value=-0.0014370213482844457 -0.0088599780264000099 0.00069630497135724835 -0.0057723944525009604 0.011603961218721592 -0.00037232477140302462 -0.0076542861368507145 0.0031666447974842147 -0.0091900109582638834 0.0070939717004480573 0.011691468343106581 -0.0083493416210618128 -0.000389004420927219 -0.00040607051836010421 0.0020545667421413443 0.0050569150774251856 0.0023470900277607143 -0.011611137501895429 -0.00081094783898960393 -0.0081114069586619743 -0.0053901465153247709 0.0048309349717611492 -0.00032849933176616868 0.0014255201510277203 -0.008277080525559458 -0.0026511137606576086 0.0064047595725931 -0.0072345398632543429 0.0092808828516690832 -0.00054659793994375576 -0.0075443761090614979
leaf_weight=183 36 463 29 39 24 25 111 64 23 29 76 1667 53 396 21 20 25 45 100 63 217 744 543 44 70 132 21 27 67 28
leaf_count=183 36 463 29 39 24 25 111 64 23 29 76 1667 53 396 21 20 25 45 100 63 217 744 543 44 70 132 21 27 67 28
internal_value=-2.95362e-11 0.000219618 0.000945785 0.00321757 -0.000536745 -0.000684667 0.0024516 -0.00550318 -0.000587413 0.00622862 -0.000451244 -0.000884412 -0.00508583 0.00132637 -0.0037327 0.000445003 -0.00540748 -0.003386 -0.00584575 -0.000571127 0.00305084 0.000572293 -3.36866e-05 -0.0010047 0.000916683 0.00173219 0.00367395 0.000539447 0.00227619 -0.000590215
internal_weight=5385 5057 2580 466 2477 2424 427 112 48 53 2312 1859 129 453 57 2114 45 328 145 1730 398 2069 1359 816 181 710 247 115 94 772
internal_count=5385 5057 2580 466 2477 2424 427 112 48 53 2312 1859 129 453 57 2114 45 328 145 1730 398 2069 1359 816 181 710 247 115 94 772
is_linear=0
shrinkage=0.05


Tree=4
num_leaves=31
num_cat=0
split_feature=3 9 10 3 0 4 1 1 5 12 0 13 2 0 2 3 11 3 13 0 10 13 0 0 9 1 0 2 13 4
split_gain=2.07342 1.3124 0.891043 0.86978 0.850346 1.17574 0.998736 0.810415 0.92799 0.647935 0.661706 1.10875 0.932115 0.586093 0.750846 0.581042 0.563281 0.54454 0.800727 0.676248 0.620846 0.63192 0.769407 0.636473 0.629304 0.615324 0.906321 0.81451 0.659971 0.927816
threshold=2.0538044184530024 0.30627220059920141 1.0139436722650064 -0.067236405112016381 0.12997218983307093 0.54501576359080517 0.091357627956865875 0.10565178686922984 39.248026339326437 -0.73498054763137277 0.076804364137067052 -0.89279709046794509 -0.027334374294709248 0.082671853796776454 -0.01731764991743184 -0.11577572612588564 -0.28786979712594429 0.75698238441040977 -1.4062928638520298 -0.03034000384660351 -0.62783826580521007 -0.81847500620359037 0.089841854787224187 -0.040101626849512455 0.93714165605205146 -0.13023639795998634 -0.020380888405734484 -0.22717157833843574 0.12219301353400837 0.3300806520059571
decision_type=2 2 2 2 2 2 2 2 2 2 2 2 2 2 2 2 2 2 2 2 2 2 2 2 2 2 2 2 2 2
left_child=1 3 4 -1 5 17 -6 8 -4 -10 11 -11 -13 14 -5 -9 -7 20 -19 -20 21 23 -23 24 -3 27 -27 -22 29 -28
right_child=-2 2 7 13 6 16 -8 15 9 10 -12 12 -14 -15 -16 -17 -18 18 19 -21 25 22 -24 -25 -26 26 28 -29 -30 -31
leaf_value=-0.006879549869343052 0.011065962933935226 -0.0011797450884478168 -0.0056808715794057427 0.0037822674138863624 0.0068443163257325065 0.013351825547769017 0.0010366271015893865 0.00083033408930835635 -0.0064019307232229044 0.01149746907874942 0.0090851857451101151 0.0022139293423000103 -0.0079629226135356085 0.0045655941151614698 -0.0040968824708142093 -0.0080273532394871672 0.0030245727619096158 -0.0060223319451324642 0.0096196125690384132 0.0020869568186015755 -0.0020329005215062772 -0.002837779791806252 0.0042848298030837275 -0.0007745954551004855 0.010126328852493316 -0.0014016975428613658 0.0019259983551281449 0.0035561310886763615 -0.00028749663863120184 -0.0046630960051787266
leaf_weight=106 42 20 68 38 100 23 285 24 24 20 30 63 35 35 148 81 31 24 38 138 87 504 41 129 32 893 852 260 1157 57
leaf_count=106 42 20 68 38 100 23 285 24 24 20 30 63 35 35 148 81 31 24 38 138 87 504 41 129 32 893 852 260 1157 57
internal_value=2.46533e-11 -8.69868e-05 0.000113094 -0.00315611 0.000294205 9.20115e-05 0.00254512 -0.00233899 -0.000736106 0.0012188 0.0024546 0.000768853 -0.00142066 -0.00137021 -0.00248716 -0.00600274 0.00742322 -1.53414e-06 0.00254505 0.00371333 -0.000127853 -0.00145184 -0.00230195 0.00110787 0.00577784 0.000162897 -7.0698e-05 0.00215485 0.000504608 0.00151282
internal_weight=5385 5343 5016 327 4671 4286 385 345 240 172 148 118 98 221 186 105 54 4232 200 176 4032 726 545 181 52 3306 2959 347 2066 909
internal_count=5385 5343 5016 327 4671 4286 385 345 240 172 148 118 98 221 186 105 54 4232 200 176 4032 726 545 181 52 3306 2959 347 2066 909
is_linear=0
shrinkage=0.05


Tree=5
num_leaves=31
num_cat=0
split_feature=3 0 4 10 3 8 5 8 5 3 4 7 12 6 7 5 8 1 13 3 6 13 8 12 12 8 13 12 8 6
split_gain=1.87127 0.985584 1.04301 0.829545 0.850577 0.760361 0.722059 0.624461 0.621992 0.618465 0.573679 0.555015 0.985539 0.595045 0.734099 0.727636 1.12635 0.596603 1.18912 0.625158 0.592021 0.798117 0.57891 0.566193 0.52435 0.502153 0.606411 0.493761 0.489524 0.819997
threshold=2.0538044184530024 0.010187951837070332 0.54501576359080517 1.2198705066649549 0.33183179974497407 0.48262369784638115 58.749232067922698 -2.1992346866156347 39.248026339326437 0.0072903109401447628 0.28790282198381761 0.09137575855640892 -1.2451595201520418 0.04284618277325699 0.32038246713758384 58.749232067922698 -0.23519207415554064 0.34351385660298878 0.31028399739326823 -0.34453054701604124 0.033588608787104006 -0.91651580278189237 -0.089651294031098686 -0.2192202792755826 0.1798512280492118 1.4205072621707109 0.94965596965719123 0.16078396793815 0.010772892742699105 0.026303818122185716
decision_type=2 2 2 2 2 2 2 2 2 2 2 2 2 2 2 2 2 2 2 2 2 2 2 2 2 2 2 2 2 2
left_child=1 2 3 6 8 -4 7 24 -5 -9 -10 12 -3 14 17 16 -15 19 23 -13 -21 22 -22 -19 -1 26 -23 -8 29 -14
right_child=-2 11 5 4 -6 -7 27 9 10 -11 -12 13 28 15 -16 -17 -18 18 -20 20 21 25 -24 -25 -26 -27 -28 -29 -30 -31
leaf_value=-0.004814547558418928 0.010512664791886416 0.0076166088944552724 -0.00016153191030025482 -0.0077345769180101349 -0.013335350182508896 0.01183536481444857 -0.0019689179631547093 -0.0013424772100603887 -0.0064577370704639522 0.00038307667998043767 0.0037047189404824524 -0.0065330306650139393 4.8556640164716315e-05 -0.0063359195133671168 0.0074748917584656739 -0.0076380689810143735 0.0049888568223212604 -0.0032644222863018515 -0.0086071605212055154 0.0012580549354913729 0.0059234321303665641 0.01225298660277736 -0.0051341369812344688 0.0059242825789720217 0.00018954272209494204 0.0005193831610747359 0.0028703040085159819 -0.01042296048403988 -0.0017446850887123588 0.0099749799521470627
leaf_weight=148 42 37 25 40 24 28 39 859 21 1313 41 24 383 37 48 41 54 30 45 1280 20 51 29 38 81 22 26 31 506 22
leaf_count=148 42 37 25 40 24 28 39 859 21 1313 41 24 383 37 48 41 54 30 45 1280 20 51 29 38 81 22 26 31 506 22
internal_value=1.039e-11 -8.26374e-05 -0.00076721 -0.000908917 -0.00486627 0.00617645 -0.000707126 -0.000561186 -0.00287355 -0.000299359 0.000262597 0.000591004 -0.000382858 0.00112007 0.0013842 -0.00210751 0.000384277 0.00119739 -0.00230205 0.00146973 0.00160423 0.00459821 -0.000620843 0.00187044 -0.00304454 0.00718138 0.00908481 -0.00571285 -0.000707754 0.00058777
internal_weight=5385 5343 2650 2597 126 53 2471 2401 102 2172 62 2693 948 1745 1613 132 91 1565 113 1452 1428 148 49 68 229 99 77 70 911 405
internal_count=5385 5343 2650 2597 126 53 2471 2401 102 2172 62 2693 948 1745 1613 132 91 1565 113 1452 1428 148 49 68 229 99 77 70 911 405
is_linear=0
shrinkage=0.05


Tree=6
num_leaves=31
num_cat=0
split_feature=3 9 3 8 10 0 1 1 8 8 5 9 8 5 6 1 6 0 10 6 3 12 1 9 3 11 13 5 0 12
split_gain=1.73323 1.1008 0.790844 0.949425 0.750524 0.754783 0.895924 0.723533 0.876804 0.673503 0.793589 0.621179 0.687258 0.57997 0.578605 0.573412 0.855525 0.962904 0.94898 0.746631 0.741759 0.587631 0.567704 1.33252 0.563653 0.776086 0.5306 0.844139 0.682896 0.83707
threshold=1.7630277552099098 0.30627220059920141 -0.12359113050416286 -1.5257595618035822 1.0139436722650064 0.12610757101279238 0.091357627956865875 0.10565178686922984 -0.76491562115494183 -0.49369350502215464 44.911311632306429 1.0480145943726027 0.36126149619288606 77.067767702397717 0.034376987904006361 -0.13023639795998634 0.050384582979499722 -0.17851481535356198 -0.23618754843152792 0.027019499806291255 0.043263589194909809 0.15261132751665005 0.18505158171314132 1.4570787508457628 -0.19098339077004303 0.85079491809629371 0.41513321049667223 66.125427411504219 0.020807768903482463 -0.45786823119964842
decision_type=2 2 2 2 2 2 2 2 2 2 2 2 2 2 2 2 2 2 2 2 2 2 2 2 2 2 2 2 2 2
left_child=1 2 -1 -4 5 15 -7 8 -6 -10 -11 12 -12 -8 -5 16 18 -18 24 21 26 -20 -9 -24 25 -3 27 28 29 -17
right_child=-2 4 3 14 7 6 13 22 9 10 11 -13 -14 -15 -16 20 17 -19 19 -21 -22 -23 23 -25 -26 -27 -28 -29 -30 -31
leaf_value=-0.0071264395972781159 0.0082446552206954307 -0.010483240477208581 -0.0098011254511463156 -0.0011393774485389263 -0.008645338493709763 0.0063314003398493067 -0.00022869989058419473 -0.0096321993449237208 0.0092203166335821148 -0.0048042212154215842 0.00074915033157752907 -0.00069277056292453901 0.013259877701334299 0.0053331618627037074 0.0077948566246777776 -0.0052596265537431467 0.00061720444355160007 0.015099035358677307 0.011700066542252899 0.00091445213153717975 0.00031078440454105515 0.0034692142841920848 -0.0083130494784563781 0.0073905536904931074 0.00017973106119811066 0.0011905372841283679 -0.0024844964909111907 -0.0083436790853738795 0.002481131126257299 0.00014273016976837358
leaf_weight=83 63 35 30 193 30 104 228 48 20 67 23 79 21 59 20 92 22 24 35 155 2651 57 35 22 127 24 478 31 204 325
leaf_count=83 63 35 30 193 30 104 228 48 20 67 23 79 21 59 20 92 22 24 35 155 2651 57 35 22 127 24 478 31 204 325
internal_value=-6.86075e-12 -9.75974e-05 -0.00291267 -0.0014734 8.60924e-05 0.000253001 0.00235544 -0.00216402 -0.00064949 0.000492774 -0.000425915 0.00195902 0.00672018 0.000914679 -0.000300482 6.00298e-05 0.00168983 0.00817294 0.00100109 0.00303234 -0.000146443 0.00660052 -0.00562581 -0.00225201 -0.00169632 -0.00573459 -0.00121911 -0.000291414 0.000110551 -0.00104916
internal_weight=5385 5322 326 243 4996 4651 391 345 240 210 190 123 44 287 213 4260 479 46 433 247 3781 92 105 57 186 59 1130 652 621 417
internal_count=5385 5322 326 243 4996 4651 391 345 240 210 190 123 44 287 213 4260 479 46 433 247 3781 92 105 57 186 59 1130 652 621 417
is_linear=0
shrinkage=0.05


Tree=7
num_leaves=31
num_cat=0
split_feature=9 0 9 7 6 10 9 0 9 6 1 1 8 1 2 6 8 13 0 5 10 1 8 12 8 6 8 7 12 6
split_gain=1.16939 0.789045 0.951392 0.978058 0.770146 0.79451 0.67033 0.862469 0.630314 0.555797 0.716663 0.544577 0.834711 0.700127 0.561299 0.875678 0.538756 0.694762 0.553812 0.635803 0.876315 0.76094 0.63797 0.530191 0.738364 1.29259 0.606995 0.764803 0.743483 0.60443
threshold=0.30627220059920141 0.010187951837070332 1.5287860900185581 0.33623268013627022 0.057836304384208288 1.2198705066649549 1.2843829228826862 -0.078504287782572832 1.4570787508457628 0.045230838717669843 -0.02143590869974615 -0.12378800689013973 -2.5538356761230676 0.071372613209857452 -0.3220737432993121 0.048334027903650573 1.4715156072992832 1.7300407634985635 0.14951538714406334 64.088716499835201 -0.51148265162430373 0.2020182278101024 0.75241437373950737 -0.45786823119964842 -1.0356286338267409 0.032072773130794888 -0.3611529131722151 0.17454536780852206 -0.064069971251766888 0.036931289677920476
decision_type=2 2 2 2 2 2 2 2 2 2 2 2 2 2 2 2 2 2 2 2 2 2 2 2 2 2 2 2 2 2
left_child=-1 4 9 16 5 11 7 -7 -6 -3 -11 14 13 -13 15 -2 17 18 19 21 -21 22 -4 24 -14 -26 27 -25 -28 -27
right_child=1 2 3 -5 8 6 -8 -9 -10 10 -12 12 23 -15 -16 -17 -18 -19 -20 20 -22 -23 -24 26 25 29 28 -29 -30 -31
leaf_value=-0.0028931250555083022 -0.0081987043131246332 0.00046838417841714496 0.00050201269914396107 0.010424153399295533 -0.00048117557016666982 -0.0066549390209838747 -0.0080428686895174916 0.0067612245759886246 0.010473051111631354 0.0019061813782900571 -0.010792214264627547 -0.0077157116182589615 -0.0064639639455555502 -0.000228699277822842 0.0018413671088784774 0.0046488021810849513 -0.0026170546215815611 -0.0044845597818493847 0.0072819977551950403 -0.010338607581243629 0.0021707794739909115 0.0085978630303951177 0.0097192192767662083 0.0020541587635455141 -0.0027569831892009129 0.0087781366563285702 0.001927107354347226 -0.0041381931863725191 -0.0016888975104680797 0.00041587610352546611
leaf_weight=328 36 2069 128 39 24 25 64 23 29 20 25 76 76 53 396 21 52 30 74 21 42 58 22 455 267 40 186 56 603 47
leaf_count=328 36 2069 128 39 24 25 64 23 29 20 25 76 76 53 396 21 52 30 74 21 42 58 22 455 267 40 186 56 603 47
internal_value=-1.34623e-11 0.00018765 0.000799616 0.00284465 -0.000449764 -0.00058013 -0.00469294 -0.000226361 0.00551265 0.00034882 -0.00514848 -0.000380894 -0.000759698 -0.00463965 0.00117363 -0.00346541 0.00215237 0.00281373 0.00344837 0.00240154 -0.00199902 0.00373441 0.00185387 -0.000470384 -0.00199234 -0.00103232 3.30309e-05 0.00137554 -0.000836455 0.00426059
internal_weight=5385 5057 2580 466 2477 2424 112 48 53 2114 45 2312 1859 129 453 57 427 375 345 271 63 208 150 1730 430 354 1300 511 789 87
internal_count=5385 5057 2580 466 2477 2424 112 48 53 2114 45 2312 1859 129 453 57 427 375 345 271 63 208 150 1730 430 354 1300 511 789 87
is_linear=0
shrinkage=0.05


Tree=8
num_leaves=31
num_cat=0
split_feature=4 9 0 11 6 10 0 4 0 1 5 9 8 9 5 10 1 6 9 4 5 1 5 4 13 8 11 2 1 1
split_gain=1.08919 0.979022 0.838991 0.66507 0.752726 0.655908 0.629541 0.606012 0.536763 0.506101 0.495392 0.97822 0.493668 0.820141 0.464115 0.462046 0.634891 0.525482 0.810202 0.753883 0.645214 0.607646 0.601637 0.737912 0.844718 0.745483 0.704174 0.534746 0.52517 0.429993
threshold=0.54501576359080517 0.31917741731022098 0.010187951837070332 1.1753978872516317 0.019117664885206477 1.2198705066649549 0.23710624144508921 0.27671082831091048 0.04960259798769729 0.045386111291146565 39.819756798225626 1.2843829228826862 0.48262369784638115 1.5460596950988768 59.314799150370945 1.4175507016348059 0.0062765781086653325 0.026039675743216077 0.72485589348897417 0.27325447466152381 58.437628441683962 0.23332868351536321 71.642788547200936 0.3262365536776976 -0.053266204902479401 0.73486245678532891 -0.31473005896753675 0.059922159454758435 0.29317373030230692 0.27451315396052339
decision_type=2 2 2 2 2 2 2 2 2 2 2 2 2 2 2 2 2 2 2 2 2 2 2 2 2 2 2 2 2 2
left_child=1 3 5 4 8 14 15 -7 9 -1 -9 -12 13 -2 -3 17 -17 27 19 -19 21 -20 23 26 28 -26 -22 -4 -25 -28
right_child=12 2 6 -5 -6 7 -8 10 -10 -11 11 -13 -14 -15 -16 16 -18 18 20 -21 22 -23 -24 24 25 -27 29 -29 -30 -31
leaf_value=0.00094564975292052867 -0.0054913867022032331 -0.00029184501571403337 -0.00098118149198362032 0.004457994373515249 -0.005018069991343764 -0.0098538994008456095 0.0051112390471080059 -0.0064854199891643876 0.0065487428642809391 -0.0075711747085174114 0.0091294258090783842 -0.0050740009070270597 0.0083114269272085619 0.0073571416307930603 -0.005115611007090147 0.0023151240233952801 -0.0083728301233019341 0.0052057157969102267 0.0033831906831716958 -0.006217059737089305 -0.0034456727969636386 0.010500818575211965 0.0088820989288034887 -0.011412413827510494 -0.0041111393676837912 0.0086676043303062517 0.0064003380363226517 0.0008608495033552067 -0.0011444107443094255 -0.0015257966858123176
leaf_weight=53 23 2240 592 30 215 34 79 35 25 26 22 27 55 27 51 24 33 20 254 52 37 34 21 33 25 21 77 1178 20 22
leaf_count=53 23 2240 592 30 215 34 79 35 25 26 22 27 55 27 51 24 33 20 254 52 37 34 21 33 25 21 77 1178 20 22
internal_value=-6.97964e-12 -0.000100278 8.08534e-05 -0.00265948 -0.00332883 -0.000586468 0.000718275 -0.0042218 0.000163341 -0.00185736 -0.00194215 0.00130305 0.00504257 0.00144682 -0.000399227 0.000576219 -0.00387264 0.000682499 0.00194029 -0.00304407 0.00259999 0.00422347 0.000773578 4.8987e-05 -0.00323492 0.00172263 0.00243948 0.000244758 -0.0075377 0.00463897
internal_weight=5385 5280 4931 349 319 2409 2522 118 104 79 84 49 105 50 2291 2443 57 2386 616 72 544 288 256 235 99 46 136 1770 53 99
internal_count=5385 5280 4931 349 319 2409 2522 118 104 79 84 49 105 50 2291 2443 57 2386 616 72 544 288 256 235 99 46 136 1770 53 99
is_linear=0
shrinkage=0.05


Tree=9
num_leaves=31
num_cat=0
split_feature=3 9 3 8 10 3 9 1 9 13 3 1 8 4 5 8 12 7 2 9 5 5 10 5 12 10 8 1 2 8
split_gain=1.40938 0.853885 0.6081 0.632463 0.60691 0.665952 0.823575 0.955446 0.710865 0.579824 0.559348 0.778404 0.702626 0.782473 0.583493 0.586632 0.627734 0.917159 1.17342 0.844976 0.688453 0.596929 0.566755 0.566235 0.547222 0.767714 0.943063 0.76833 1.07728 0.648611
threshold=2.0538044184530024 0.31917741731022098 -0.083551655138106459 -1.7982490358777008 1.0139436722650064 -0.032926980390997888 1.1659904317276133 0.12411169341244112 1.3793029526520606 0.32067182997403315 0.36873702603709296 0.35234142847428479 0.62416613745812211 0.513523993261089 76.505133514193645 0.39110512250739565 -0.2993528217609322 0.14598310068051587 0.18059393633261137 1.1845043531263744 65.429404916731798 71.320762903561146 0.10052084730534078 59.432861069216152 -1.8754939758401978 -0.59039169899176247 0.10013874768997756 -0.13023639795998634 -0.3220737432993121 -2.5538356761230676
decision_type=2 2 2 2 2 2 2 2 2 2 2 2 2 2 2 2 2 2 2 2 2 2 2 2 2 2 2 2 2 2
left_child=1 2 9 -4 10 8 7 -7 -6 -1 11 12 24 -14 15 -12 20 19 -19 23 22 -22 -17 -18 -3 26 -26 28 -27 -29
right_child=-2 4 3 -5 5 6 -8 -9 -10 -11 14 -13 13 -15 -16 16 17 18 -20 -21 21 -23 -24 -25 25 27 -28 29 -30 -31
leaf_value=-0.0011301700458196658 0.00912344732399409 0.0043138245441263819 -0.0080361362996286372 -0.00017211420614600046 -0.0025939491297048266 0.0042572218270853484 -0.0069256391312452403 -0.0076881283034498874 0.0039485888108611112 -0.0087389390412417629 0.0016391227701021368 -0.0071900127909765091 0.00099876203356521966 0.0084593504566598584 0.0062660551297961291 0.0021138810554438519 0.0035924602621234952 0.011072486554357139 -0.0026640582785783513 -0.01147231239053171 -0.0073219931315116841 0.0033381887362338605 0.011931564747577623 -0.0061483144130859832 -0.00095103270863763304 -0.0079893687909299693 -0.0059317285914918007 -0.0048437823036013624 0.003607861231177244 -0.0002162358903801324
leaf_weight=42 42 61 29 216 93 47 104 26 75 62 818 38 701 37 54 49 25 22 53 41 29 24 21 37 361 22 129 79 223 1825
leaf_count=42 42 61 29 216 93 47 104 26 75 62 818 38 701 37 54 49 25 22 53 41 29 24 21 37 361 22 129 79 223 1825
internal_value=-6.20774e-12 -7.17172e-05 -0.00246277 -0.00110296 9.53787e-05 -0.001928 -0.00406818 2.71356e-06 0.000326827 -0.00566617 0.000245533 -7.30631e-05 5.60014e-06 0.0013728 0.00118964 0.000944667 -0.00094259 -0.00284068 0.00136533 -0.00590331 0.00180424 -0.00249474 0.00505919 -0.00222058 -0.000368102 -0.000476324 -0.00226228 -6.9103e-05 0.00256648 -0.00040824
internal_weight=5385 5343 349 245 4994 345 177 73 168 104 4649 3476 3438 738 1173 1119 301 178 75 103 123 53 70 62 2700 2639 490 2149 245 1904
internal_count=5385 5343 349 245 4994 345 177 73 168 104 4649 3476 3438 738 1173 1119 301 178 75 103 123 53 70 62 2700 2639 490 2149 245 1904
is_linear=0
shrinkage=0.05


Tree=10
num_leaves=31
num_cat=0
split_feature=3 0 4 8 5 8 13 6 3 0 7 0 3 4 6 3 4 13 4 12 12 12 3 3 5 6 12 10 4 3
split_gain=1.28391 0.660703 0.688182 0.645432 0.615364 0.560335 0.595352 0.600383 0.75405 0.994604 0.512697 0.47971 0.430362 0.678188 0.56022 0.733834 0.703294 0.694734 0.638645 0.585641 0.797697 0.682542 0.581583 0.79398 0.546483 0.498424 0.480656 0.585586 0.546833 0.533897
threshold=1.7630277552099098 0.010187951837070332 0.54501576359080517 0.48262369784638115 58.749232067922698 -1.3799213856286483 0.44687135781445081 0.044642123820050179 -0.25928242172387478 -0.045249172098174299 0.065099202768319986 0.00062526718500743883 -0.26584276087449149 0.33957834499595907 0.026039675743216077 -0.10295499753262953 0.29775818849580105 0.99231589579558255 0.27553647497680112 0.78596893985081506 -0.74654798949407175 -1.4013878341270665 0.56220850790709309 0.77707019438164948 61.19597652045298 0.029693807828748319 0.78596893985081506 0.50859386631838566 0.27426345432089599 0.47007623082089683
decision_type=2 2 2 2 2 2 2 2 2 2 2 2 2 2 2 2 2 2 2 2 2 2 2 2 2 2 2 2 2 2
left_child=1 2 4 -4 5 10 -7 8 9 -8 -1 -6 13 25 15 -14 17 26 -19 20 21 -18 -22 -24 -25 -3 27 28 -16 -30
right_child=-2 12 3 -5 11 6 7 -9 -10 -11 -12 -13 14 -15 16 -17 19 18 -20 -21 22 -23 23 24 -26 -27 -28 -29 29 -31
leaf_value=0.0040370704357822742 0.007095968221787304 -0.0031759805211825582 -0.0009653946307177345 0.010208699278466937 -0.0089667840479523888 0.00035820038865986068 -0.010764501926799615 0.0049190996020721895 -0.0011582327081760423 0.0012311311783613985 -0.0027388551413192793 -0.00068015693837115846 -0.0037191397454268459 -0.0083696069501872569 0.0073725191874009569 0.00038704351373441368 0.0020430515197162728 -0.005651469384867918 0.0052816188470883804 -0.0042451423699068919 0.0044877241070716114 -0.0058813802440379759 -0.0068230894510634245 0.0083555120903138942 -0.0015483630440818767 0.0068271434144116933 0.0099883048366265076 -0.0019206400203984231 0.0047389529611370183 -0.005064817682640361
leaf_weight=30 63 33 24 28 40 1315 48 36 667 27 402 31 116 35 102 1755 49 34 22 57 166 61 32 26 30 20 38 36 41 21
leaf_count=30 63 33 24 28 40 1315 48 36 667 27 402 31 116 35 102 1755 49 34 22 57 166 61 32 26 30 20 38 36 41 21
internal_value=2.27445e-12 -8.39996e-05 -0.000643831 0.00505143 -0.000757912 -0.000628825 -0.000290433 -0.00138677 -0.00169272 -0.00644607 -0.0022683 -0.00534868 0.000470389 -0.00296819 0.000587401 0.000132465 0.00177787 0.00365439 -0.00135633 0.00046743 0.00120539 -0.00235141 0.00274573 -0.0005403 0.00304986 0.000598783 0.00483338 0.00385395 0.00512154 0.00141832
internal_weight=5385 5322 2648 52 2596 2525 2093 778 742 75 432 71 2674 88 2586 1871 715 294 56 421 364 110 254 88 56 53 238 200 164 62
internal_count=5385 5322 2648 52 2596 2525 2093 778 742 75 432 71 2674 88 2586 1871 715 294 56 421 364 110 254 88 56 53 238 200 164 62
is_linear=0
shrinkage=0.05


Tree=11
num_leaves=31
num_cat=0
split_feature=9 2 13 11 6 10 1 8 8 8 10 6 9 9 9 11 1 9 8 10 8 12 7 9 8 13 10 12 11 8
split_gain=0.839001 0.615589 0.961222 0.55707 0.639533 0.539866 0.639843 0.7506 0.587733 0.632951 0.49418 0.437752 0.540926 0.433556 0.829448 0.56971 0.429556 0.772752 0.396251 0.632312 0.48049 0.471079 0.38894 0.555165 0.493602 0.702326 0.653634 0.79172 0.595774 0.49284
threshold=0.31917741731022098 0.76450706139451774 0.9618763891956571 1.1753978872516317 0.019117664885206477 1.0139436722650064 0.10565178686922984 -0.76491562115494183 -0.49369350502215464 0.97346640095163395 0.96526261486299303 0.036687760676876166 1.5068836718663292 1.0828439106112764 1.1350990197006425 1.459947977805728 0.18505158171314132 1.4306867462586113 -2.1992346866156347 0.44959714662234612 -1.9502016676056859 1.0000000180025095e-35 0.090464592610492181 1.7652063394317177 0.075076288704072472 0.83611669671236966 -0.59851232487017414 0.42938965493378445 0.96944184578864612 -0.81503834231995598
decision_type=2 2 2 2 2 2 2 2 2 2 2 2 2 2 2 2 2 2 2 2 2 2 2 2 2 2 2 2 2 2
left_child=3 5 -3 4 -1 10 7 -7 -9 11 13 -10 -13 18 15 -15 -8 -18 19 21 -20 -2 23 24 25 28 -26 -28 -16 -24
right_child=1 2 -4 -5 -6 6 16 8 9 -11 -12 12 -14 14 22 -17 17 -19 20 -21 -22 -23 29 -25 26 -27 27 -29 -30 -31
leaf_value=0.00024343104311041176 -0.0076403340798590269 0.0069319715219977734 -0.0044080444145947698 0.0041477194507994379 -0.0045289240850791062 -0.0078503134520724414 -0.0086253499771070594 0.0087575070559978482 0.00029524412340201117 0.005082247213482164 0.0063246790771231513 -0.0090916437343029049 0.0012162839970551432 0.0044779070043898745 -0.0011357660407957154 -0.0040034272242337465 -0.0072928930986030345 0.005301185644098691 0.0061814108180503055 0.0049371947711777126 -0.00018589762394466658 -0.00091748496439928806 -0.0011186488489914772 -0.0063254541828341422 -0.0081458378487672574 0.0081889366793135802 0.0017810376060163873 -0.007095379289239645 0.0049183076616221427 0.0013095924514942899
leaf_weight=104 57 74 25 30 216 30 48 20 92 43 33 35 20 198 200 22 29 21 30 21 2394 48 261 42 39 30 89 35 51 1048
leaf_count=104 57 74 25 30 216 30 48 20 92 43 33 35 20 198 200 22 29 21 30 21 2394 48 261 42 39 30 89 35 51 1048
internal_value=-1.8173e-12 0.000164548 0.00406833 -0.00236714 -0.00297791 8.62509e-05 -0.00184239 -0.000452258 0.000604607 -0.000253593 0.000228026 -0.00181442 -0.00534331 0.000183954 0.00073211 0.00362977 -0.00524679 -0.00200338 -0.000249198 -0.00298299 -0.000107094 -0.00456703 0.000376965 -0.000830934 -0.000311182 0.000958536 -0.00250008 -0.000724403 9.43446e-05 0.000825428
internal_weight=5385 5035 99 350 320 4936 338 240 210 190 4598 147 55 4565 2015 220 98 50 2550 126 2424 105 1795 486 444 281 163 124 251 1309
internal_count=5385 5035 99 350 320 4936 338 240 210 190 4598 147 55 4565 2015 220 98 50 2550 126 2424 105 1795 486 444 281 163 124 251 1309
is_linear=0
shrinkage=0.05


Tree=12
num_leaves=31
num_cat=0
split_feature=3 0 4 12 12 12 8 13 8 8 6 3 12 7 8 5 12 3 6 2 12 12 7 3 7 12 1 12 13 2
split_gain=1.12894 0.572873 0.676116 1.34281 1.01725 0.612496 0.633824 0.570427 0.596679 0.586027 0.558468 0.512157 0.54165 0.506843 0.526694 0.50395 0.491961 0.503764 0.697752 0.628785 0.805913 0.491659 0.68263 0.563138 0.708245 0.681584 0.833373 0.603273 0.485418 0.465634
threshold=2.0538044184530024 0.010187951837070332 0.47378398821168094 -0.61085153611291354 -0.44843931168062717 0.5144957895359249 -2.7209051883007862 -1.0445267180119162 -0.81503834231995598 0.075076288704072472 0.054341995096421659 0.3807975966062947 0.21246656685956214 0.2463358238436141 -1.0356286338267409 52.954153167044502 -2.2027748406683973 -0.20328325690983637 0.029693807828748319 -0.17707147636018691 -1.4013878341270665 0.63390517949298686 0.19613326982707427 -0.017953628943822016 0.15339435683793776 1.0741492409251887 -0.089643521114268529 0.71728960867399605 1.0317457917146791 -0.14154286653027684
decision_type=2 2 2 2 2 2 2 2 2 2 2 2 2 2 2 2 2 2 2 2 2 2 2 2 2 2 2 2 2 2
left_child=1 2 4 -4 13 6 11 8 -8 -10 -5 12 -6 14 -1 21 -16 18 -18 -19 -21 -7 23 24 25 27 -27 -23 -25 -15
right_child=-2 -3 3 10 5 15 7 -9 9 -11 -12 -13 -14 29 16 -17 17 19 -20 20 -22 22 -24 28 -26 26 -28 -29 -30 -31
leaf_value=-0.0058383561322496334 0.0081654481179568739 0.00044939722442906586 0.008300793187723296 -0.0068934703005417699 -0.0087552990760664112 -0.0038523571761158691 -0.0033485325798392296 0.00042789690704003714 0.0099862158187138655 0.0013294519914779813 0.0025973411284447197 0.0026285363435745238 0.00075060677375983107 -0.0020604690760374069 0.0044159754558845809 -0.0050412563382483582 -0.012962146167858289 0.0053307086146170543 -0.0018553061594796039 -0.0075287234623829143 -0.001323796298682612 0.0031394969292349467 -0.0051305164914515061 0.0014687196497559316 -0.0085423891933654288 0.012242074739187956 -0.00036740034916683253 -0.0068530034739524128 0.0090087543241679675 0.0080388437335689854
leaf_weight=121 42 2693 61 31 47 112 20 1075 46 34 31 25 22 25 27 85 26 28 31 64 287 23 59 193 30 20 38 44 24 21
leaf_count=121 42 2693 61 31 47 112 20 1075 46 34 31 25 22 25 27 85 26 28 31 64 287 23 59 193 30 20 38 44 24 21
internal_value=1.24022e-12 -6.41866e-05 -0.000586104 0.00303389 -0.000762305 -0.000184185 0.000447844 0.000763903 0.00437597 0.00630709 -0.00214806 -0.0035029 -0.00572443 -0.00250309 -0.00290111 -0.00146133 -0.00213349 -0.00253908 -0.00692158 -0.00187997 -0.00245518 -0.000900933 -0.000133974 0.000658489 -0.00164332 1.24525e-05 0.00398069 -0.00342274 0.00230264 0.00255009
internal_weight=5385 5343 2650 123 2527 1897 1269 1175 100 80 62 94 69 630 584 628 463 436 57 379 351 543 431 372 155 125 58 67 217 46
internal_count=5385 5343 2650 123 2527 1897 1269 1175 100 80 62 94 69 630 584 628 463 436 57 379 351 543 431 372 155 125 58 67 217 46
is_linear=0
shrinkage=0.05


Tree=13
num_leaves=31
num_cat=0
split_feature=3 9 11 3 1 8 8 10 3 9 1 7 9 0 0 1 3 0 10 1 2 0 10 9 3 13 1 13 3 3
split_gain=1.01887 0.660883 0.631493 0.532563 0.783898 0.650524 0.604979 0.486586 0.609882 0.7439 0.793802 0.673596 0.60168 0.531592 0.50637 0.766263 0.532746 0.685436 0.514255 0.603762 0.655114 0.582175 0.587477 0.65711 0.515765 0.827062 0.669982 0.514356 0.568949 0.801614
threshold=2.0538044184530024 0.31917741731022098 1.1753978872516317 -0.12359113050416286 0.0081084979577107381 -1.2078029788340716 -0.29096381932878773 1.0139436722650064 -0.032926980390997888 1.1659904317276133 0.13416432033874762 0.1318197561796435 1.3793029526520606 0.010187951837070332 0.12997218983307093 0.11661804521439335 0.75698238441040977 -0.03034000384660351 -0.62783826580521007 -0.13023639795998634 -0.15320794388466272 -0.020380888405734484 -0.19557548039857209 0.46485060329212252 -0.11945729447579982 -0.439753008795712 -0.17671289797336834 -0.81847500620359037 0.50173738425086001 0.32842980233407587
decision_type=2 2 2 2 2 2 2 2 2 2 2 2 2 2 2 2 2 2 2 2 2 2 2 2 2 2 2 2 2 2
left_child=1 2 3 -1 -5 -6 -7 14 12 10 11 -10 -9 -11 16 -16 18 -18 27 20 24 -21 -23 -24 25 -20 -27 28 29 -3
right_child=-2 7 -4 4 5 6 -8 8 9 13 -12 -13 -14 -15 15 -17 17 -19 19 21 -22 22 23 -25 -26 26 -28 -29 -30 -31
leaf_value=-0.0063377723819576211 0.0077571756916031956 0.0016023017887542717 0.0049005675466795426 0.0016966570305692798 -0.011966635938733816 0.0048750277354635977 -0.0043356958116922391 -0.0022550129287836132 -0.0028205414019201115 -0.010133682886211604 -0.0078433378514918412 0.0087275925707737245 0.0037641377995411558 -0.0029829092745511038 0.0052140644227146983 0.00042127642046092047 0.0082413766552538927 0.001086995226373388 -0.0073554455619655942 -0.001096992482384199 0.0041441890888625548 0.0016888619546535468 -0.0033761539744173591 0.00022041431052439707 0.004072687399177365 0.005398551474303701 -0.0039185450658468261 -0.0020230349973670843 0.0085606816827666164 -0.0075482505213083891
leaf_weight=80 42 137 29 102 22 22 94 93 23 51 22 28 75 53 123 259 42 165 44 896 191 639 141 1279 52 43 35 552 22 29
leaf_count=80 42 137 29 102 22 22 94 93 23 51 22 28 75 53 123 259 42 165 44 896 191 639 141 1279 52 43 35 552 22 29
internal_value=2.85742e-12 -6.09772e-05 -0.00216452 -0.00280479 -0.00162713 -0.00408385 -0.00258883 8.60264e-05 -0.00172571 -0.00377382 9.51604e-05 0.00351961 0.000432108 -0.00648954 0.000220475 0.0019645 6.43418e-05 0.00253861 -6.18093e-05 0.000203861 0.00212238 -3.31135e-05 0.000429847 -0.00013671 -9.69611e-05 -0.00187419 0.0012178 -0.00125374 0.00100506 3.71132e-06
internal_weight=5385 5343 349 320 240 138 116 4994 345 177 73 51 168 104 4649 382 4267 207 4060 3320 365 2955 2059 1420 174 122 78 740 188 166
internal_count=5385 5343 349 320 240 138 116 4994 345 177 73 51 168 104 4649 382 4267 207 4060 3320 365 2955 2059 1420 174 122 78 740 188 166
is_linear=0
shrinkage=0.05


Tree=14
num_leaves=31
num_cat=0
split_feature=3 9 3 0 13 2 8 0 7 10 3 9 10 8 3 0 4 6 0 10 6 8 10 0 13 7 3 7 2 7
split_gain=0.928251 0.553545 0.474531 0.566439 0.74004 0.540816 0.834558 0.502427 0.464049 0.429999 0.550419 0.67137 0.586044 0.547618 0.602166 0.484565 0.614998 0.626712 1.01571 0.728823 0.67742 0.622857 0.591513 0.705434 0.603864 0.604547 0.75856 0.686075 0.552063 0.608709
threshold=1.7630277552099098 0.31917741731022098 -0.083551655138106459 -0.050111753381170791 0.30213208318352958 -0.049344819809124633 -1.5257595618035822 0.082671853796776454 0.082311477519646029 1.0139436722650064 -0.032926980390997888 1.1659904317276133 1.5894066330366365 -0.62880784931547395 -0.36034051644530241 0.12610757101279238 0.47979860784558331 0.036931289677920476 -0.041085707405151377 0.5901916533543502 0.032072773130794888 0.71969799920906274 -0.59039169899176247 0.042332579214421025 -0.95778192312727783 0.10126119999587603 0.065604032650204772 0.13303005218701947 0.12029128749825214 0.19412874200250849
decision_type=2 2 2 2 2 2 2 2 2 2 2 2 2 2 2 2 2 2 2 2 2 2 2 2 2 2 2 2 2 2
left_child=1 2 3 4 -1 -4 -7 8 -8 15 13 12 -12 -11 -15 16 17 20 19 -19 22 -18 23 24 -3 -26 -27 -28 29 -22
right_child=-2 9 5 -5 -6 6 7 -9 -10 10 11 -13 -14 14 -16 -17 21 18 -20 -21 28 -23 -24 -25 25 26 27 -29 -30 -31
leaf_value=0.0061979607523729406 0.0060336063579020521 0.001572769308975556 0.0050563310272991662 -0.0082436493822439973 -0.0063169161133744102 -0.010728671677086665 0.00077644014536532805 0.0047653903302437225 -0.0047532212789719031 -0.0058392466652078621 -0.0026616125746206209 -0.00616506169529972 0.0073832416534423823 -0.0051463681662705946 0.0032929925503522427 0.0018816714837795218 -0.00029550035484135153 0.0015157053855211033 -0.005519360276131674 -0.0082212335620583457 0.0026623387859094384 0.0077751471807121072 0.00025199660635713111 0.0010575916247594602 -0.0018823077877644788 -0.010850492140278221 -0.0078207058599218723 0.0015050863654057429 0.0058213616788237435 -0.0040651443308322797
leaf_weight=21 63 79 34 56 27 23 79 35 73 29 53 104 20 26 113 388 45 152 133 22 133 51 2882 208 275 50 38 41 87 45
leaf_count=21 63 79 34 56 27 23 79 35 73 29 53 104 20 26 113 388 45 152 133 22 133 51 2882 208 275 50 38 41 87 45
internal_value=-2.50933e-12 -7.14238e-05 -0.00199927 -0.00482735 -0.000841657 -0.00079386 -0.00174103 -0.000635603 -0.00187925 6.34557e-05 -0.00163943 -0.00358512 9.04023e-05 0.000410503 0.00171441 0.000190372 3.56385e-05 -5.59933e-05 -0.00222982 0.000284598 0.00011789 0.00399203 -6.30158e-05 -0.00137686 -0.00242524 -0.00320702 -0.00603103 -0.00298074 0.00255705 0.000961571
internal_weight=5385 5322 348 104 48 244 210 187 152 4974 345 177 73 168 139 4629 4241 4145 307 174 3838 96 3573 691 483 404 129 79 265 178
internal_count=5385 5322 348 104 48 244 210 187 152 4974 345 177 73 168 139 4629 4241 4145 307 174 3838 96 3573 691 483 404 129 79 265 178
is_linear=0
shrinkage=0.05


Tree=15
num_leaves=31
num_cat=0
split_feature=3 9 11 12 0 12 13 0 5 3 11 8 6 10 13 10 12 2 5 9 11 9 13 2 9 6 8 12 3 13
split_gain=0.845782 0.540593 0.724952 0.732444 0.882614 0.786488 0.690192 0.484326 0.532902 0.494663 0.611624 0.562975 0.672195 0.608711 0.844101 0.60061 0.560828 0.669305 0.556197 0.525394 0.643951 0.432596 0.624506 0.449463 0.803891 0.499054 0.685316 0.506434 0.432217 0.666159
threshold=2.0538044184530024 0.42925233387414091 1.6586044175301393 -0.41703224634305142 -0.047250235451249949 -0.12596807887969866 0.25654398563493236 0.010187951837070332 59.314799150370945 0.51405825905843094 -0.28786979712594429 -0.81503834231995598 0.055835606838576725 -0.35709433174137134 -1.1121741638086797 1.0432197145731146 -0.41703224634305142 0.23823561812052343 44.155993008688817 0.91286651169289079 -0.68266521703558458 0.41166542570517478 -0.63691703860248683 -0.05408317920933952 0.33140044261080587 0.020987838921959299 0.51985043535320641 0.18712522293928655 -0.10799687328435224 0.71207326085100009
decision_type=2 2 2 2 2 2 2 2 2 2 2 2 2 2 2 2 2 2 2 2 2 2 2 2 2 2 2 2 2 2
left_child=1 2 3 4 -1 6 -5 8 9 11 19 15 13 14 -13 16 17 18 -3 -11 -21 22 -7 24 -24 26 27 -25 29 -16
right_child=-2 7 -4 5 -6 21 -8 -9 -10 10 -12 12 -14 -15 28 -17 -18 -19 -20 20 -22 -23 23 25 -26 -27 -28 -29 -30 -31
leaf_value=-4.4895848259329799e-05 0.0070676366854015562 -0.0010240297856102332 0.007604594377889521 0.008256075392739896 -0.0099537570253861226 -0.0084768328510610204 -0.0014156626737011331 0.00061414910261704955 -0.0054998961263336248 0.012439305415110929 6.2948150101989988e-06 0.0040633963877457734 0.0069189171882017564 0.00048442289677343712 -0.0082203450512427553 -0.009488605522550644 -0.0005444064955277692 -0.012304542545991188 -0.010070434215179246 -0.001470380575366078 0.010037241892860038 -0.0076125528843652814 -0.000613537050711994 -0.0093550291797146207 0.010262966241039661 -0.0052270253064284006 0.005948455787866431 -0.00064642776090808511 -0.0015721014230303577 0.00089277538374580179
leaf_weight=38 42 89 21 39 55 29 35 2423 50 21 126 57 34 1058 65 25 368 22 21 31 20 31 65 20 23 78 34 101 335 29
leaf_count=38 42 89 21 39 55 29 35 2423 50 21 126 57 34 1058 65 25 368 22 21 31 20 31 65 20 23 78 34 101 335 29
internal_value=-5.63106e-12 -5.55569e-05 -0.00151235 -0.00186172 -0.00590498 -0.0010353 0.0036816 0.000118074 -0.000393193 -0.000282226 0.00210698 -0.000507173 -3.5304e-05 -0.000188441 -0.00165324 -0.00192548 -0.00154732 -0.00434332 -0.00275107 0.00578317 0.00304241 -0.00195144 -0.00145003 -0.000815209 0.00222919 -0.00196502 -0.000323499 -0.00208587 -0.00241279 -0.00540885
internal_weight=5385 5343 569 548 93 455 74 4774 2351 2301 198 2103 1578 1544 486 525 500 132 110 72 51 381 350 321 88 233 155 121 429 94
internal_count=5385 5343 569 548 93 455 74 4774 2351 2301 198 2103 1578 1544 486 525 500 132 110 72 51 381 350 321 88 233 155 121 429 94
is_linear=0
shrinkage=0.05


Tree=16
num_leaves=31
num_cat=0
split_feature=3 3 10 1 1 5 9 0 3 7 4 6 7 0 4 7 7 9 6 9 12 1 7 6 5 9 9 9 11 6
split_gain=0.769327 0.469022 0.60601 0.686768 0.559071 0.91295 0.512833 0.446989 0.520716 0.477788 0.997544 0.754974 0.457376 0.69028 0.560898 0.498158 0.41053 0.410094 0.64547 0.472567 0.455126 0.40328 0.399596 0.457276 0.399345 0.485841 0.403668 0.380821 0.525657 0.600468
threshold=1.7630277552099098 0.043263589194909809 1.0821276209062327 -0.23483953059931564 0.082552336676034024 49.275143364961089 0.30627220059920141 -0.084733403388900105 0.59375631730622458 0.18378203087236775 0.29950178780987641 0.036931289677920476 0.09137575855640892 0.099065094145260893 0.3262365536776976 0.092665530526503406 0.21024200409653643 0.41166542570517478 0.020814892897227492 0.42925233387414091 0.37860695112887494 0.23965338657212668 0.20335134195613011 0.016629808135280321 56.464594280632234 1.5460596950988768 1.7507601325489526 2.3586028957273251 -1.0772961108078423 0.057836304384208288
decision_type=2 2 2 2 2 2 2 2 2 2 2 2 2 2 2 2 2 2 2 2 2 2 2 2 2 2 2 2 2 2
left_child=1 6 3 -3 5 -4 22 8 9 10 -5 -11 13 14 24 -14 -2 18 20 -19 -8 -6 23 -1 26 -26 -9 28 -21 -30
right_child=16 2 4 7 21 -7 17 12 -10 11 -12 -13 15 -15 -16 -17 -18 19 -20 27 -22 -23 -24 -25 25 -27 -28 -29 29 -31
leaf_value=0.0020342479967935521 0.0005167203699238598 0.0096627143817022455 -0.0044523671740031943 -0.0039353655198173798 -0.0099355135046477836 0.0064968490474711874 -0.0068883129306847148 0.00076267697944386521 0.0042605741477260992 -0.0018887001594218118 0.0061294088645705153 -0.012888216528181846 0.0072451404637831731 0.0090480788797140128 -0.0078849390071506313 0.00094742486646710129 0.0087666608099090434 -0.0077411738750727283 0.0067953171480136625 -0.0039696320186747205 0.0036507760544191117 -0.0021694401861168445 0.0021296848163560585 -0.0058623199508821763 -0.0015641650290841962 0.0053192148330035039 -0.0064369979174807666 0.0057279932855938877 -0.00051393714855479705 0.0067514411478849321
leaf_weight=22 25 20 47 83 35 32 21 733 30 39 35 26 32 20 24 1677 38 23 48 109 20 32 27 110 507 27 20 24 1470 29
leaf_count=22 25 20 47 83 35 32 21 733 30 39 35 26 32 20 24 1677 38 23 48 109 20 32 27 110 507 27 20 24 1470 29
internal_value=3.02005e-12 -6.50228e-05 0.000285163 0.000425756 -0.00286662 -1.72416e-05 -0.00069418 0.000368966 -0.00184527 -0.00284622 -0.000950051 -0.00628851 0.000524108 -0.00017084 -0.000311479 0.00106535 0.00549287 -0.000446344 0.00285996 -0.000624146 -0.00174729 -0.00622634 -0.00341258 -0.00454623 -0.000170249 -0.00121613 0.000571451 -0.000523844 -0.000617155 -0.000373379
internal_weight=5385 5322 3419 3273 146 79 1903 3253 213 183 118 65 3040 1331 1311 1709 63 1744 89 1655 41 67 159 132 1287 534 753 1632 1608 1499
internal_count=5385 5322 3419 3273 146 79 1903 3253 213 183 118 65 3040 1331 1311 1709 63 1744 89 1655 41 67 159 132 1287 534 753 1632 1608 1499
is_linear=0
shrinkage=0.05


Tree=17
num_leaves=31
num_cat=0
split_feature=3 9 11 12 1 12 11 13 1 6 3 3 1 10 5 5 9 1 6 9 9 4 4 11 12 1 1 6 6 4
split_gain=0.698584 0.459003 0.645789 0.654702 0.800352 0.705263 0.656858 0.613883 0.510467 0.486462 0.399909 0.368872 0.746004 0.42502 0.470259 0.474203 0.681017 0.609382 0.528761 0.512418 0.736491 0.872835 0.927487 0.759452 0.602219 0.64144 0.601919 0.501679 0.95464 0.497255
threshold=2.0538044184530024 0.42925233387414091 1.6586044175301393 -0.41703224634305142 -0.14163773582472663 -0.12596807887969866 -0.17912007689786688 0.25654398563493236 0.035382544787293864 0.01693801479998271 -0.21720906217573391 0.37133707942541166 0.35234142847428479 1.4175507016348059 76.505133514193645 67.665762799579781 2.0238682792603622 0.2020182278101024 0.032538330038273465 1.8144615625456422 1.1802627935591137 0.3065010619455214 0.28790282198381761 -0.46479813406276255 -0.50798380177448421 0.13582510943796525 0.10256655427565965 0.024984519734453082 0.027790533040720083 0.20968389851506145
decision_type=2 2 2 2 2 2 2 2 2 2 2 2 2 2 2 2 2 2 2 2 2 2 2 2 2 2 2 2 2 2
left_child=1 2 3 4 -1 7 -6 -5 10 -10 -7 12 -3 14 15 16 17 19 -17 20 23 22 24 26 -22 29 -13 -25 -29 -26
right_child=-2 11 -4 5 6 8 -8 -9 9 -11 -12 13 -14 -15 -16 18 -18 -19 -20 -21 21 -23 -24 27 25 -27 -28 28 -30 -31
leaf_value=0.0030434017912262961 0.0064232421240636292 -6.2586759964245505e-05 0.0072119242422992282 0.0078396152107952487 -0.012826016042122823 -0.0045897327244368404 -0.0032745600548676323 -0.0012817997066304088 -0.00022060784644314219 -0.0060106325737490024 0.0007801678037536253 0.0039311577070663961 -0.0066880624750791512 -0.0058518372167347243 0.0055679129845952122 -0.0026210422193868842 -0.0036053678526459681 0.0041690840395175342 0.0053509731388961283 0.0084297060119834823 0.0025767096986160859 -0.0063329942331004606 0.0095426104341944061 0.0023286259168582668 -0.0059585132810752841 -0.0095893403097730267 0.014085297647980041 -0.0092256423085927963 0.0018205021130237378 0.0018805270377461884
leaf_weight=21 42 3555 21 39 36 43 36 35 56 103 179 54 43 23 54 156 67 185 24 22 76 65 24 206 32 29 20 31 53 55
leaf_count=21 42 3555 21 39 36 43 36 35 56 103 179 54 43 23 54 156 67 185 24 22 76 65 24 206 32 29 20 31 53 55
internal_value=1.61084e-12 -5.04915e-05 -0.00139286 -0.0017226 -0.00554526 -0.000941265 -0.00805029 0.00352543 -0.00180881 -0.00397138 -0.000259948 0.000109501 -0.000141768 0.000878266 0.00101252 0.000788686 0.00124834 0.00163003 -0.00155811 0.000925794 0.000669846 -0.00125312 0.000275548 0.00215433 -0.000882835 -0.00314943 0.00667552 0.00100065 -0.00225605 -0.0010028
internal_weight=5385 5343 569 548 93 455 72 74 381 159 222 4774 3598 1176 1153 1099 919 852 180 667 645 281 216 364 192 116 74 290 84 87
internal_count=5385 5343 569 548 93 455 72 74 381 159 222 4774 3598 1176 1153 1099 919 852 180 667 645 281 216 364 192 116 74 290 84 87
is_linear=0
shrinkage=0.05


Tree=18
num_leaves=31
num_cat=0
split_feature=4 0 9 4 5 9 12 12 11 4 2 9 0 11 4 0 6 10 12 6 9 8 6 6 6 2 9 1 12 6
split_gain=0.557445 0.597422 0.561307 0.539421 0.585057 0.476026 0.721893 0.640812 0.803645 0.626508 1.2417 0.6079 0.577949 0.549074 0.525651 0.494543 0.653219 1.07479 0.949607 0.651925 0.650762 0.615406 0.718096 0.579002 0.547005 0.50403 0.443918 0.617787 0.442463 0.432435
threshold=0.54501576359080517 0.2204037634703552 1.6920239064774487 0.37494780713602943 61.812612544531248 0.88244263433134751 1.6703724515582461 -0.44843931168062717 0.10782833909861779 0.2044484735689531 0.20772939132409765 0.89143705928239136 0.10701324355626031 0.69199984845707074 0.33471145794147877 -0.13339622431893552 0.026183022349988212 0.31568189314969358 -0.58570540150987027 0.022117579168904642 0.9713762547376229 -0.83114508438145396 0.03004807330552324 0.022321205185097542 0.027790533040720083 -0.17031806790743584 1.5538183029138579 0.045386111291146565 -0.62128020838687592 0.028879478081096453
decision_type=2 2 2 2 2 2 2 2 2 2 2 2 2 2 2 2 2 2 2 2 2 2 2 2 2 2 2 2 2 2
left_child=1 3 -3 5 -5 6 7 8 14 13 28 -7 -9 -10 29 -13 19 18 -18 25 -19 -22 24 -21 -23 -17 27 -24 -11 -1
right_child=-2 2 -4 4 -6 11 -8 12 9 10 -12 15 -14 -15 -16 16 17 20 -20 23 21 22 26 -25 -26 -27 -28 -29 -30 -31
leaf_value=-0.0040809161418150558 0.0036074501730590349 0.0012079611216118007 0.0090492813876180949 -0.0011998266135466518 -0.0071587574809951621 0.0067205707683522069 -0.0093801133010698399 -0.00034147911719086682 0.00071716362051665785 0.0081890542883667396 -0.0063701151051269531 -0.0038262483626739056 0.0031547862307888864 -0.0098706834639112166 0.0028720809146761898 -0.0069023255597461357 -0.00010542108137798757 0.0071400554972404443 0.0041235063086805584 -0.0071135467738800114 -0.0080770473927259442 -5.4376431563425637e-05 -0.0050915009072540623 -0.0010196896559559669 -0.0079065018571279153 0.00073915297060130883 0.0048120857149330995 0.0057651642244309189 -0.00051682023098692292 -0.009876718959874577
leaf_weight=113 105 74 33 394 46 38 23 1544 25 54 29 69 128 24 20 22 197 22 407 42 34 42 38 542 47 1129 59 20 20 45
leaf_count=113 105 74 33 394 46 38 23 1544 25 54 29 69 128 24 20 22 197 22 407 42 34 42 38 542 47 1129 59 20 20 45
internal_value=1.6224e-12 -7.17391e-05 0.00362631 -0.000148231 -0.00182281 7.44493e-06 -0.000572423 -0.000471236 -0.0024848 0.000185341 0.00239941 0.000441061 -7.38224e-05 -0.00446872 -0.00476491 0.00035169 0.000462523 0.00158408 0.0027442 -9.72843e-05 -0.00109041 -0.00184487 -0.000816263 -0.00145795 -0.004201 0.000593095 0.00175846 -0.00134782 0.00583612 -0.00573162
internal_weight=5385 5280 107 5173 440 4733 2025 2002 330 152 103 2708 1672 49 178 2670 2601 866 604 1735 262 240 206 584 89 1151 117 58 74 158
internal_count=5385 5280 107 5173 440 4733 2025 2002 330 152 103 2708 1672 49 178 2670 2601 866 604 1735 262 240 206 584 89 1151 117 58 74 158
is_linear=0
shrinkage=0.05


Tree=19
num_leaves=31
num_cat=0
split_feature=3 3 1 0 8 6 3 5 7 4 3 3 13 4 3 7 7 2 1 8 1 2 3 4 0 8 4 1 8 8
split_gain=0.608589 0.410027 0.805936 0.614246 0.713338 0.567129 0.797462 0.537904 0.518309 1.08872 0.485589 0.505824 0.479588 0.467271 0.431834 0.524459 0.492433 0.479653 0.436299 0.423894 0.456829 0.399989 0.396312 0.388571 0.420501 0.403601 0.75667 0.672058 1.22454 0.620794
threshold=1.7630277552099098 -0.19098339077004303 -0.12378800689013973 0.010187951837070332 -2.5538356761230676 0.022381206330352812 -0.23261961079986446 58.749232067922698 0.09404713166713638 0.24756455164508542 0.51405825905843094 0.49022051691611918 -2.0874520873454272 0.53041007720215816 0.2921271470799412 0.13783253927534209 0.19265353628169785 -0.20381827160474933 -0.14163773582472663 -1.6630180278882842 0.127928086769902 0.0055907626562534682 0.68077320450435019 0.4508013726037241 0.23710624144508921 0.03126521661369009 0.20817502610234898 0.10565178686922984 0.15221691949916985 0.21587735477615597
decision_type=2 2 2 2 2 2 2 2 2 2 2 2 2 2 2 2 2 2 2 2 2 2 2 2 2 2 2 2 2 2
left_child=1 5 13 4 -4 6 -1 10 9 -7 11 -6 -10 14 15 18 -17 -18 -3 -12 22 -16 -21 24 25 26 -5 28 -27 -30
right_child=-2 2 3 23 7 8 -8 -9 12 -11 19 -13 -14 -15 21 16 17 -19 -20 20 -22 -23 -24 -25 -26 27 -28 -29 29 -31
leaf_value=-0.00078618717645960196 0.0048854707045451048 -0.0010114421267535089 -0.0042886011419748819 -0.00021924728048591951 -0.0004929959058023514 -0.0035774688922653071 -0.012107119745840986 -0.0048140903449218194 0.0058173058909319697 0.0077508161746663974 0.0088552262367946766 -0.0070497558339654154 -0.0019468817793901333 0.0092557036783546213 -0.007650073634629901 0.0069719654865118431 -0.0030771832412221666 0.0046590792617815383 0.004283169561319731 0.0023583937440998853 0.005143274269998074 0.0015939601995050908 -0.004036603532137072 -0.0034012833158843792 0.0047598295550989479 -0.0032683730607035843 0.0027248579405984314 -0.0013008208282367694 0.007464343406673935 0.0013775051370163301
leaf_weight=35 63 133 135 434 1507 38 28 70 21 48 21 30 376 22 22 88 33 51 55 50 50 25 47 65 57 146 439 645 45 606
leaf_count=35 63 133 135 434 1507 38 28 70 21 48 21 30 376 22 22 88 33 51 55 50 50 25 47 65 57 146 439 645 45 606
internal_value=-3.06766e-12 -5.78325e-05 9.0557e-05 -0.000113486 -0.000784849 -0.00135583 -0.00581771 -0.000518367 -0.000773848 0.00274529 -0.000342003 -0.000620974 -0.00153618 0.0021581 0.00177444 0.00236292 0.00435813 0.00161983 0.000537513 0.00221025 0.00126097 -0.00273303 -0.000740213 0.000412695 0.00051721 0.000412748 0.00126124 -0.000100935 0.000870114 0.00179825
internal_weight=5385 5322 4776 4347 1910 546 63 1775 483 86 1705 1537 397 429 407 360 172 84 188 168 147 47 97 2437 2372 2315 873 1442 797 651
internal_count=5385 5322 4776 4347 1910 546 63 1775 483 86 1705 1537 397 429 407 360 172 84 188 168 147 47 97 2437 2372 2315 873 1442 797 651
is_linear=0
shrinkage=0.05


Tree=20
num_leaves=31
num_cat=0
split_feature=3 3 2 10 13 13 13 4 0 8 8 11 2 13 2 10 13 2 10 13 2 6 4 3 4 10 8 5 13 10
split_gain=0.559136 0.395891 0.587082 0.640017 0.764892 0.572431 0.985894 0.810622 0.565489 0.488709 0.471899 0.468234 0.737223 0.724844 1.1151 0.842326 0.539004 0.535082 0.519561 0.561 0.514846 0.490435 0.630022 0.485727 0.485549 0.488451 0.566455 0.555141 0.453594 0.432199
threshold=2.0538044184530024 0.043263589194909809 -0.19829650494115744 1.0821276209062327 -2.1823399199362572 0.10756376701648306 0.035617587400516244 0.46482447181066616 -0.1586112010153278 0.29026176102250068 1.4205072621707109 -0.86647936822408778 -0.037886393585589311 0.9618763891956571 -0.15320794388466272 -0.3958898135779072 0.55190257072693905 -0.20381827160474933 0.27056352964076485 1.4711759148176935 -0.15822712397476982 0.015621390663033138 0.20392748537229186 -0.012378502773029152 0.21900051498863379 -0.060551368301586479 -0.32407605959605429 62.070383146934041 0.21198301252772764 -0.054721250378802704
decision_type=2 2 2 2 2 2 2 2 2 2 2 2 2 2 2 2 2 2 2 2 2 2 2 2 2 2 2 2 2 2
left_child=1 5 -3 4 -4 6 -1 11 -6 -5 -11 18 13 15 29 28 17 -17 -7 -20 -21 23 -23 -14 -24 26 -26 -27 -13 -15
right_child=-2 2 3 9 8 7 -8 -9 -10 10 -12 12 21 14 -16 16 -18 -19 19 20 -22 22 24 -25 25 27 -28 -29 -30 -31
leaf_value=-0.0001368060655371058 0.0057465037907518095 0.0065392118400415854 -0.0081961394036905132 -0.0054725857224205837 -0.0072323722233704757 -0.0086931003681901438 0.0063223560777259996 0.005687907059939626 0.0004711539870631526 0.0050464165247311558 -0.0048688403818578953 0.00096685528229240199 -0.0037674047353286897 0.0023552097637077858 0.0069376058978732769 0.0093774251765959601 -0.0021376967916148719 0.001055771232620258 -0.0058407909064232535 0.00692467667952018 -0.0027052875821079528 -0.006138036983506079 0.0037959334009125692 0.0044838933562416404 0.00708530502659934 -0.0074414933825443898 -0.0025439917450837263 0.0020040883938781916 -0.0075017778406618165 -0.0061367483749505021
leaf_weight=768 42 37 26 85 24 45 64 39 3219 28 21 21 31 29 82 24 110 99 58 23 35 138 33 42 21 70 56 20 64 31
leaf_count=768 42 37 26 85 24 45 64 39 3219 28 21 21 31 29 82 24 110 99 58 23 35 138 33 42 21 70 56 20 64 31
internal_value=-1.07222e-12 -4.51718e-05 0.000274943 0.000206833 0.000345662 -0.000623834 0.000360053 -0.00138816 0.000414144 -0.00317997 0.000797021 -0.00165557 -0.00119768 0.000177323 0.0031475 -0.00114898 0.000405291 0.00267951 -0.00413275 -0.00236365 0.00111349 -0.0027366 -0.00353928 0.000979917 -0.00174615 -0.00284129 8.21801e-05 -0.00534248 -0.00540953 -0.0020323
internal_weight=5385 5343 3440 3403 3269 1903 832 1071 3243 134 49 1032 871 460 142 318 233 123 161 116 58 411 338 73 200 167 77 90 85 60
internal_count=5385 5343 3440 3403 3269 1903 832 1071 3243 134 49 1032 871 460 142 318 233 123 161 116 58 411 338 73 200 167 77 90 85 60
is_linear=0
shrinkage=0.05


Tree=21
num_leaves=31
num_cat=0
split_feature=3 12 12 3 8 6 1 1 1 4 11 3 7 5 0 5 11 12 1 1 8 4 7 1 7 7 9 3 11 1
split_gain=0.505591 0.373843 0.482957 0.654732 0.377759 0.750499 0.851459 0.652694 0.73516 0.881676 0.509613 0.478474 0.619418 0.500953 0.466354 0.725955 0.628399 0.662623 0.598521 0.750535 0.60427 0.513612 0.54365 0.511122 0.759357 0.751059 0.655583 0.545879 0.547538 0.885493
threshold=1.7630277552099098 2.4375369787319214 1.6703724515582461 -0.30946496320354877 0.71969799920906274 0.047702564146013308 -0.11323379496534629 -0.21085457625832646 0.098856761674952956 0.3857775080438467 0.088879830071670732 0.2921271470799412 0.11182091514658581 76.505133514193645 0.063335432028752928 62.613493176896519 -0.93015372039039179 -1.4793500854000543 0.2020182278101024 0.21669781779902367 -2.5538356761230676 0.39931137557744295 0.21257175017094238 -0.12708042216068613 0.17454536780852206 0.16704685581684822 0.2223410290942219 -0.13860406356191088 -0.57847407486533864 -0.16592147900483492
decision_type=2 2 2 2 2 2 2 2 2 2 2 2 2 2 2 2 2 2 2 2 2 2 2 2 2 2 2 2 2 2
left_child=1 2 4 -4 14 7 -7 10 -9 11 -6 12 -10 -13 18 16 -16 -18 23 -20 -21 22 -19 27 25 26 -25 28 -1 -30
right_child=-2 -3 3 -5 5 6 -8 8 9 -11 -12 13 -14 -15 15 -17 17 21 19 20 -22 -23 -24 24 -26 -27 -28 -29 29 -31
leaf_value=-0.0049953484822781906 0.0044529113452881578 0.0066053320964177447 -0.011736745224334301 -0.0013725286960834639 -0.00071932285510260482 0.012810243024594254 -0.00080118918791413315 0.0018821325444436168 -0.0041455398849211634 -0.0094052903033022221 -0.010946754722612069 -0.0033434265298393573 0.0041169766797177166 0.0037096309776027355 -0.0035327521678155819 -0.00038765886948782612 0.011363814743843091 0.0025437990102460083 0.0071023243330067629 -0.0066929856324210203 0.0014558330379748862 -0.0044577031245959615 0.01090137069778783 -0.00503614024609704 -0.0037635258758636904 0.0060821507265791299 -0.00065985689327008627 0.0024204417086777191 0.0038232347337595583 -0.0045808487340109425
leaf_weight=62 63 21 20 64 29 27 20 599 30 29 21 134 93 31 39 550 23 265 53 26 182 24 21 89 223 40 2225 248 84 50
leaf_count=62 63 21 20 64 29 27 20 599 30 29 21 134 93 31 39 550 23 265 53 26 182 24 21 89 223 40 2225 248 84 50
internal_value=-2.4292e-12 -5.2712e-05 -7.9088e-05 -0.0038402 -1.85295e-05 0.00084822 0.00701814 0.000548027 0.000851677 -0.00109546 -0.00501484 -0.000258708 0.00210173 -0.00201831 -0.000227382 0.000766192 0.00247215 0.00317543 -0.000506503 0.00179068 0.000437231 0.00256791 0.00315747 -0.000704969 -0.000974924 -0.000710753 -0.000828175 0.000861863 -0.00111022 0.000687383
internal_weight=5385 5322 5301 84 5217 1013 47 966 916 317 50 288 123 165 4204 922 372 333 3282 261 208 310 286 3021 2577 2354 2314 444 196 134
internal_count=5385 5322 5301 84 5217 1013 47 966 916 317 50 288 123 165 4204 922 372 333 3282 261 208 310 286 3021 2577 2354 2314 444 196 134
is_linear=0
shrinkage=0.05


Tree=22
num_leaves=31
num_cat=0
split_feature=3 7 9 13 5 7 6 0 11 1 1 1 13 0 5 1 4 12 4 4 5 3 7 4 4 12 13 3 9 1
split_gain=0.464299 0.391894 0.351326 0.557694 0.644268 0.542911 1.11355 0.431842 0.393638 0.383935 0.352912 0.335208 0.509845 0.331815 0.442373 0.416492 0.394513 0.385894 0.977751 0.684037 0.590464 0.503355 0.868865 0.602902 0.693186 0.479756 0.806345 0.601543 0.543825 0.622192
threshold=2.0538044184530024 0.24984874747518351 0.42925233387414091 0.35249403358365539 51.800121020020249 0.23731781334570831 0.02793134166629007 0.046791358245849686 1.0000000180025095e-35 0.21040068121092229 -0.091573940114874783 0.052393017280325423 0.79007631637983688 0.010187951837070332 59.314799150370945 0.10256655427565965 0.54501576359080517 -0.44843931168062717 0.47378398821168094 0.40860569890449672 55.159998548406243 -0.20328325690983637 0.24984874747518351 0.28023280471820028 0.35603697801382744 -0.1837044263963972 2.1275235904868901 0.11573528977705307 0.85348676853877692 0.0062765781086653325
decision_type=2 2 2 2 2 2 2 2 2 2 2 2 2 2 2 2 2 2 2 2 2 2 2 2 2 2 2 2 2 2
left_child=2 -2 3 4 8 6 7 -5 10 -6 -1 -9 -13 14 16 -16 17 18 20 25 21 23 -23 -4 -25 27 -27 28 -19 -30
right_child=1 -3 13 5 9 -7 -8 11 -10 -11 -12 12 -14 -15 15 -17 -18 19 -20 -21 -22 22 -24 24 -26 26 -28 -29 29 -31
leaf_value=0.0034188682911917567 0.00017098948243074119 0.0098415727473118095 -0.012667748332023622 -0.0033509379003213869 -0.0032955987663585012 0.0048570259304886523 -0.01163954768945197 0.0068101779790595181 0.0044914802973807762 0.0040876565035432577 -0.0058616151900163721 -0.0068635221931617717 0.0040519993694033479 0.00050941782074474665 -0.00076531433776296951 -0.0099214543224028923 0.0040823520209344755 -0.0011823631806085664 0.0070918170690902121 -0.0041922981454467585 0.0056207346245646479 -0.0022030309980683445 0.0070315526246472644 0.0039385166577994828 -0.0092256988771259787 0.00011690280833817318 -0.0095349597405980941 0.00012294106208337626 0.010399040934752744 0.00039642854748804393
leaf_weight=20 20 22 24 179 109 22 35 20 99 21 21 20 23 2423 27 23 52 24 32 89 25 450 27 20 20 1319 22 122 53 22
leaf_count=20 20 22 24 179 109 22 35 20 99 21 21 20 23 2423 27 23 52 24 32 89 25 450 27 20 20 1319 22 122 53 22
internal_value=-1.83689e-13 0.00523653 -4.11631e-05 -0.00121557 0.000431706 -0.00270307 -0.00330351 -0.00209789 0.00278529 -0.00210292 -0.00133455 0.00146237 -0.00102499 9.88109e-05 -0.000324371 -0.00497714 -0.000223268 -0.00032282 -0.00141108 7.1353e-05 -0.00189181 -0.00223897 -0.00168032 -0.00640265 -0.00264359 0.000314288 -4.14424e-05 0.00247282 0.00536863 0.00746494
internal_weight=5385 42 5343 569 270 299 277 242 140 130 41 63 43 4774 2351 50 2301 2249 598 1651 566 541 477 64 40 1562 1341 221 99 75
internal_count=5385 42 5343 569 270 299 277 242 140 130 41 63 43 4774 2351 50 2301 2249 598 1651 566 541 477 64 40 1562 1341 221 99 75
is_linear=0
shrinkage=0.05


Tree=23
num_leaves=31
num_cat=0
split_feature=3 7 3 10 2 13 1 9 13 4 9 1 8 1 9 8 7 2 10 10 3 6 9 8 2 10 13 10 4 6
split_gain=0.41903 0.353684 0.345373 0.528174 0.706308 0.686403 0.508482 0.748989 0.476126 0.652335 0.545261 0.470251 0.454362 0.42412 0.385822 0.671121 0.452995 0.441076 0.650713 0.519515 0.411157 0.474636 0.406238 0.540588 0.518889 0.376487 0.853655 0.469879 0.435022 0.504931
threshold=2.0538044184530024 0.24984874747518351 0.043263589194909809 1.0821276209062327 -0.19829650494115744 -2.1823399199362572 0.13264924113663193 1.2843829228826862 0.43841827360786745 0.46482447181066616 1.9171979057595485 0.23965338657212668 1.3187698879075163 -0.22041092482981697 0.96183595927512333 -0.24392524379922262 0.081299252410972356 -0.037886393585589311 0.43283273311121451 -0.2411655385269996 -0.14952515881706199 0.024119619858937052 1.7122702878881155 0.010772892742699105 -0.0047800341706762941 -0.76219249132897748 -0.46366262840200873 -1.0918343162841613 0.37494780713602943 0.057836304384208288
decision_type=2 2 2 2 2 2 2 2 2 2 2 2 2 2 2 2 2 2 2 2 2 2 2 2 2 2 2 2 2 2
left_child=2 -2 8 4 -4 -6 7 -5 10 12 25 -8 14 -7 15 16 -10 19 -19 -17 21 -21 23 24 -16 26 27 -1 -27 -30
right_child=1 -3 3 6 5 13 11 -9 9 -11 -12 -13 -14 -15 22 17 -18 18 -20 20 -22 -23 -24 -25 -26 28 -28 -29 29 -31
leaf_value=0.0074031814374029645 0.00016244001919403674 0.0093494938517158684 0.0089369880307155359 0.0041431104425219412 -0.0077636380966466211 0.0068802200721111151 -0.011292842689615029 -0.0050920724425287476 -0.00028282786533236504 0.0056088338523442235 0.0067456744611263282 -0.002301651690945481 0.0025919919173148544 0.00034252026033206241 0.00046158389966577699 -0.0057499277094999954 -0.0078556209502920037 -0.0023427060542833378 -0.011222887579351665 -0.0054179478016319789 0.0041167051486599333 0.0027590590329574691 -0.0048032685271464292 -0.0019809412132720658 0.0080167100962364318 0.00070400456595898664 -0.007346577308225361 -0.0015043220449067456 -0.0038073279041881593 0.0041972153276825944
leaf_weight=20 20 22 24 46 26 25 26 42 25 31 30 33 55 3218 73 33 94 118 25 36 65 35 50 132 33 802 55 57 110 24
leaf_count=20 20 22 24 46 26 25 26 42 25 31 30 33 55 3218 73 33 94 118 25 36 65 35 50 132 33 802 55 57 110 24
internal_value=2.82634e-12 0.00497471 -3.91049e-05 0.000259889 0.000390789 0.000328046 -0.00267247 -0.00026459 -0.000579587 -0.00150325 9.75997e-05 -0.00626387 -0.0017881 0.000392919 -0.00212316 -0.00306996 -0.0062647 -0.00185145 -0.00389519 -0.000122135 0.00124343 -0.00138703 -0.000706252 0.000154466 0.00281365 -8.91439e-05 -0.00258897 0.000809315 0.000263396 -0.00237368
internal_weight=5385 42 5343 3440 3293 3269 147 88 1903 805 1098 59 774 3243 719 431 119 312 143 169 136 71 288 238 106 1068 132 77 936 134
internal_count=5385 42 5343 3440 3293 3269 147 88 1903 805 1098 59 774 3243 719 431 119 312 143 169 136 71 288 238 106 1068 132 77 936 134
is_linear=0
shrinkage=0.05


Tree=24
num_leaves=31
num_cat=0
split_feature=3 8 13 8 7 1 1 7 5 5 13 2 8 9 11 13 8 9 8 7 1 8 13 11 11 2 11 6 9 3
split_gain=0.40389 0.988368 0.932967 0.665593 0.592012 0.758678 0.557504 0.560915 0.644707 0.628626 0.610432 0.543632 0.524514 0.542806 0.573266 0.465533 0.417086 0.504554 0.524646 0.746906 0.646797 0.574953 0.529848 0.548016 0.573504 0.511047 0.49814 0.493165 0.461749 0.42811
threshold=0.59375631730622458 0.13997863551045331 1.5722288669744757 -0.72478819171254416 0.20526817176932302 -0.0049274226189840445 1.0000000180025095e-35 0.17189741933385913 70.220791363095998 64.088716499835201 -0.75436538159872069 0.25029917163257726 -5.3996966360507077 0.03891853581809996 1.0000000180025095e-35 0.33662580527196478 0.42624552111026121 2.3586028957273251 -0.0050294994284181263 0.12992817561472181 -0.1700856270443892 -1.7982490358777008 -0.33769772032669509 -0.16889558017856793 -0.078028007547434511 -0.34013498931312192 -0.33517058864662286 0.055835606838576725 1.4989192750362501 0.53531569638451593
decision_type=2 2 2 2 2 2 2 2 2 2 2 2 2 2 2 2 2 2 2 2 2 2 2 2 2 2 2 2 2 2
left_child=12 2 3 -2 5 -5 -3 10 9 -9 -8 -7 -1 14 -14 -13 17 18 19 22 21 -21 23 26 -25 -23 -15 -18 -27 -24
right_child=1 6 -4 4 -6 11 7 8 -10 -11 -12 15 13 16 -16 -17 27 -19 -20 20 -22 25 29 24 -26 28 -28 -29 -30 -31
leaf_value=-0.0052488552879076458 -0.0004328900282936437 0.0067475185403600346 0.012840969911353153 -0.0047393634967092015 0.010798828169104777 0.0091099044968655628 -0.011957373316197293 0.0019473940434475102 0.0038629012602952222 -0.007830003283784857 -0.0026162544392967879 0.0041493653670424619 -0.010299213617466964 0.0030354357355584704 -0.0012062156884125076 -0.0040313196664845405 0.00059673938611272046 0.0053282673876637069 -0.0012466459039073086 0.0091495291491889442 -0.0020092840390841214 -0.0063427022658288481 9.087792773791961e-07 -0.0064010232908739938 0.0021557457558810714 0.0051582441135423684 0.013076051253648031 0.0078314773486151054 -0.0031924124732613567 0.0061571122757319748
leaf_weight=50 140 20 22 27 28 43 23 31 62 35 73 83 26 30 52 22 1271 39 1165 23 561 22 1078 21 290 49 21 24 25 29
leaf_count=50 140 20 22 27 28 43 23 31 62 35 73 83 26 30 52 22 1271 39 1165 23 561 22 1078 21 290 49 21 24 25 29
internal_value=-2.14097e-12 0.00121264 0.00285955 0.00221934 0.00404847 0.00296841 -0.00125097 -0.00196512 0.000201711 -0.00323759 -0.00485423 0.00437456 -0.000154627 -0.000100731 -0.00423721 0.00243532 -3.13152e-05 -0.000325668 -0.000392205 7.09985e-05 -0.00129907 0.0020491 0.000705201 0.00236576 0.00157796 0.00034796 0.00716981 0.000730819 0.00233708 0.000162182
internal_weight=5385 609 365 343 203 175 244 224 128 66 96 148 4776 4726 78 105 4648 3353 3314 2149 680 119 1469 362 311 96 51 1295 74 1107
internal_count=5385 609 365 343 203 175 244 224 128 66 96 148 4776 4726 78 105 4648 3353 3314 2149 680 119 1469 362 311 96 51 1295 74 1107
is_linear=0
shrinkage=0.05


Tree=25
num_leaves=31
num_cat=0
split_feature=1 9 6 7 11 0 1 8 0 2 12 10 0 1 9 13 11 12 1 1 2 11 7 9 2 10 8 1 11 8
split_gain=0.373744 0.370902 0.413841 0.429307 0.585118 0.379705 0.374723 0.346066 0.464667 0.343089 0.312637 0.354757 0.416921 0.910628 0.439363 0.589822 0.522681 0.414642 0.579423 0.397156 0.488194 0.544736 1.02852 0.385734 0.432818 0.719412 0.374023 0.360574 0.346211 0.686969
threshold=0.8143877210248649 0.31917741731022098 0.019117664885206477 0.11795556272078596 1.0280127702106137 0.04960259798769729 0.045386111291146565 -0.0050294994284181263 -0.025183180238266097 0.20507577634416543 2.4375369787319214 1.0139436722650064 0.14951538714406334 0.11661804521439335 1.2905716221214198 0.83016868256230569 0.18577305694103888 1.6703724515582461 0.10565178686922984 0.016130088682323466 -0.24013267777632227 -0.55895477600367827 0.13589322397935472 1.0136417508937097 0.17644212937860573 -0.075547313995103602 0.49434980846212812 -0.14487690678553458 1.537927166658472 0.015541472426768789
decision_type=2 2 2 2 2 2 2 2 2 2 2 2 2 2 2 2 2 2 2 2 2 2 2 2 2 2 2 2 2 2
left_child=1 2 5 7 9 6 -1 8 -4 -5 11 12 28 26 23 16 -16 18 19 20 -13 22 -22 24 -15 -26 -14 -23 -3 -30
right_child=-2 10 3 4 -6 -7 -8 -9 -10 -11 -12 17 13 14 15 -17 -18 -19 -20 -21 21 27 -24 -25 25 -27 -28 -29 29 -31
leaf_value=0.0017469704642684922 0.0066573119057076321 0.00016162663678145615 -0.0077691389913005495 -0.0010841085022548214 0.0061102732123496633 0.0063913319855928427 -0.0054672388428891154 -0.0082131825534161179 0.0022307133875214139 -0.0076530837542377415 0.0061715410224028999 0.0041752427665051077 0.0097320918769886102 -0.0056089450160718779 0.00979309512395048 -0.0035788707918039072 0.00095178302643554558 -0.0072379804425070004 -0.0043335295480533718 0.0047467080161495267 -0.0054571656137704858 -0.00032477088920448136 0.0074293607434810843 -0.0062414702952891176 -0.0030688007769640539 0.0094487881166225481 0.0030592662370985467 -0.0081129428819708884 0.00060518757147890346 -0.0045609295885596013
leaf_weight=54 21 4123 21 97 24 25 27 50 26 25 21 40 42 22 32 27 35 29 90 43 30 23 32 36 24 22 42 42 143 117
leaf_count=54 21 4123 21 97 24 25 27 50 26 25 21 40 42 22 32 27 35 29 90 43 30 23 32 36 24 22 42 42 143 117
internal_value=-4.23735e-12 -2.60633e-05 -0.00160214 -0.00273931 -0.00102629 0.00100476 -0.000657766 -0.00531765 -0.00223731 -0.00243021 8.36179e-05 5.80179e-05 0.000169932 0.00203344 0.0001828 0.00266023 0.0051745 -0.00152884 -0.000976961 0.000461569 -0.000641791 -0.00215897 0.00119394 -0.00205642 0.000159196 0.00291787 0.00639568 -0.00535713 5.00342e-05 -0.00171957
internal_weight=5385 5364 349 243 146 106 81 97 47 122 5015 4994 4665 282 198 94 67 329 300 210 167 127 62 104 68 46 84 65 4383 260
internal_count=5385 5364 349 243 146 106 81 97 47 122 5015 4994 4665 282 198 94 67 329 300 210 167 127 62 104 68 46 84 65 4383 260
is_linear=0
shrinkage=0.05


Tree=26
num_leaves=31
num_cat=0
split_feature=3 10 8 0 10 10 6 9 9 10 4 6 0 4 8 8 9 4 0 4 0 3 8 8 3 10 12 9 7 0
split_gain=0.355993 0.77988 0.569973 0.491927 0.45264 0.623007 0.464094 0.433388 0.401343 0.675756 0.547237 0.394533 0.368121 0.338668 0.319022 0.551937 0.690216 0.736669 0.467838 0.596393 0.796004 0.633764 0.487466 0.705153 0.647417 0.598189 0.613227 0.843275 0.993297 0.783047
threshold=0.77707019438164948 0.89952969440046537 -5.3996966360507077 -0.03034000384660351 -0.93288921107241718 0.54046084595924759 0.024547348332287413 0.03891853581809996 1.3649745619065781 0.18579272072168157 0.2889880620615099 0.028994858234820377 -0.079597024328341023 0.20544669179039723 0.71969799920906274 0.76898504431467196 1.994955129015747 0.59714443878108125 0.2204037634703552 0.37494780713602943 -0.11779017895285464 -0.17163870351579361 -0.0050294994284181263 -0.039392580562903283 0.52930585904648497 -0.59039169899176247 0.30010353898357622 0.46485060329212252 0.11386437754993733 -0.061964471084602228
decision_type=2 2 2 2 2 2 2 2 2 2 2 2 2 2 2 2 2 2 2 2 2 2 2 2 2 2 2 2 2 2
left_child=2 3 12 -2 -5 6 13 11 9 -8 -10 -4 -1 -6 18 -16 17 -17 19 22 -21 -22 23 24 -9 -24 27 28 -27 -29
right_child=1 -3 7 4 5 -7 8 14 10 -11 -12 -13 -14 -15 15 16 -18 -19 -20 20 21 -23 25 -25 -26 26 -28 29 -30 -31
leaf_value=-0.0099769835998101738 0.0069015154030491067 -0.0079991823621094228 -0.0016719000107453517 0.0047180694062262775 -0.00030142488921510764 0.0082432305706398833 -0.0090769571203897469 -9.4307955412122304e-05 -0.0065911346487700952 0.0021334861684590579 0.0033837154359472074 -0.0097808811743743725 -0.0017367754964101496 0.0080360252454522111 0.0056878851853649727 0.00049791624220739037 -0.0086557175545021892 0.0093777139360706023 0.0056507895207580407 0.0016925103917999782 -0.0091279768750217628 -0.0025218031439368451 -0.002966751275243951 0.0039629428683005214 0.0031481218813236671 -0.0067575471000080661 -0.0016038517721039269 -0.0037112467150603023 0.0054223360239782116 0.0018950693732111064
leaf_weight=23 47 20 60 73 29 21 41 1841 20 20 44 20 33 21 55 871 20 24 34 76 51 126 256 131 168 70 533 70 22 565
leaf_count=23 47 20 60 73 29 21 41 1841 20 20 44 20 33 21 55 871 20 24 34 76 51 126 256 131 168 70 533 70 22 565
internal_value=2.84012e-13 0.00157591 -0.000104873 0.00218193 0.00135731 0.000105604 -0.000870912 -4.86122e-05 -0.0024994 -0.0054014 0.000266575 -0.00369915 -0.00512115 0.0032003 1.08306e-05 0.000823164 0.00053075 0.000736034 -0.000189008 -0.000239802 -0.00258752 -0.00442528 -7.73365e-05 0.000408602 0.000176836 -0.000763292 -0.000315606 0.000628872 -0.00384497 0.00127705
internal_weight=5385 336 5049 316 269 196 175 4993 125 61 64 80 56 50 4913 970 915 895 3943 3909 253 177 3656 2140 2009 1516 1260 727 92 635
internal_count=5385 336 5049 316 269 196 175 4993 125 61 64 80 56 50 4913 970 915 895 3943 3909 253 177 3656 2140 2009 1516 1260 727 92 635
is_linear=0
shrinkage=0.05


Tree=27
num_leaves=31
num_cat=0
split_feature=1 9 4 13 8 6 6 4 8 7 12 10 2 9 2 9 4 4 8 7 8 13 7 12 5 5 2 1 13 6
split_gain=0.326568 0.308149 0.564262 0.483112 0.666058 0.557784 0.469004 0.34738 0.385995 0.503902 0.288539 0.319917 0.575474 0.484463 0.483145 0.444486 0.249948 0.98617 0.621298 0.572992 0.745416 0.500109 0.455467 0.669319 0.454169 0.525659 0.403531 0.833663 0.696605 0.623773
threshold=0.8143877210248649 0.31917741731022098 0.3898780727299534 0.42228674116765352 0.15797536637657697 0.030352224474759711 0.024633941306534204 0.15980930947840691 0.020979568797364411 0.12132823130316821 2.4375369787319214 1.4175507016348059 -0.14154286653027684 0.90834167394458165 0.19013670996499935 1.575836603805886 0.2044484735689531 0.19737369970302618 -1.0104520483580681 0.063881669001138133 0.03126521661369009 -0.99314171839601684 0.1002335545613033 0.20415685553425092 60.152659127938897 52.182282878742157 1.0000000180025095e-35 0.10087473455159203 1.1563873551870261 0.032763407940327692
decision_type=2 2 2 2 2 2 2 2 2 2 2 2 2 2 2 2 2 2 2 2 2 2 2 2 2 2 2 2 2 2
left_child=1 2 3 5 -5 7 -6 -1 -9 -10 11 16 -13 -14 15 -15 17 21 26 20 -20 -3 24 -24 25 -19 -18 29 -29 -28
right_child=-2 10 -4 4 6 -7 -8 8 9 -11 -12 12 13 14 -16 -17 18 22 19 -21 -22 -23 23 -25 -26 -27 27 28 -30 -31
leaf_value=0.0052753402186291563 0.0062229843366713757 0.0050541625116424333 -0.00903001106141702 -0.0058452195608346118 0.0043507934210969042 0.0060988759759288188 -0.0049599137334596548 0.0010934405677692324 -0.0078878974709182224 0.0018737189131206831 0.0059242042047636849 0.0021494737098691984 0.001891390086066994 -0.013122651387626928 -0.00023607872869996799 -0.0034996983187738809 0.00079045240421625181 -0.0069358201309417684 0.0080483647587243478 0.00054156293790889388 0.00069542872075589355 -7.1740117274044453e-05 -0.0043830188751024643 0.004183788775883027 -0.012474218327552081 0.00070659813703969124 -0.0024840649201309886 -0.00101101987144702 0.0083139852892297021 -0.008834667214802628
leaf_weight=21 21 49 23 87 38 39 21 61 39 20 21 48 22 30 21 20 163 63 60 2321 81 1647 57 38 20 35 116 121 24 58
leaf_count=21 21 49 23 87 38 39 21 61 39 20 21 48 22 30 21 20 163 63 60 2321 81 1647 57 38 20 35 116 121 24 58
internal_value=2.99111e-12 -2.43629e-05 -0.00146094 -0.000926925 -0.00306412 0.000806581 0.00103681 -0.000657245 -0.00169545 -0.00457887 7.56102e-05 5.10166e-05 -0.00229678 -0.00459162 -0.00660044 -0.00927347 0.00011923 -0.00032638 0.00040818 0.000729569 0.00382434 7.63549e-05 -0.00353314 -0.000956296 -0.00560771 -0.00420639 -0.00123344 -0.00226759 0.000532429 -0.00460093
internal_weight=5385 5364 349 326 146 180 59 141 120 59 5015 4994 141 93 71 50 4853 1909 2944 2462 141 1696 213 95 118 98 482 319 145 174
internal_count=5385 5364 349 326 146 180 59 141 120 59 5015 4994 141 93 71 50 4853 1909 2944 2462 141 1696 213 95 118 98 482 319 145 174
is_linear=0
shrinkage=0.05


Tree=28
num_leaves=31
num_cat=0
split_feature=10 10 11 13 11 5 9 13 9 13 4 4 13 1 1 1 9 11 11 2 13 11 5 10 8 5 10 6 11 5
split_gain=0.300437 0.396527 0.532231 0.303551 0.346575 0.295416 0.560444 0.359646 0.483 0.38899 0.463621 0.465064 0.64548 0.486928 0.554437 0.706167 0.722366 0.571303 0.651893 0.550696 0.505011 0.450934 0.440422 0.58181 0.429985 0.425094 0.410187 0.394046 0.856907 0.588282
threshold=-1.3148452984734693 -1.6202766283252683 1.0699518967611101 -0.53376021791866257 1.0857514121472016 76.505133514193645 1.4491575062665556 -2.6556288480588166 0.89143705928239136 -1.9724223189634154 0.54501576359080517 0.37494780713602943 -0.63691703860248683 0.35234142847428479 -0.28827620263877352 -0.15456252646099314 0.58873642291888706 0.15805893367447341 -1.1704641919310153 0.089915369729005837 -0.053266204902479401 -0.27061203048615107 55.404966710583494 0.51690354248250792 -0.3913914405294861 51.957504687955982 -0.23618754843152792 0.030218790402094516 -0.93015372039039179 49.275143364961089
decision_type=2 2 2 2 2 2 2 2 2 2 2 2 2 2 2 2 2 2 2 2 2 2 2 2 2 2 2 2 2 2
left_child=1 3 -3 -1 -5 7 -7 8 -2 24 11 27 22 14 -14 -16 -17 18 20 -19 -18 -12 23 26 -9 -26 -13 28 -11 -29
right_child=5 2 -4 4 -6 6 -8 9 -10 10 21 12 13 -15 15 16 17 19 -20 -21 -22 -23 -24 -25 25 -27 -28 29 -30 -31
leaf_value=0.0035087515393065084 -0.00088128475915817998 0.0082812071142887526 -0.0012435596859590576 -0.0067060792827978739 0.0014638530573359244 0.0008785532337048503 0.0097218601343532409 -0.009552649273113771 0.0098425164375276798 -0.003769016933123859 0.0075179003811895089 -0.0014293888837776402 -0.0078680947257089434 -0.0069168074642894442 0.0065248522124337878 -0.0094870167458429942 -0.0030231447128409692 0.00032128860801458364 -0.0041605721460655333 0.011304395982906931 0.00664431720705969 -0.0001875893502319987 -0.0094328701043048437 0.0022529140453446997 0.0032850125666569782 -0.0051184035508948216 -0.010790521463844925 -3.6001749386697298e-05 -5.3776123174583978e-05 0.0031538413552587609
leaf_weight=36 21 44 22 25 27 122 21 22 21 162 39 22 20 27 44 20 22 25 76 21 35 37 37 33 27 34 25 389 3699 230
leaf_count=36 21 44 22 25 27 122 21 22 21 162 39 22 20 27 44 20 22 25 76 21 35 37 37 33 27 34 25 389 3699 230
internal_value=-1.75099e-12 0.00217664 0.00510628 -2.06011e-05 -0.002464 -6.40799e-05 0.00217722 -0.000127072 0.00448062 -0.000165424 -0.000108652 -0.000168917 -0.00178717 -0.000522412 0.000134047 0.000792659 -0.000474761 0.000532195 -0.00112903 0.00533532 0.00291302 0.00376654 -0.00492205 -0.00283579 -0.0035601 -0.00139886 -0.00640871 -2.19017e-05 -0.00020966 0.00114924
internal_weight=5385 154 66 88 52 5231 143 5088 42 5046 4963 4887 407 290 263 243 199 179 133 46 57 76 117 80 83 61 47 4480 3861 619
internal_count=5385 154 66 88 52 5231 143 5088 42 5046 4963 4887 407 290 263 243 199 179 133 46 57 76 117 80 83 61 47 4480 3861 619
is_linear=0
shrinkage=0.05


Tree=29
num_leaves=31
num_cat=0
split_feature=9 9 8 7 2 1 0 10 6 12 12 10 6 10 0 10 11 0 7 9 10 11 7 11 7 5 0 9 10 11
split_gain=0.288845 0.622224 0.445618 0.765476 0.5611 0.451882 0.374079 0.359794 0.461519 0.703748 0.614142 0.60728 0.600646 0.605093 0.618072 0.534921 0.483484 0.464635 0.663476 0.657758 0.659999 0.654583 0.572024 0.528103 0.386195 0.377123 0.781505 0.965274 0.551261 0.411788
threshold=0.88244263433134751 0.89143705928239136 -1.2846349040785683 0.065099202768319986 -0.05408317920933952 -0.11323379496534629 -0.0069133625865812611 1.7080666503617683 0.026039675743216077 -1.4338597592251154 -0.76330206580112347 -0.62072425598421932 0.028149252622443884 -0.80046585097733514 0.026973794537365262 -0.44066120361179245 1.2136409840048581 0.031845573666218326 0.10427026462847198 1.1406982225464313 0.50859386631838566 -0.6402235075644287 0.062051652750806228 -0.96111350891878977 0.15159696526975802 58.197483024174147 0.14951538714406334 1.5826655802403089 -0.69398939357047806 -0.83585874758009593
decision_type=2 2 2 2 2 2 2 2 2 2 2 2 2 2 2 2 2 2 2 2 2 2 2 2 2 2 2 2 2 2
left_child=2 -2 3 -1 5 -5 -3 8 9 -8 12 24 -10 16 -15 -13 -14 18 19 20 -17 23 -23 -19 -11 -12 28 -28 -27 -30
right_child=1 6 -4 4 -6 -7 7 -9 10 11 25 15 13 14 -16 17 -18 21 -20 -21 -22 22 -24 -25 -26 26 27 -29 29 -31
leaf_value=0.0054400179448916963 0.0063469872349828848 -0.00042880797701160374 -0.00019414826545620986 -0.0034221057804781152 -0.0051455407249741264 0.0052138752170971464 0.0078379231553267811 -0.0054076371636862554 0.0059205963782131164 -0.0038000532621058677 0.0039718027104998924 0.0037404371774755422 0.003892911464098911 0.0024771346821494049 -0.007489460777336112 0.0016864042147836757 -0.0050716562418355836 0.00023733712732791902 0.0078445468833179856 -0.0018623111504712142 0.011689053853042424 -0.0055313638968231237 0.00030537597025310489 -0.0091894063716515522 0.0036211050534620884 -0.0082223140148688922 -0.00055944100630850617 0.0096933520864695318 -0.0057392035165558693 0.0017326884377267091
leaf_weight=27 42 1304 1934 33 150 28 29 24 29 142 268 108 53 21 60 94 21 24 38 120 20 46 480 39 20 23 44 48 23 93
leaf_count=27 42 1304 1934 33 150 28 29 24 29 142 268 108 53 21 60 94 21 24 38 120 20 46 480 39 20 23 44 48 23 93
internal_value=-5.03806e-12 0.000301081 -0.000445384 -0.00248694 -0.00350129 0.000541951 0.000221003 0.000674862 0.000754069 0.000146937 0.00178522 -5.02677e-05 -0.000683864 -0.00191954 -0.00490553 0.00042346 0.00134891 7.39313e-06 0.00171661 0.000721478 0.00344126 -0.000781924 -0.000205061 -0.00559827 -0.00288386 0.00269566 0.00121511 0.00478984 -0.0011509 0.000251193
internal_weight=5385 3213 2172 238 211 61 3171 1867 1843 1160 683 1131 184 155 81 969 74 861 272 234 114 589 526 63 162 499 231 92 139 116
internal_count=5385 3213 2172 238 211 61 3171 1867 1843 1160 683 1131 184 155 81 969 74 861 272 234 114 589 526 63 162 499 231 92 139 116
is_linear=0
shrinkage=0.05


Tree=30
num_leaves=31
num_cat=0
split_feature=3 12 12 3 0 8 1 6 5 2 4 1 10 12 12 0 8 11 4 8 8 11 3 11 2 1 6 10 4 3
split_gain=0.296776 0.268898 0.40143 0.574986 0.309356 0.279272 0.575063 0.764368 0.566508 0.540651 0.524822 0.510014 0.509812 0.420568 0.642482 0.341449 0.448797 0.47679 0.431141 0.323422 0.641877 0.639668 0.565865 0.564554 0.541106 0.685804 0.500661 0.497229 0.508767 0.452301
threshold=2.0538044184530024 2.4375369787319214 1.6703724515582461 -0.30946496320354877 -0.050111753381170791 0.71969799920906274 0.093959111088422378 0.041931000374215092 76.505133514193645 0.020138138993034297 0.513523993261089 -0.21085457625832646 0.053911870038443943 1.1712977295158111 0.91700739511322926 0.12029389569278216 2.6919749125241483 -0.19542077089941254 0.3088710771678248 -0.0050294994284181263 -0.039392580562903283 2.0257116144869038 0.52930585904648497 1.8853753029105682 0.25778602720304528 0.17610184277944599 0.023104982257695635 0.27738322159994461 0.17926421825912262 0.47555952499716231
decision_type=2 2 2 2 2 2 2 2 2 2 2 2 2 2 2 2 2 2 2 2 2 2 2 2 2 2 2 2 2 2
left_child=1 2 5 -4 -5 19 10 8 9 -8 11 12 -7 14 -13 18 17 -17 -11 20 21 22 29 -21 -24 -26 -27 28 -22 -1
right_child=-2 -3 3 4 -6 6 7 -9 -10 15 -12 13 -14 -15 -16 16 -18 -19 -20 23 27 -23 24 -25 25 26 -28 -29 -30 -31
leaf_value=-0.00030467815622904593 0.0041865838354234646 0.0056138441321395699 -0.010884334673173728 0.0039843104459578171 -0.003515461836518212 -0.0095464932571520059 0.0064340408004465556 -0.0093491517454385772 0.0042461885008634181 -0.0022292747439074142 0.0065119380392134191 0.0016665093454488094 0.0004191526084799658 0.0077176657953747993 -0.0072510178910479665 0.0093517927639186395 -0.0055530553532298658 -0.00032577201354018015 -0.0099015435059776613 -0.00056252372002690008 -0.00039402599629413871 0.005759633770410685 0.0044114173495975453 -0.00630047804760662 -0.0030572262313216924 0.0090226981276646263 0.0010432877663887391 -0.0011374500177529021 0.0075337193408751323 -0.004341508207370579
leaf_weight=1913 42 21 20 20 44 21 21 25 57 143 50 529 33 27 21 20 20 35 21 1666 28 47 123 44 90 25 92 42 73 72
leaf_count=1913 42 21 20 20 44 21 21 25 57 143 50 529 33 27 21 20 20 35 21 1666 28 47 123 44 90 25 92 42 73 72
internal_value=2.96965e-12 -3.29097e-05 -5.51911e-05 -0.0034843 -0.00117178 -1.99776e-07 0.000740874 -0.000931951 -0.000268134 -0.00125781 0.00158097 0.00119025 -0.00345638 0.00162511 0.00132602 -0.00193367 0.00086097 0.00319334 -0.0032117 -0.000180062 0.000181806 -1.51275e-05 -0.000132369 -0.000710167 0.00178486 0.000224152 0.00274829 0.00343466 0.00533593 -0.000451102
internal_weight=5385 5343 5322 84 64 5238 1023 342 317 260 681 631 54 577 550 239 75 55 164 4215 2505 2362 2315 1710 330 207 117 143 101 1985
internal_count=5385 5343 5322 84 64 5238 1023 342 317 260 681 631 54 577 550 239 75 55 164 4215 2505 2362 2315 1710 330 207 117 143 101 1985
is_linear=0
shrinkage=0.05


Tree=31
num_leaves=31
num_cat=0
split_feature=3 10 13 13 4 9 8 8 11 7 0 7 10 12 11 9 7 3 8 7 4 11 11 13 0 10 9 8 9 6
split_gain=0.28486 0.433023 0.394962 0.876995 0.586827 0.575182 0.387971 0.565297 0.424125 0.374485 0.590374 0.542391 0.581319 0.768233 0.683993 0.663333 0.724494 0.47634 0.474471 0.430423 0.428377 0.748213 0.482614 0.458302 0.433398 0.441894 0.407215 0.668948 0.435206 0.457016
threshold=0.043263589194909809 1.0821276209062327 0.10756376701648306 0.035617587400516244 0.46482447181066616 1.9171979057595485 0.29026176102250068 1.4205072621707109 -0.04625980676600349 0.09137575855640892 0.099065094145260893 0.06343413017998982 -0.69398939357047806 -0.43922039395881485 0.19348670427295292 1.130858999170518 0.085352116477668341 0.44377079739374342 0.86930989175832452 0.092665530526503406 0.20328841509250409 0.73251307203175597 0.42732075889152904 1.2496513572452785 0.035225127354727166 -0.25455605820135158 1.0007510818099237 -0.24392524379922262 0.82696098461880752 0.014772916918216037
decision_type=2 2 2 2 2 2 2 2 2 2 2 2 2 2 2 2 2 2 2 2 2 2 2 2 2 2 2 2 2 2
left_child=2 9 3 5 -4 -1 8 -8 -3 10 11 20 13 -13 -14 17 -17 18 -16 -11 22 -22 23 24 -2 -26 28 -28 29 -24
right_child=1 6 4 -5 -6 -7 7 -9 -10 19 -12 12 14 -15 15 16 -18 -19 -20 -21 21 -23 26 -25 25 -27 27 -29 -30 -31
leaf_value=-0.00038368982822718664 0.0025930232655386942 -0.0021837257561204372 -0.0013543198087553501 0.0059487301588887938 0.0048937729410588361 0.0076443810420839687 0.0055552922918771707 -0.0048636026923423231 -0.0096064199865968144 0.0064842691708525474 0.0082678244728595016 -0.009326897824553735 -0.0023753604044440043 -0.0010079614201458753 -0.0027888281482268615 0.0021031346054375868 0.012746566250210718 0.0044453890253909126 0.004673374382779003 0.00072600360419466166 0.00034205870989423531 0.0091021855337879605 0.0039979302155023272 -0.004959187066249017 0.0038254410887020641 -0.0053565375457860923 -0.0060658033750951293 0.0052839839160819914 -0.0097053390368819249 -0.0044082469222914492
leaf_weight=745 258 67 1032 64 39 23 30 23 27 33 20 49 303 64 144 67 21 39 25 1957 65 39 22 28 20 38 20 37 25 61
leaf_count=745 258 67 1032 64 39 23 30 23 27 33 20 49 303 64 144 67 21 39 25 1957 65 39 22 28 20 38 20 37 25 61
internal_value=-4.08393e-12 0.000268843 -0.000491913 0.000325349 -0.0011268 -0.000143266 -0.00238699 0.00103389 -0.00431578 0.000385906 -0.000258567 -0.000387267 -0.00132593 -0.00461529 -0.000705397 0.00100406 0.00464304 -0.000535513 -0.00168495 0.000821492 0.000702988 0.00362711 0.000105525 0.00117181 0.00171506 -0.00219034 -0.00211752 0.0013016 -0.00392206 -0.0021801
internal_weight=5385 3482 1903 832 1071 768 147 53 94 3335 1345 1325 712 113 599 296 88 208 169 1990 613 104 509 344 316 58 165 57 108 83
internal_count=5385 3482 1903 832 1071 768 147 53 94 3335 1345 1325 712 113 599 296 88 208 169 1990 613 104 509 344 316 58 165 57 108 83
is_linear=0
shrinkage=0.05


Tree=32
num_leaves=31
num_cat=0
split_feature=1 7 7 12 10 1 13 5 4 11 3 13 1 13 11 13 13 11 10 12 2 3 12 11 7 2 2 10 3 5
split_gain=0.279543 0.268265 0.298465 0.599756 0.320599 0.319469 0.693716 0.692841 0.600609 1.03661 0.490269 0.989923 0.573342 0.364023 0.736095 0.314744 0.469831 0.331683 0.314102 0.66632 0.620393 0.446933 0.586633 0.626391 0.483392 0.430515 0.48337 0.392509 1.01061 0.384419
threshold=0.8143877210248649 0.45159329453713143 0.27729317829055095 0.63390517949298686 -1.1586076624528421 0.34351385660298878 0.31028399739326823 63.694152692359765 0.37178641668608353 -0.37090292740245195 0.75698238441040977 -1.0445267180119162 0.16749664087561691 -0.068951917205731475 -0.38652920890588643 -0.66737804573859849 -0.021554196336160732 0.88889035678164907 -0.65937452255929563 -1.8754939758401978 0.10838611100572872 -0.2094225276683386 0.20415685553425092 0.18577305694103888 0.14030028176584347 0.20507577634416543 0.12980544803740604 -0.44066120361179245 0.31228147472141282 52.509300595454086
decision_type=2 2 2 2 2 2 2 2 2 2 2 2 2 2 2 2 2 2 2 2 2 2 2 2 2 2 2 2 2 2
left_child=1 2 5 4 -4 10 8 -8 9 -7 18 -12 13 -13 -15 17 -17 -6 19 20 -1 24 23 -23 -21 26 -25 28 -20 -27
right_child=-2 -3 3 -5 15 6 7 -9 -10 -11 11 12 -14 14 -16 16 -18 -19 27 21 -22 22 -24 25 -26 29 -28 -29 -30 -31
leaf_value=0.0091958324264349613 0.0057575264856928876 -0.0042652991852043451 0.0086797651967832033 -0.0045440986956236887 0.008188172993915421 0.012449323348701 -0.00084444717804510764 -0.011179747517385027 -0.006199563311412931 -0.0010194198731333017 -0.0038581014126539228 0.0051297062834990883 0.0070770188933238394 0.0035425748519440376 -0.0089261159341549514 -0.0039127218791308177 0.0028817015421854987 0.00023973582401162104 -0.00014580126155235945 -0.0013268372633554522 -0.0016718432035607595 0.00077385257803261787 0.001598652645152968 -0.0034822474849028773 -0.010307645123323491 -0.0015282078912215575 0.0025333337894663578 -0.0001300620978672823 0.0046036616320567544 -0.0098135114993922242
leaf_weight=29 21 37 21 32 35 20 31 34 25 50 50 35 84 29 20 38 77 21 358 31 24 131 146 180 29 21 41 3530 163 42
leaf_count=29 21 37 21 32 35 20 31 34 25 50 50 35 84 29 20 38 77 21 358 31 24 131 146 180 29 21 41 3530 163 42
internal_value=-2.89792e-12 -2.25407e-05 6.92848e-06 0.00179327 0.0028495 -7.14842e-05 -0.00227039 -0.0062506 0.000452909 0.00282879 -3.07732e-07 0.00231797 0.00415608 0.00123514 -0.00154669 0.0021335 0.000636588 0.00520751 -0.000107267 -0.0011067 0.00427462 -0.00156598 -0.00112731 -0.00208632 -0.00566756 -0.00340563 -0.00236623 5.90177e-05 0.00134012 -0.00705174
internal_weight=5385 5364 5327 224 192 5103 160 65 95 70 4943 218 168 84 49 171 115 56 4725 674 53 621 561 415 60 284 221 4051 521 63
internal_count=5385 5364 5327 224 192 5103 160 65 95 70 4943 218 168 84 49 171 115 56 4725 674 53 621 561 415 60 284 221 4051 521 63
is_linear=0
shrinkage=0.05


Tree=33
num_leaves=31
num_cat=0
split_feature=3 7 8 4 10 13 9 8 8 13 11 13 1 5 8 11 5 9 5 11 9 8 3 12 7 7 12 7 1 10
split_gain=0.253872 0.270968 0.240561 0.527211 0.525203 0.830389 0.491324 0.450197 0.430923 0.627471 0.894065 0.73148 0.704659 0.620382 0.556868 0.560283 0.485309 0.435426 0.458768 0.455301 0.39066 0.51206 0.393579 0.390125 0.490342 0.565454 0.466931 0.375738 0.595267 0.35521
threshold=1.7630277552099098 0.21024200409653643 -0.81503834231995598 0.37945484923425371 0.54046084595924759 -0.089851205556950739 1.3181030255617745 -2.4459884246840806 -0.29096381932878773 0.56322193752967731 -0.18639141803981749 0.87267655487050566 -0.034174457022490494 35.579746165258378 -0.24392524379922262 1.0379961921608782 57.420233325674225 0.69052108833314507 53.443869442303118 0.94330302151752032 0.8351915721569565 -0.91210991703363098 0.54448746366072809 0.13210956712772753 0.18252044769147416 0.14514386579809332 -0.90531333650200629 0.067456250787478356 -0.047484586417832868 -0.37914570635947475
decision_type=2 2 2 2 2 2 2 2 2 2 2 2 2 2 2 2 2 2 2 2 2 2 2 2 2 2 2 2 2 2
left_child=2 -2 3 4 20 -6 -5 -7 9 10 -4 -11 -13 -12 15 -10 -14 -15 -19 -20 22 23 27 26 25 -25 -22 -1 -29 -30
right_child=1 -3 8 6 5 7 -8 -9 14 11 13 12 16 17 -16 -17 -18 18 19 -21 21 -23 -24 24 -26 -27 -28 28 29 -31
leaf_value=0.0023151340428739786 -0.00088740458083339045 0.0058151115516298698 0.0060843252118753174 -0.0082076851170250157 -0.010473425878632453 0.0048907976733365416 -0.0012749865026553237 -0.0032314952573407503 -0.0056044178471028119 -0.0047391680388331964 0.0068373038637928847 -0.0043954344258006466 0.0056491841050520753 0.0038303801087486268 7.6996515474310862e-06 0.0033817024224183779 -0.0031685239775106309 -0.0021423886237008608 0.00024899822763270804 0.0087501773799193057 0.0048891240153866623 -0.0038192675337195402 0.0046558244315826379 0.0033041747532331863 -0.0017899839595581096 0.011917991753991532 -0.00065893889469508492 0.00058167438569759562 -0.0018047204217276514 -0.0078405920774317715
leaf_weight=37 25 38 116 43 31 24 63 59 82 81 41 38 71 69 3599 22 20 170 63 21 46 50 23 111 36 23 216 63 39 65
leaf_count=37 25 38 116 43 31 24 63 59 82 81 41 38 71 69 3599 22 20 170 63 21 46 50 23 111 36 23 216 63 39 65
